{
  "saved_at": "2026-04-15T17:48:09",
  "schema_version": 2,
  "mode": "heading_drive",
  "mode_suffix": "heading",
  "model_mode": "heading",
  "input_dim": 248,
  "output_dim": 2,
  "memory_steps": 10,
  "whisker_dim": 11,
  "input_layout": [
    "t-9.whiskers",
    "t-9.target_bbox_lengths",
    "t-9.heading_to_target",
    "t-9.action.drive_speed",
    "t-9.action.rotation_rate",
    "t-8.whiskers",
    "t-8.target_bbox_lengths",
    "t-8.heading_to_target",
    "t-8.action.drive_speed",
    "t-8.action.rotation_rate",
    "t-7.whiskers",
    "t-7.target_bbox_lengths",
    "t-7.heading_to_target",
    "t-7.action.drive_speed",
    "t-7.action.rotation_rate",
    "t-6.whiskers",
    "t-6.target_bbox_lengths",
    "t-6.heading_to_target",
    "t-6.action.drive_speed",
    "t-6.action.rotation_rate",
    "t-5.whiskers",
    "t-5.target_bbox_lengths",
    "t-5.heading_to_target",
    "t-5.action.drive_speed",
    "t-5.action.rotation_rate",
    "t-4.whiskers",
    "t-4.target_bbox_lengths",
    "t-4.heading_to_target",
    "t-4.action.drive_speed",
    "t-4.action.rotation_rate",
    "t-3.whiskers",
    "t-3.target_bbox_lengths",
    "t-3.heading_to_target",
    "t-3.action.drive_speed",
    "t-3.action.rotation_rate",
    "t-2.whiskers",
    "t-2.target_bbox_lengths",
    "t-2.heading_to_target",
    "t-2.action.drive_speed",
    "t-2.action.rotation_rate",
    "t-1.whiskers",
    "t-1.target_bbox_lengths",
    "t-1.heading_to_target",
    "t-1.action.drive_speed",
    "t-1.action.rotation_rate",
    "t+0.whiskers",
    "t+0.target_bbox_lengths",
    "t+0.heading_to_target"
  ],
  "output_layout": [
    "drive_speed",
    "rotation_rate"
  ],
  "history_includes_drive": true,
  "hidden_layers": 2,
  "hidden_width": 64,
  "activation": "relu",
  "weights": [
    [
      [
        0.026936500846605132,
        -0.08917535313847492,
        0.07026242610105497,
        0.08330155961341092,
        -0.19027609260616868,
        -0.12469465607647542,
        0.01148040711104248,
        -0.035931907795784666,
        0.013133147216158712,
        -0.05645118224060143,
        0.06332369744042965,
        0.06923589862857576,
        -0.005941781824510105,
        0.10045326675100265,
        0.041785391482092364,
        -0.07745106427972143,
        0.03136793234670851,
        -0.08924013618363981,
        0.07888716584090205,
        -0.003039627074567458,
        -0.016601130318964992,
        -0.0633501875904456,
        0.10869081935227068,
        -0.01960193119122768,
        -0.036382080483489294,
        -0.029619539214465144,
        0.04902054325390411,
        0.031310351194975744,
        0.03719712790544357,
        0.0393563900808032,
        0.21026468483024238,
        -0.039641726270739454,
        -0.05185366665865594,
        -0.06198571229098164,
        0.061097864100020174,
        0.0861857978472407,
        -0.01166535548190172,
        -0.06570383608028989,
        -0.06767179773093669,
        0.059152078306147854,
        0.06674619495082726,
        0.07129899134398072,
        -0.06301275869281248,
        0.020848702274166936,
        0.001660927325634899,
        0.014673754797518316,
        0.07659288813167656,
        0.030068213419775346,
        0.0729311883953196,
        0.007966566747553111,
        0.02521510417746826,
        0.05669135623383897,
        -0.13062948631135268,
        -0.036078584379135255,
        -0.02562235305851871,
        -0.05868819134600828,
        -0.013732735825111246,
        0.13424969285827829,
        -0.07583207173323092,
        0.08695396316119579,
        -0.15112616680139315,
        -0.015932151737585887,
        0.015204138625488015,
        0.05319167665006692
      ],
      [
        0.063403124723659,
        0.07454912147626794,
        -0.025749802083335084,
        -0.04221638632525501,
        0.07137334634862524,
        -0.015639907030798206,
        -0.11456001369726675,
        -0.1071681319596576,
        -0.07571710329442681,
        0.0547423293093147,
        0.0052737137997499045,
        0.06140019005180406,
        -0.04234090537916383,
        0.013461302583274956,
        0.05597362400611956,
        -0.03123416789997773,
        0.039191962063400476,
        -0.0673417444721771,
        -0.032603197882151054,
        -0.03284431451188739,
        -0.10738957036080547,
        0.041606749737769025,
        -0.043221686369492925,
        -0.0015876293166574753,
        0.048867644026066505,
        0.03839121894516465,
        0.05843185235567119,
        -0.01054915315831769,
        -0.0374112680403016,
        -0.0064732363705494594,
        -0.14005927667905618,
        -0.13268298487462266,
        -0.11226799331264373,
        -0.08639143518491005,
        0.03566694672509187,
        -0.09239301286575671,
        -0.03503729403316175,
        0.11911896184747761,
        -0.031269872999871634,
        0.07185888393102395,
        -0.08384134269785543,
        -0.003288679804038843,
        -0.09090739982971058,
        -0.03044606899709351,
        0.07589928417194809,
        -0.15509299326861892,
        0.03729690268563648,
        0.030976748363149686,
        -0.04350219151233257,
        -0.12780786798682783,
        0.005292003414009711,
        -0.047549848966189745,
        0.021133027338791986,
        -0.006782476381692958,
        0.1500274861749642,
        -0.022016601866377807,
        -0.08374935183812242,
        0.016099427281185505,
        0.021677574562884834,
        0.12205864748104922,
        0.07499520377422209,
        0.031976840739891474,
        0.13380043194529717,
        -0.1061662019534261
      ],
      [
        -0.05791829124372925,
        -0.06867095582239893,
        -0.03322131552920353,
        -0.12433765307395273,
        0.05454264591375381,
        -0.011469983233207292,
        -0.13208230437351576,
        -0.09769208926485808,
        0.032698037875603,
        0.08096966032615906,
        0.1644107211776886,
        0.2612663907963477,
        0.037650528677136516,
        -0.08963912842392227,
        -0.1916694599135607,
        0.016366265096374167,
        -0.0723246099950646,
        -0.05317396799258474,
        -0.05496791523237949,
        -0.011206634477286303,
        0.09572785065259297,
        0.011789957935529158,
        -0.015280722990359173,
        -0.10341354361748842,
        -0.1380228459988196,
        -0.04487819339464584,
        -0.019224872496891796,
        0.15705989748230856,
        0.0118789336198591,
        0.08893828364836004,
        -0.027130247038766205,
        -0.1095485097178799,
        -0.06842407655126333,
        -0.052972875582777676,
        0.1792257931516744,
        -0.10204890268089782,
        0.07392257619278576,
        -0.08000298687462798,
        0.08855126108055113,
        0.048677628772367164,
        -0.014066498458860193,
        0.023415032857997318,
        -0.06398669519046717,
        0.040058466236468734,
        -0.029609506706484892,
        -0.10883363853286174,
        -0.11585112955643549,
        0.03256643470283064,
        0.16531195841943327,
        0.015215370778770212,
        -0.011151755494026886,
        0.025667945065230922,
        0.11752050536476259,
        0.00605673563105411,
        -0.0351305932346579,
        0.09814869450128556,
        0.053013836891358954,
        0.13791495939093473,
        0.014811652099568957,
        -0.10996056513229654,
        -0.12286432310061408,
        0.13630178718457292,
        0.16358938672274065,
        -0.015529202045917963
      ],
      [
        -0.03487814488565387,
        0.1329000114833786,
        -0.09837810887581895,
        -0.08078736015709619,
        0.07212610582606864,
        -0.022456079049137972,
        -0.00045995720959964606,
        -0.013884032439940979,
        0.020473501485260368,
        0.11310466439719385,
        0.022021143750904318,
        0.05753506997606081,
        -0.17382032731237307,
        -0.004788273255545693,
        -0.07593036550769157,
        -0.11289270797427428,
        -0.08065918644301175,
        -0.039188937714884124,
        0.08225047637347137,
        -0.11839964188320441,
        0.002750789239475632,
        -0.045808248518417395,
        -0.03046076927507433,
        0.08958445913891365,
        0.05483022625398394,
        0.11641468693920688,
        -0.018230229213427145,
        -0.06420238704424322,
        -0.016777199630385646,
        0.0224625250212853,
        0.01111674232002433,
        -0.10163476102227588,
        0.027178763458283985,
        0.01615408995772151,
        0.21898837370769247,
        0.1709038676116088,
        -0.07807091460073692,
        -0.03510752216828372,
        -0.13712210748746723,
        -0.0400913234561023,
        0.028342165995502242,
        0.10812696636746168,
        -0.07119147871022258,
        -0.05874408446905811,
        -0.17738962103987602,
        -0.012082530981986138,
        -0.09642887313179069,
        -0.04513081495323169,
        -0.07326200876605478,
        -0.007427921484557017,
        -0.15803975012520532,
        -0.13174455219269648,
        0.19145012205412854,
        -0.11308943633147887,
        -0.11335804292740936,
        0.16369096699183872,
        0.27067723509603003,
        -0.10520978910733299,
        -0.03349697179835044,
        0.03067259394279586,
        0.15524163126822038,
        -0.11138273462509987,
        -0.009630318266274883,
        0.07040934596816133
      ],
      [
        0.038576238444862236,
        -0.034370369728222286,
        -0.008240772292065658,
        -0.12331592726148097,
        -0.017224444103990186,
        -0.018456058808339885,
        0.020849471573923348,
        -0.0473760809613877,
        0.03698102905662645,
        0.08582464635005745,
        0.019850980929076032,
        0.030985411161381683,
        0.008354790220946443,
        -0.0003996448870947899,
        -0.06550246384151814,
        0.027773214050393402,
        -0.012237599552918773,
        0.18213157004115058,
        0.14129144122718645,
        0.03477182649725345,
        -0.06852456030546841,
        -0.10132003798186236,
        0.10587116108918232,
        0.02845701054522785,
        0.046327016497906055,
        -0.15527745359804937,
        0.08834533220275873,
        0.038985551063344726,
        -0.09656179025243271,
        -0.0416585074246929,
        0.025041993320201614,
        0.0012116504356931106,
        -0.018784243297179246,
        -0.015474168329759652,
        -0.0202123072634547,
        0.012826997264919314,
        0.1307255869098868,
        -0.23230384401156487,
        -0.027507346815841,
        0.025100666141849727,
        0.026581044957930802,
        -0.03163249451163783,
        -0.16126953190026144,
        0.029454863957945398,
        0.1652640361531338,
        -0.1349709831704994,
        0.07585386997001081,
        -0.027741043637596396,
        -0.0026451807667439214,
        -0.09363100263547977,
        -0.030509463969498503,
        0.1167474510395913,
        0.05242294436101783,
        0.16288253465696698,
        0.10662612349719017,
        0.03818552174275245,
        0.16513134867865878,
        0.03942274943144004,
        0.07358538037058784,
        -0.02663285784098496,
        0.0059759906780053156,
        -0.07247813411235536,
        0.09536531964769625,
        -0.10521241814889828
      ],
      [
        0.0697902271574135,
        -0.01328320741501918,
        0.11139611905571363,
        0.06735490089337294,
        0.16458962399573795,
        0.06758780579522093,
        -0.14117338245742436,
        -0.007674883416941521,
        -0.10635936460740207,
        -0.047135320323539835,
        0.1295481203276525,
        0.05668111737639557,
        -0.06024974043133445,
        -0.09181048885091461,
        0.002696928212308381,
        -0.10920663617313384,
        -0.06376269195590156,
        0.021402164872255623,
        0.10375008359005572,
        0.054780460840192294,
        -0.2057638721112712,
        0.02602300742712863,
        0.005439884904142241,
        0.03648183212883453,
        0.15089072593217184,
        -0.18528785487046473,
        -0.054933884025878905,
        0.05144207179625783,
        -0.13863059167980518,
        0.13322980757877972,
        0.04762200561744208,
        0.07227527479499563,
        -0.04232311243696443,
        0.07112585532027499,
        0.09502145869426266,
        0.007251967894111742,
        0.019364188083403126,
        0.025501944743348732,
        -0.08203398871403812,
        -0.0025490247440492072,
        -0.01369692775349724,
        0.04640515323077114,
        0.08549408176152054,
        -0.09505934635498559,
        0.0013211920934528027,
        0.1315324174512199,
        -0.06851729631217957,
        -0.0671695888137762,
        0.02946696143643557,
        0.0779028781211892,
        0.0004375202791005545,
        0.11934418411355828,
        0.0770403472110536,
        0.07882761199089666,
        0.05697758584020572,
        0.207838298597679,
        -0.004066959360890328,
        -0.1799216131919913,
        0.14171208191498763,
        -0.04110262226724184,
        0.009687949894506566,
        0.11024179647522735,
        -0.1334845850715437,
        -0.11189577538669139
      ],
      [
        -0.1439390804522939,
        -0.06617841950551566,
        0.04417448745814347,
        0.047374153558416225,
        0.016818697210550664,
        -0.12962624840105513,
        -0.20745341272474835,
        0.0010485974113994556,
        -0.03594015152318544,
        0.05090247547044534,
        0.052427653633004646,
        0.011822994223577563,
        0.06376437268877404,
        0.020049847794425535,
        0.047436763369906716,
        -0.06269719664293708,
        -0.019558942813161652,
        0.015107573149629584,
        0.07368563232445732,
        -0.03560436121658144,
        0.04680220118611576,
        -0.025824670005167565,
        -0.011574777499363267,
        0.07304877970138877,
        -0.1746589348063885,
        -0.11676775397942615,
        -0.13140132357788065,
        -0.20990569200032955,
        -0.060348357522107994,
        0.06748385874372997,
        -0.011317760072960701,
        0.015040336380369298,
        0.09682795814056996,
        0.12289382046223625,
        -0.002341409432944925,
        0.10933678061836692,
        0.0078931604874442,
        -0.06799863390948488,
        -0.04978835437035807,
        -0.1281918921937,
        -0.07975677452001809,
        -0.01674916735835605,
        0.06855341317104484,
        0.1545296926225645,
        -0.12386685137990747,
        0.030349071299787738,
        -0.0951970059445711,
        0.049689137623647864,
        -6.155962443999874e-05,
        -0.16268216494113238,
        0.08257833032091053,
        -0.05433066787521312,
        -0.04770757005123644,
        -0.1011694794319478,
        -0.04584653708331118,
        0.03806507936207189,
        -0.006498642717430086,
        0.029514719092334798,
        0.0315107090867419,
        0.11859891775815849,
        -0.030783105078296236,
        -0.125651880183844,
        0.09809786815670349,
        -0.029064730983241083
      ],
      [
        0.0999501579767264,
        0.03459780698109495,
        -0.008294775809415466,
        0.03228469771757246,
        0.1734709770459981,
        0.18728417255851695,
        0.006230609865241601,
        0.01101249711729606,
        0.10299156308526382,
        -0.07101120914501945,
        0.028297559471268833,
        -0.002919522497642729,
        0.025020995728241974,
        -0.0755870674877029,
        -0.14296966795707294,
        -0.185481400759781,
        -0.10450700236888649,
        -0.04380366521743994,
        -0.026329381735880106,
        0.17540525437334673,
        0.09932113662090543,
        -0.08846972723378087,
        0.030143868978806186,
        -0.03664288676407135,
        -0.02248045198147141,
        0.014994960581018924,
        0.058079748018474306,
        -0.03065648063431662,
        0.0956515554202623,
        -0.10237852196140039,
        0.007713491738024192,
        0.2300317669709036,
        0.023416012730528547,
        0.1317374646118349,
        0.012671888094585476,
        0.04790818125163329,
        -0.005439075672549447,
        -0.01125256145343697,
        -0.06789413701596128,
        0.041476220137818764,
        -0.0764702970253704,
        0.06797386028157014,
        0.09500378886976786,
        0.032915492049570755,
        -0.026669613515780677,
        0.03524791081653959,
        -0.02945356837443622,
        0.08842971020689955,
        -0.15585554790398376,
        -0.028580056341826886,
        -0.17959387811607866,
        -0.134260425980679,
        0.12271653058570736,
        0.08029845330316777,
        -0.06005576734155711,
        -0.1338381545543007,
        -0.25750990940543833,
        -0.048807337426218136,
        0.21759959678284482,
        0.03905376046146118,
        -0.05025107472086572,
        0.04201080415339577,
        -0.13867193404693615,
        -0.025934269083053754
      ],
      [
        0.008510342244485823,
        -0.020433825435582777,
        0.07036643905890036,
        0.03091667055586771,
        0.07075355800513966,
        -0.05774901159800276,
        0.08062620379593438,
        0.14942881045730327,
        -0.09364131594370352,
        -0.09076690073816528,
        0.14439327273380684,
        -0.01782371827346741,
        0.13219759748929807,
        -0.040489733854475615,
        0.13046089827375568,
        0.012684184535231924,
        0.021407475816094503,
        0.14333664555394351,
        -0.03248794793286547,
        -0.08307849877990711,
        -0.04028225503066683,
        0.03836169407433365,
        -0.14136658128724575,
        0.06451687726297523,
        -0.04997973390184054,
        0.10065811433106299,
        -0.20203321096419827,
        -0.07153018835663219,
        -0.150361777265173,
        -0.07386712747398755,
        0.006401981501496947,
        -0.01984466715818076,
        -0.020487331822733476,
        -0.02617381886925689,
        0.02808326864121019,
        -0.06495378619181282,
        0.06103683205190312,
        0.051211331013293865,
        0.024100027347085228,
        0.04994083721423047,
        0.026619122280706047,
        0.16427333094107388,
        -0.011489326269539562,
        -0.02757688708816786,
        -0.060306968668219434,
        -0.09392567104473791,
        -0.1134936907077303,
        -0.08641739052695416,
        -0.017394325908883332,
        0.031488182457715966,
        0.0038052843085084856,
        -0.06874709735745725,
        0.08107704698171152,
        0.07525440664353983,
        -0.028550403070236707,
        -0.05675393715367979,
        0.05055293368737498,
        0.016880526476749095,
        -0.12490975080644216,
        -0.006104807203968257,
        0.023531510584725218,
        -0.0900370502460032,
        0.015118013531788072,
        -0.13050301338177578
      ],
      [
        0.11956833830748237,
        0.09924523843304202,
        -0.02574361264190731,
        0.03219445446629399,
        -0.1991957749623948,
        -0.0951031352428011,
        -0.026382125841511533,
        -0.09078837975460587,
        0.05107921294817453,
        0.16159082018119678,
        -0.07623603877900244,
        -0.07574547350835491,
        0.032693944721736125,
        0.14390651925948666,
        -0.10997850561740681,
        0.024159916649922942,
        0.16179767217418559,
        -0.1483864064682314,
        -0.11504341090637332,
        -0.03660423588553797,
        -0.04675021956126774,
        0.07071832078700656,
        0.020702027672687806,
        -0.15068317387365823,
        0.04716361507476044,
        -0.05577102155485989,
        0.1211437394216973,
        -0.05806392007803004,
        -0.05554157771607893,
        0.04928072350028112,
        0.048292384802492615,
        0.03648824634773447,
        -0.14268536612757465,
        0.03304448895314486,
        -0.08688121276992287,
        0.048162875077326105,
        -0.13080462891090688,
        0.02734278302076491,
        -0.08617125857690841,
        -0.11262322221802715,
        0.06410294060285752,
        0.0030268091427733653,
        -0.06011574379106898,
        0.13031970773664792,
        -0.029250475278202813,
        0.005605498698148552,
        0.02241120147792242,
        -0.06315200883514711,
        0.034255958321333956,
        -0.046285122105892654,
        -0.03772897934859599,
        0.12236892143822047,
        -0.09320929939178407,
        -0.20692358805521827,
        0.12141413198798924,
        0.22778563625472895,
        -0.032828915668279064,
        -0.17393319063126766,
        -0.023640011462768132,
        -0.02570357967656392,
        -0.017055664414443828,
        -0.11691269869193799,
        0.05631879088542395,
        0.04712463733477368
      ],
      [
        -0.13466849396200226,
        0.04914572617306716,
        0.18671208428364514,
        0.014306023600631877,
        -0.021289918523949042,
        -0.010139464162228306,
        0.05525168872770275,
        -0.15211325481889967,
        0.010758749776385468,
        -0.04373708620458133,
        0.1877178700468105,
        -0.016238143418564607,
        0.15460520263094307,
        -0.09983616884885355,
        0.05253137819014709,
        0.030423869731093987,
        -0.07973449070561098,
        0.01800507736377836,
        0.1088874059511467,
        -0.027640593059649627,
        -0.15194273131107877,
        -0.003978897632516221,
        -0.08212632621340904,
        -0.023536875383522612,
        -0.008092771381459307,
        -0.15599655771659954,
        -0.13262007931005954,
        0.04154835293600855,
        -0.04450514202905174,
        -0.22963517076418344,
        0.056085870486616125,
        0.021125684543599796,
        -0.0638932108163964,
        -0.13263365160924928,
        0.08660635123752854,
        0.05757422712028437,
        0.21254960308348128,
        0.030351983780490657,
        0.028331999143860146,
        -0.01425648645381797,
        0.07334863815838953,
        0.03915198435215619,
        0.10746964136909617,
        -0.04681618012766466,
        -0.03888310268289731,
        -0.04363293874499252,
        0.06925329894747492,
        0.12872206362907898,
        -0.053991448958815365,
        -0.035904953665467275,
        0.027050017174725233,
        -0.022070034218185205,
        0.08573502869033059,
        -0.18457127212232136,
        -0.08205819278971094,
        -0.07147444084101837,
        -0.20485325185967487,
        -0.0865372869227353,
        -0.07700528325149873,
        -0.018059731106922373,
        0.09994728755857024,
        -0.030388400364507684,
        -0.09242000175000248,
        -0.004512297882729971
      ],
      [
        0.09375166496582546,
        -0.0913808450530017,
        -0.07900991616752319,
        0.04921631718353575,
        -0.01699890186920871,
        0.06066903799814279,
        -0.0012255180810453942,
        0.06169746203866656,
        -0.09304932785606286,
        -0.001693449302220756,
        -0.012287953552066607,
        -0.10978719851629846,
        -0.13870247353150647,
        0.06080609933128003,
        -0.0317225061232948,
        -0.0922323072810979,
        -0.010395106404222566,
        0.09819713222972395,
        -0.20481630478096002,
        -0.1329653616010919,
        -0.08287764906650759,
        0.1289851006777746,
        0.024280426373914893,
        0.07020875505314404,
        -0.09916233845332798,
        -0.10208094197896575,
        0.04340111261988999,
        0.0035282938410009603,
        0.050603127382146264,
        -0.016167682200794863,
        0.024281480528109703,
        0.010616199713760429,
        0.07467380594809558,
        0.07001267789706789,
        -0.14150129811469445,
        -0.19678838630034318,
        0.08852485107155839,
        0.10383394153918536,
        -0.09504910683737024,
        -0.16258869252388083,
        0.008893589469082957,
        0.08474866757993837,
        0.1561765732830198,
        0.04636489068648585,
        -0.03143803855993959,
        -0.08047072717371133,
        -0.0007412310193850591,
        -0.02466155562904923,
        -0.08922913898255562,
        0.18592316246449866,
        0.15942988049264703,
        0.10202018346354638,
        -0.08245672017860367,
        0.07831465947608006,
        0.054370162835379064,
        0.03853542221021932,
        0.12023718129779717,
        0.05705801300634843,
        0.06923414106712901,
        0.057195872693908245,
        0.03060397188117405,
        -0.16562618905549747,
        0.011207720516740677,
        -0.04934514147148416
      ],
      [
        -0.11540001848451027,
        0.14782564450052088,
        0.15798080790842234,
        0.12111338597175009,
        0.023155299385747098,
        0.12371027766076594,
        0.0010824075711870706,
        0.016363222369725712,
        -0.09676336945449174,
        0.03686875171095557,
        0.00997765103772854,
        -0.11757858362856588,
        -0.004583715992023516,
        -0.007935908164740033,
        0.16121970630274998,
        0.08029922505211656,
        -0.0007972201222997341,
        0.018846032113920955,
        0.003970388761363231,
        -0.016785453400900454,
        -0.09720483185445938,
        -0.01570012448626697,
        -0.06809823519797523,
        -0.11213926107479039,
        0.04936252075098233,
        0.03359646983007461,
        -0.15751784145014716,
        -0.012722301248712401,
        0.09051121810910336,
        0.0958067700720911,
        0.0932391634468664,
        -8.489712312984452e-05,
        -0.07173795470458083,
        -0.09981171998786614,
        0.03502999886759143,
        0.03688807535271876,
        0.11417120527613887,
        0.09777155021799726,
        -0.015238630987798454,
        -0.10741363871893776,
        -0.028656618367439327,
        0.022756672106325423,
        -0.023593721216798858,
        -0.05189642291039054,
        0.023947355859975893,
        -0.045112524898004096,
        -0.05825912020378962,
        0.0307623962318724,
        -0.032788941715654496,
        0.023854973235995607,
        0.023644891824119094,
        -0.10232374493955936,
        -0.04297864196838772,
        0.13001009213713857,
        -0.10623751371786855,
        -0.19134723923918545,
        -0.159600220959647,
        0.0026141503734429775,
        0.0057765698941476835,
        -0.010561766605128102,
        0.10903746547127084,
        -0.24276618629292285,
        0.038594025253997175,
        0.1408236608210333
      ],
      [
        -0.10174461006210568,
        -0.03993255055778302,
        -0.06631257809109387,
        -0.08137943292889936,
        -0.023372159071118222,
        0.13277823496282318,
        0.16500219439545397,
        -0.030039829168588834,
        0.17140594282671245,
        -0.0013432948487174378,
        0.16994422594171563,
        -0.008780032849460584,
        0.015448005855979668,
        0.032044594554788745,
        0.28526343577020774,
        0.07789870592555144,
        -0.06513454755592878,
        0.08398244846385318,
        -0.032493521053073696,
        -0.042194140717643,
        0.08159481083268053,
        0.0003947709859425318,
        0.02396197405347705,
        0.004941085694779096,
        0.0324742851651306,
        0.03511766586095975,
        -0.16911696298717913,
        0.058155097171170546,
        -0.08644263285951775,
        -0.12883661562466317,
        -0.009028909395617884,
        0.0030887346718587536,
        -0.05620819693723422,
        0.07204058314649867,
        -0.11657796542939382,
        -0.0275431140505831,
        -0.05395778910415168,
        -0.008427803682159504,
        0.01994181615840271,
        -0.08613459937252455,
        0.06504250451864353,
        0.0021453783551454958,
        -0.17508200896834739,
        -0.17588670359978242,
        0.0013282337790384462,
        -0.022303022992154666,
        -0.010472490357093394,
        -0.003409990278965215,
        0.018154752783328277,
        0.08595876166513872,
        -0.10006752200415005,
        -0.10524615595487387,
        -0.09794529412308262,
        0.03184998557501435,
        0.10673199493438379,
        -0.03994177307821232,
        -0.21882402779746865,
        -0.15302307637030263,
        -0.07341524965903581,
        -0.050085532643817605,
        -0.03667438137119257,
        -0.004421212806099773,
        -0.022417252893922938,
        0.0948358497456495
      ],
      [
        -0.06117505379403836,
        -0.08290524935376882,
        0.047321227721082874,
        -0.13912997089816098,
        0.030918382299362848,
        0.008057522599865388,
        -0.013240726466666087,
        0.14273430206169516,
        -0.050270064227100536,
        0.18833223226914256,
        -0.016684773576835864,
        -0.11506252192165208,
        0.0027042968525648726,
        -0.09742565409531687,
        -0.06769060325799131,
        0.03788508013914102,
        0.048332561698634445,
        -0.058371321876724364,
        0.08867159964942514,
        0.10435424194296135,
        0.1289837053945686,
        0.04514916059189827,
        0.12139087355794091,
        -0.16557424157436276,
        -0.026800871790343683,
        -0.07856672097303818,
        0.01972790794176436,
        -0.053153358263401444,
        -0.013610061447978206,
        0.16970996421601764,
        -0.011461684999236986,
        0.03323556916028922,
        -0.024156570404347537,
        0.006048247819743177,
        0.009236629150882598,
        0.0434546858429593,
        0.10321316466000678,
        0.149334016184437,
        0.023609461340294912,
        0.0549379614824425,
        -0.1033506838820849,
        -0.003870521150188053,
        0.07809684015107535,
        0.07776627942431392,
        0.015050746712917507,
        0.07646423222935024,
        0.04295187891008996,
        0.10879688722656315,
        0.024592159914481635,
        -0.03125055354876662,
        0.02999426202885485,
        -0.2631751439965028,
        0.034622240893978716,
        -0.32198220577074455,
        -0.14804043765075747,
        0.039363669971430544,
        0.04845985902037882,
        -0.10438918607082387,
        -0.06218419471417151,
        0.12307821410005793,
        -0.04346718898558505,
        0.20538415161301768,
        0.003761581874882775,
        0.03724510129880143
      ],
      [
        0.14473269972792713,
        0.0057957237242474,
        -0.0825916553784754,
        -0.011104660881714076,
        -0.0164988171823521,
        -0.12982802125973333,
        -0.022974398220652004,
        -0.06715689882493509,
        0.09720873478122323,
        0.016743394873555983,
        -0.030996654221787778,
        -0.00993775883781688,
        0.009399214728854759,
        0.05461556834858563,
        -0.09003210528833176,
        -0.0892563182091274,
        0.09744005501826215,
        -0.03699964930782613,
        -0.12723617598255468,
        0.04005084179502243,
        0.04161183698129442,
        -0.13895258273160147,
        0.019557534070837327,
        0.07070489597383482,
        0.032893193436278854,
        0.05851321919326099,
        -0.11177796046816606,
        0.02789195605401112,
        -0.026343470952782746,
        -0.042670165833757635,
        0.09055902360531819,
        0.12897435244585634,
        0.14762680498185415,
        0.11687716302881274,
        0.005207239080951346,
        0.03132790639080131,
        0.06708597156293697,
        0.018855919484100935,
        0.008279005453119293,
        0.07135819378329793,
        -0.0053237387722169715,
        -0.058044824912235726,
        -0.04250500197351704,
        0.05692683242538788,
        -0.008427505943043371,
        0.025829764829336355,
        0.059003059238171306,
        -0.03210253134695535,
        0.06510626395830582,
        0.03471381795770445,
        -0.11111106583373946,
        0.12952279381783496,
        -0.044868259281116395,
        -0.1417155566773194,
        -0.0726085823695487,
        -0.09295497356889482,
        0.0095317121277535,
        -0.024592501379408462,
        -0.028978300515095815,
        0.055650879338533334,
        0.03052170844923739,
        0.045191721627553916,
        0.03683810479317191,
        0.055932897473350535
      ],
      [
        -0.18940650706933815,
        -0.03270795233141215,
        -0.18994880534919925,
        0.0021114929393687633,
        -0.010992173794676286,
        0.09143219541080412,
        0.10665271690103116,
        0.01663282478747243,
        -0.033655552116853345,
        0.055302569384407745,
        -0.05523876896034209,
        -0.0007220339801806084,
        0.08094913334728425,
        -0.05086532749541314,
        0.07218294875483258,
        0.06461907674190448,
        -0.08928002799524794,
        0.08661456513437266,
        0.06273310972309476,
        0.009348749729983546,
        -0.06845866746057597,
        -0.0783458489411678,
        -0.049379962491070496,
        0.05181802437927565,
        -0.08487351370616608,
        0.040429146836384273,
        -0.10146397629488375,
        -0.01891664350994623,
        0.010623711336021784,
        0.2197969257901479,
        -0.10610944435100891,
        0.128454328815122,
        0.00798287085863562,
        0.03530138007849566,
        0.021572435178968195,
        0.031900306813292846,
        -0.014127356595800366,
        0.14022026282572256,
        -0.044325709978102715,
        0.10256249629646479,
        -0.057865875620991575,
        0.00553304952962915,
        -0.09915818202743497,
        0.04086233636118154,
        0.12452337920101089,
        -0.01032307457481869,
        -0.019441781800536517,
        -0.09691997978432637,
        -0.016842783494248986,
        -0.14113682529094992,
        -0.08271032689181636,
        0.020365988153444682,
        0.11854172181214928,
        0.2528982823593613,
        -0.03350947965402086,
        0.12830708414500402,
        0.027282452140992775,
        -0.013582439637360898,
        0.03883049523584999,
        0.0055602643758874745,
        0.009913828820523739,
        -0.025569554972936143,
        -0.12455430277942034,
        -0.13789778950883563
      ],
      [
        0.05855714654482829,
        -0.022089185412698886,
        -0.04897521993847596,
        -0.0005183096907271098,
        0.06460556203266939,
        0.01680056154492277,
        -0.05891547252077881,
        0.10878931693888536,
        0.14820604793152692,
        0.05338646642390876,
        0.08163064596727324,
        0.11093432997782843,
        0.09593717161096557,
        0.05440123639894947,
        0.05355677196743901,
        0.049253767443572904,
        -0.10210557594782443,
        0.05946684156964616,
        -0.1217556888881529,
        -0.07159773927442131,
        0.11706359885761243,
        0.07410697886927466,
        0.13247567569245616,
        -0.021807955233140084,
        -0.10153227982367431,
        -0.021416317394674936,
        0.015759496153673457,
        0.006927279967105424,
        0.10229751590962687,
        -0.03230511876805343,
        0.0487207319499283,
        -0.09242890739616733,
        0.04061714890985927,
        -0.00020252096660241487,
        -0.06051333187503944,
        -0.031199044065383073,
        -0.016721309961891903,
        -0.0162812167564532,
        0.15624625079685808,
        -0.005802304636702061,
        -0.021902517265778156,
        -0.17657671703716962,
        -0.08313796751481946,
        -0.023624690927350603,
        -0.06440090127745327,
        0.12218162955296805,
        -0.016573513436306565,
        0.11946356535187895,
        0.012729698153285444,
        0.004838923483242108,
        -0.008685091100133317,
        0.00034091345952090075,
        0.15459043455382893,
        -0.21075286662252102,
        -0.16568897284369,
        -0.047895980217206376,
        0.0073292542206154655,
        0.0619732068198771,
        0.04158311860618162,
        -0.034506301617734325,
        0.09151282515158345,
        0.09698065703835344,
        0.020353404426958824,
        0.0871641023123461
      ],
      [
        0.024369126663532085,
        -0.05152762254613105,
        0.065371550896977,
        0.00871942644872932,
        0.0013656550666328816,
        0.13339989293195853,
        -0.22009481443772347,
        -0.12776571466390463,
        -0.10488048208641033,
        -0.030319385706986536,
        -0.017388604970450864,
        -0.13603430436037625,
        -0.0887332051045922,
        -0.07805181967096571,
        0.2203903677369028,
        0.16343407308372848,
        -0.04058636290312988,
        -0.03298158866940658,
        -0.10320156550269027,
        -0.17014865701777754,
        -0.010496150590424354,
        -0.09180559623425216,
        -0.008716436517256608,
        -0.1384610883746772,
        -0.06551478735948175,
        0.011784723289822429,
        0.0384761772433894,
        0.03738221927370396,
        -0.1179839469560918,
        0.07686720177135088,
        -0.06842471473868612,
        0.05345924735429187,
        0.003717881452904821,
        -0.12409938966435669,
        -0.023299156821384368,
        0.03542399078900079,
        0.05328579361512229,
        -0.011622598574707543,
        0.13309584112615405,
        0.09349548350880715,
        -0.023048220046196326,
        0.0708033710202896,
        0.17155091900239774,
        0.1760567144212384,
        -0.11280387205178193,
        -0.08477882446611008,
        0.1315851064739351,
        -0.09395686676886737,
        -0.11615624596297935,
        -0.0428125380892477,
        0.03702719096086258,
        -0.009195495708716512,
        -0.058184251033901006,
        -0.06348993786490977,
        -0.06371704063424063,
        -0.07654059656283196,
        0.210824990081403,
        0.02671728289829546,
        0.0799133917607344,
        -0.04392045318799483,
        -0.016699402584947894,
        -0.0670109746641876,
        -0.23687033786167994,
        -0.1235493311536944
      ],
      [
        -0.16273481100602427,
        -0.2035028789998911,
        -0.10497687534944396,
        0.11796478799278305,
        0.0016413655288954978,
        0.11949780412860533,
        0.03690732492601198,
        0.0707814925464362,
        -0.08317587687824068,
        0.045274529540066874,
        0.07503275226020542,
        -0.05242842165294947,
        0.05236801518605269,
        0.05009628688589388,
        -0.04949238073216196,
        -0.10050319188746466,
        -0.11050966273867649,
        0.006060455666180254,
        0.02936635312482046,
        -0.0697341602102775,
        0.0023874341291794236,
        0.04901917941515105,
        0.05441853117469187,
        0.1446491361184059,
        0.11848377883008608,
        -0.090946732732335,
        0.15597237617259724,
        -0.04751865825753616,
        0.09470698236742173,
        0.006232482311055919,
        -0.03739793715627419,
        -0.16590263807748895,
        -0.007691844285855268,
        -0.1403809925725367,
        0.08969810302349396,
        0.14109442106149925,
        -0.07338617665765118,
        0.024820059247913886,
        -0.07088999443271948,
        -0.0527941298647463,
        0.0695516776029388,
        -0.003641501709454809,
        0.1540882960257084,
        -0.04330575499227921,
        0.09036436846820217,
        0.009081824461849464,
        0.06969338752425208,
        -0.03977652176733411,
        -0.0034636083953495257,
        -0.009705096544265263,
        -0.07579565968717307,
        0.059456676992453154,
        0.058632171251144324,
        0.05288630833754392,
        0.13310728078037956,
        0.13274858783678192,
        -0.028144727385816963,
        0.0335010871620796,
        -0.05500827544897648,
        0.002097369302342768,
        -0.05385909047469278,
        0.13701393490592212,
        0.036818057635177544,
        -0.019437578107684216
      ],
      [
        0.10676513334520604,
        -0.19815575748922948,
        -0.17810963007701633,
        0.07053933835058462,
        0.009506294732178214,
        0.024341714452479925,
        -0.11911388637183264,
        -0.002305288229938228,
        0.17893584325951203,
        0.07297418815288964,
        0.022466179773752686,
        -0.039943242904873485,
        -0.03345147121802843,
        -0.1919835969485281,
        0.02293074098626854,
        0.07541053027819164,
        -0.14325277546470913,
        -0.06111407905054242,
        -0.10394339242879687,
        -0.08525433609133833,
        0.004802791869115327,
        -0.189404539493366,
        0.054066479969507225,
        0.071020200688344,
        -0.019739581834375963,
        -0.2240600872122431,
        -0.08591883854588626,
        0.10973062415393067,
        -0.24895712186939326,
        -0.03084871844322146,
        -0.10685964760691515,
        0.06867767363217607,
        -0.05618193571028586,
        0.03428918574200453,
        0.05512139077499719,
        0.17078144445184731,
        -0.0209634349473689,
        0.030359245052675177,
        -0.13798548918943018,
        0.1097303853575768,
        -0.06829571067594606,
        -0.049650229635930514,
        -0.006180189607699131,
        -0.14035115743884102,
        0.02190254722375179,
        0.08667053089096753,
        0.024536646552607164,
        -0.1414016856412371,
        -0.009468719496454586,
        0.06768201011583601,
        -0.1695313442758617,
        -0.09651683725992173,
        0.07895402610673802,
        0.024248411321160002,
        0.033607035862038295,
        0.1662641295749953,
        0.04982167117720297,
        0.05908008740682261,
        0.2460617256580883,
        -0.01920021611527186,
        -0.07165198737082883,
        0.03283547884663244,
        0.042897497226751735,
        -0.04722939143360548
      ],
      [
        -0.09317889686726924,
        0.2036929964461787,
        0.0321135324620905,
        -0.06670402862831551,
        0.08514859790682615,
        -0.0072783276736169055,
        -0.022709424271440876,
        0.04917980081133121,
        -0.11611102169366976,
        0.031058642106336968,
        0.17842098128290743,
        0.04126701971991171,
        -0.0320828532750069,
        -0.046315380491600944,
        -0.03705566924381032,
        -0.023235349657605788,
        -0.03568601110872712,
        0.07918524500905791,
        -0.15564677222870255,
        0.07884665006211293,
        -0.03409685651186318,
        0.03161827529062276,
        -0.10230313583018778,
        0.12061622471327353,
        0.11508845628445749,
        0.08463012062460742,
        -0.13284274080341618,
        0.07275237462975738,
        0.03768198688013664,
        -0.14347194328518217,
        -0.0028785329455671463,
        0.029152850214468323,
        0.054765266288822084,
        0.013459735462959308,
        0.03012085457530911,
        0.13735649709614783,
        0.10866655406428075,
        -0.2602960559616177,
        -0.03190127775806664,
        -0.010356641333048868,
        -0.15734309666765445,
        0.00961481549887133,
        0.10688957815731012,
        -0.09757667429717716,
        0.032152802317137276,
        -0.08250860577567508,
        -0.062109068343142254,
        0.13488707307335493,
        -0.04679648066358718,
        0.04344738058296748,
        -0.16892332196531626,
        0.1672410540420472,
        0.054357874049415,
        -0.014857312193010803,
        0.0486156179837866,
        -0.12781187020737297,
        0.1142083229521293,
        -0.029094691727556604,
        -0.015547082583013988,
        -0.04415197760951779,
        -0.05214403528119563,
        0.05693008127514312,
        0.026679439636521782,
        0.05913108179653728
      ],
      [
        -0.0007530640102787153,
        0.04506108732302417,
        -0.04024791935167149,
        0.20212967224344772,
        -0.15919511047749646,
        0.10389395867486664,
        0.12284171541570783,
        -0.07399108886876465,
        0.21983019704303403,
        0.10350411230045038,
        0.07536720266938941,
        0.0025810929168040542,
        -0.03433759524042307,
        -0.01874780768325484,
        0.035097355817216014,
        0.12642364267502995,
        0.015679113120149767,
        -0.07507994889426517,
        0.07403573576935055,
        0.08272561037913594,
        0.05879016116578533,
        0.0663959460022171,
        -0.024211527005844967,
        -0.09421272925474798,
        -0.0962189789779245,
        -0.13723660358502934,
        0.036615607672467056,
        -0.00732064391565235,
        -0.04772158741924933,
        -0.2654883968144889,
        -0.10117837134254784,
        0.09863636413500801,
        -0.06955089542979823,
        0.03421143858701007,
        -0.11494033532321986,
        0.11214089528609153,
        -0.013371156817751166,
        0.04297277574931322,
        0.2051416357625116,
        0.13308600174795895,
        -0.027530405501143954,
        -0.04436024311202459,
        -0.01980392785709238,
        0.045790214460275855,
        -0.022290365181956477,
        -0.04222106648409775,
        0.13070680843626187,
        -0.004097525147860299,
        0.21083228083488997,
        0.00790927308212435,
        0.16013327265823893,
        0.03208823141798749,
        0.08648283760957916,
        -0.06111579351151307,
        -0.051183176092241954,
        0.04539010593471324,
        0.08438776208487914,
        0.0036151406001673006,
        -0.11192829295531591,
        -0.122154807355921,
        -0.12816063227403238,
        -0.14288258791017328,
        0.002242907836348459,
        0.1008927774214512
      ],
      [
        -0.0012267527120234183,
        -0.17546198747139213,
        -0.021540740992924048,
        -0.009668152394931847,
        0.15565536505918653,
        -0.12651372250240744,
        -0.03508388440496244,
        0.14144418028940495,
        0.05927226957740565,
        0.08857773054034906,
        -0.03201907428598296,
        0.029352381864541678,
        0.048686696061769556,
        -0.07332927434148788,
        0.07853469962156107,
        -0.1287379395761797,
        0.02986416157105195,
        0.004266609527432278,
        -0.055344753120878686,
        -0.002639320420600564,
        -0.05590575607164561,
        -0.09631622239004117,
        -0.03279485607225773,
        -0.10600342908698175,
        0.04916428619987109,
        -0.0932084711214162,
        0.05244053199567872,
        -0.10703665095072558,
        -0.05457529556854594,
        -0.05601542779397385,
        0.1626645736370987,
        0.030531288914434476,
        -0.010533011957237777,
        0.06851183169421254,
        -0.20330919432105302,
        -0.0645594817067605,
        0.17556089826900467,
        0.03486744954570274,
        0.01578956383611982,
        0.05913176884747216,
        0.08042772511111813,
        -0.12364010119988529,
        -0.15760181055079622,
        0.018884715424563894,
        -0.07003102788547753,
        0.11169316714127114,
        -0.02827220836473954,
        -0.1521873946791506,
        -0.07072870090791694,
        -0.24642976534865776,
        -0.02156176211327949,
        -0.016917394037184987,
        -0.037879789863352276,
        0.06605261295388931,
        0.13234166533485633,
        -0.015841644751303962,
        -0.19064622280503496,
        0.05543352234993852,
        0.04155013961579206,
        0.027784183201288115,
        0.08813948340382373,
        -0.0760103135573132,
        0.1818322575730936,
        -0.08645185002564525
      ],
      [
        0.06725496294047101,
        -0.15223512255184457,
        -0.07013051254122174,
        0.13503865252485978,
        -0.03777314251131943,
        0.03384593162575279,
        0.021279222078896022,
        -0.006181848665715654,
        0.140522653714563,
        0.006285584201487851,
        -0.16431899991058116,
        -0.07185884346879043,
        0.03038951028747355,
        0.03486330537740033,
        -0.14072598516354265,
        -0.051049143440093696,
        -0.052770864446339785,
        -0.014877869926601145,
        -0.12356068782176269,
        -0.05635645961228189,
        -0.06543115313245623,
        0.06853417341213297,
        0.07326911517082223,
        0.0012594019450799067,
        -0.02724890502225133,
        0.03198699381096936,
        -0.03838134746893093,
        -0.10270543951624754,
        -0.08133950821298117,
        -0.05700790502283303,
        -0.08449369738992463,
        0.018162494670593166,
        0.036695797485635125,
        -0.12800938112522806,
        0.020172340671122058,
        -0.0104768324812473,
        0.03230167664726609,
        0.01977856911753222,
        -0.1302531391936252,
        -0.11931974490396989,
        0.002642315089823333,
        0.07228158248741942,
        -0.18159155306086838,
        0.03104716339197333,
        0.06264689714530111,
        -0.027977687834796976,
        0.04921584544666718,
        -0.08288262991416216,
        -0.05234083773401896,
        -0.14422396776131716,
        -0.2114631977592204,
        0.08466286823479,
        -0.08845515574439484,
        -0.014619231095906626,
        -0.06500623000013664,
        -0.12537686283023664,
        -0.03353712701455279,
        -0.06551796615228989,
        0.02019496970279626,
        0.040639149709774405,
        0.02881314881665749,
        0.04492757895069198,
        0.1385229111348422,
        -0.09609195358911296
      ],
      [
        -0.00536131496060171,
        0.10131956320344888,
        0.11801178428169583,
        -0.12867532503055498,
        -0.045179648259804646,
        0.11171347567645087,
        0.04562685057138583,
        0.011486415029856482,
        -0.0017260850167304478,
        -0.012669846743483483,
        0.012635804511619596,
        -0.02326582118678274,
        -0.01761737231643573,
        0.006282390209095029,
        -0.06099173261477482,
        0.04936484874368509,
        0.25995556530032454,
        -0.1598867490173969,
        0.029097183633799525,
        -0.0668216162309097,
        0.0518522821631916,
        0.001948436266806133,
        0.06732767208670945,
        0.10286005210040035,
        0.01788510745160435,
        0.10368609094645924,
        -0.20329260179603117,
        0.1413189287153387,
        0.03389165319416211,
        0.09746085778754086,
        -0.09450471634256288,
        -0.07794011731467139,
        0.00101111542705041,
        0.007774949121462328,
        0.03615404541480974,
        0.0902251065087524,
        -0.1600813781914279,
        0.09728879564988804,
        0.007477001728043222,
        -0.021135859323599057,
        -0.132110047993944,
        0.06157574585078071,
        -0.22120902483216542,
        0.05822750111044053,
        -0.1480370145203152,
        -0.001119849334363621,
        -0.012365530045120122,
        0.11238375560663309,
        -0.011107470181581116,
        -0.060450585950234094,
        -0.04663101282889025,
        0.11430824706342942,
        0.04839897629427745,
        -0.04062796365561636,
        -0.002058011313751803,
        -0.1420588597585216,
        0.04243421710539423,
        -0.15803611584605337,
        0.07115396091680756,
        0.011550559983279283,
        0.21435459944291413,
        -0.07866871716858427,
        -0.011751480291633611,
        0.16203546613622719
      ],
      [
        0.10652304047513117,
        -0.06153773724128468,
        0.022849800468042154,
        -0.0006895250596603849,
        0.024031941306603185,
        -0.058921119488531855,
        -0.008021208952109293,
        -0.14666893462982664,
        0.015087556783906806,
        0.04474976966874372,
        -0.020654378586628788,
        -0.14563880259604386,
        0.08934668958046156,
        0.03195933280625188,
        -0.0654041322699477,
        -0.029716693345672035,
        -0.13652399858165115,
        -0.09904602668983391,
        -0.04829688464795024,
        0.11175220586420603,
        -0.05742909983374588,
        0.055365794834447035,
        -0.049417947051980854,
        0.02327356530465386,
        -0.007100174145494391,
        0.07709684361952754,
        -0.04830424145048255,
        -0.14292210120669602,
        -0.12330394358749636,
        -0.04707833866752696,
        -0.10664766095231627,
        0.03404402923045598,
        -0.03423785122640449,
        0.2125241517821794,
        -0.155568011084101,
        0.015052340615280924,
        -0.10237391305157138,
        -0.04570185648321682,
        0.012076976006159446,
        -0.20328533135650717,
        0.021267613116770973,
        0.1787252437050465,
        -0.04699782879509031,
        0.02333143429524131,
        0.09343896618815238,
        -0.013360875487537432,
        -0.053893191821225296,
        -0.19820239812847137,
        0.06488060250983946,
        -0.008124982031274269,
        -0.09189301227257267,
        0.011368720192510636,
        -0.05217795665424672,
        -0.05255009787560613,
        0.05396051970163659,
        -0.12075549248132186,
        0.10082565357086942,
        -0.12551592273276255,
        -0.05735580737567008,
        0.17268566598328247,
        0.10123944622805504,
        0.005378637534996164,
        -0.0823022301046954,
        -0.046943377881263924
      ],
      [
        0.0061134098907115325,
        0.015669129304918535,
        -0.005466199138726157,
        -0.003405523649074453,
        -0.021035774421690762,
        -0.12188843404144421,
        -0.04638403392293502,
        0.07600474668897661,
        -0.11804698797420664,
        -0.011821360896420384,
        -0.08570563031179415,
        0.009597410174363146,
        -0.03570443030132247,
        0.13189788573885197,
        0.045286458384351656,
        -0.12364444066874657,
        0.06024843672110357,
        -0.08408529475446777,
        -0.05181580377480755,
        0.029618540305473007,
        -0.04416022192075905,
        0.07785696607536775,
        -0.07058382654119336,
        -0.06471961166870255,
        -0.048538138485347083,
        -0.05274532457383341,
        0.08672626398718451,
        0.054762678550563805,
        0.15393400574631647,
        0.20432613136818464,
        -0.0776824659949158,
        0.002875032477555163,
        -0.0894026482122806,
        -0.05845359625926479,
        -0.06663797350489403,
        -0.11828705001489202,
        -0.09581713715716529,
        -0.012062563848693255,
        -0.1058432999392074,
        0.08797945959399242,
        -0.08241670063700686,
        0.274570883090534,
        -0.0449949234093204,
        0.006467375163884144,
        -0.10723285978299994,
        0.1538516638165905,
        0.0994615024852538,
        0.04211849913148867,
        -0.10088321161947673,
        0.019670509784717287,
        -0.10119570776855889,
        0.13132337938328847,
        0.07290591883787052,
        0.00030604398372833933,
        -0.21593795135058536,
        -0.08962009032551643,
        0.0746178270466977,
        0.10892017088764358,
        0.0986429345257527,
        -0.14296698804906463,
        0.027080196571001164,
        0.07989974930930954,
        -0.14087029143239949,
        -0.00011113932595277727
      ],
      [
        0.024124865715039395,
        -0.028881212145709066,
        -0.16261274810814114,
        -0.029801452627096367,
        -0.01574555565488989,
        -0.006624019757706935,
        -0.0506012277734635,
        -0.04029185542125584,
        -0.013277826305738635,
        0.028517988594908325,
        -0.01391825101260804,
        -0.037076867310569056,
        0.0164323494758403,
        -0.172851630677629,
        0.04263296723078775,
        -0.002701663196543023,
        0.0035333508962727854,
        0.07935228920350708,
        -0.17536801153844608,
        -0.1766888053751248,
        0.024588311167711544,
        -0.00299216183448029,
        0.014229863820801002,
        -0.040270551346324714,
        0.06492670728237057,
        0.07975778961094844,
        0.04116607038128894,
        -0.025127982587500174,
        -0.18440565200726533,
        0.0697651210401091,
        0.1022300657485194,
        0.05396016148491313,
        -0.06556303774977326,
        0.05657962447598586,
        0.07229539925672532,
        0.1476086387415577,
        -0.0801433924215548,
        -0.03002486567061348,
        0.06447865222104046,
        0.015504155415735901,
        -0.10033898071463569,
        0.034888469837456845,
        0.04546432150520085,
        0.007899301281339751,
        0.03213751835910119,
        -0.022375308391565134,
        0.13174373415426874,
        -0.07900409236128372,
        -0.05031184936669719,
        0.001967439156229374,
        0.07856616462566327,
        -0.13446808023080933,
        -0.11743003501177318,
        -0.18026827951581967,
        -0.008602496247946902,
        -0.10160013871656512,
        -0.0242254441487862,
        0.059393514774710957,
        -0.057140068784632944,
        0.02076973877409271,
        -0.026881337664905462,
        0.041088668787157674,
        0.05576273317417409,
        -0.061535109336475574
      ],
      [
        -0.01561228216634067,
        0.09185696658910764,
        0.039859720067848645,
        -0.12512156428598506,
        0.06499709605225387,
        -0.09223012216635544,
        0.12684741827355675,
        0.0951640391906886,
        0.01834736749374607,
        0.008307228076467868,
        -0.011064703779469056,
        0.060329243235575356,
        -0.0303644339904012,
        0.020727001782693884,
        0.07754078832847294,
        -0.049296647120140445,
        -0.057071835642622804,
        -0.11232809136928552,
        -0.09559247453363083,
        -0.1640032779325983,
        0.06554056003948479,
        0.16121598498941367,
        0.12690168385563136,
        -0.14092272652688387,
        0.06963013435095117,
        0.128413872411043,
        -0.036525595812160104,
        0.007405352647837665,
        -0.17547754686317252,
        0.024639285308344156,
        -0.09488608114801235,
        0.014439772162437383,
        -0.1338390067783515,
        0.04095861724661031,
        0.09605648863161526,
        -0.06747758026286438,
        -0.1033916874847164,
        -0.1949544491737972,
        -0.028830265070517887,
        -0.045626724010179934,
        -0.13928565500208165,
        0.04041750451506398,
        -0.044450088291197384,
        -0.0966039408767696,
        -0.04087759365910442,
        0.09791101427492754,
        0.05242547829107476,
        -0.012429130462389444,
        0.05704262019623272,
        -0.10245431975210342,
        0.0020861402872937407,
        0.013229935831155447,
        -0.042114445995967385,
        0.0455688345266039,
        -0.0700463057267154,
        0.044525222044355516,
        0.058732754739533176,
        -0.26196869071649365,
        0.10679084642739743,
        -0.2736854836834081,
        -0.05532283564915413,
        0.08300641539780192,
        -0.018341765173265117,
        -0.13106501719893715
      ],
      [
        -0.09868739526667392,
        0.089514180004611,
        -0.16458878592409695,
        0.10128322239681879,
        -0.003674680353608027,
        -0.11151473091347615,
        -0.052365279338644766,
        -0.09269985678936417,
        0.07881072794274668,
        0.06634661933069366,
        -0.15701823934994272,
        -0.03680864473987615,
        -0.07688413036073462,
        0.11538464231363738,
        -0.12145698687714503,
        0.1457958571790175,
        -0.005334572729590246,
        -0.10670606765210375,
        -0.06082101718696194,
        -0.07183007496300085,
        -0.11446411153144008,
        0.007110453041985455,
        -0.11136350224025741,
        -0.19252371262074033,
        -0.031079145623799292,
        -0.16203403637997707,
        -0.06315281420953915,
        -0.08326106126834099,
        -0.07599643791125324,
        0.18037746140565497,
        0.015876781025896427,
        0.018219714877856518,
        -0.1581771514046845,
        -0.06405636884474501,
        0.02417600888956031,
        -0.09580681672878662,
        0.07992499409124816,
        -0.10729387856838724,
        -0.029840423939086196,
        -0.04796751013642573,
        0.014756430828763913,
        -0.05231338199702296,
        -0.028413022696306123,
        -0.021205108225697586,
        -0.05734910291518085,
        0.03872438839552001,
        0.01965702865445719,
        -0.004578094235083946,
        -0.03524184426683579,
        0.07355177365138486,
        -0.021926949701586648,
        -0.027542229505385082,
        0.009480371484374814,
        0.16011777760303458,
        -0.10881253090678045,
        0.06797177943698053,
        -0.15772068622504554,
        0.01951170560298163,
        0.13987674243543888,
        0.04388372896396457,
        0.015322584382240838,
        -0.0526600762105685,
        0.011030161935554337,
        -0.022130497568268043
      ],
      [
        -0.07073294867674457,
        -0.02102331953608076,
        0.022974494356822625,
        -0.06753596803667093,
        -0.07839629993752716,
        -0.1287484945996974,
        0.035088143160057844,
        0.044007760075508585,
        0.026146128708945057,
        0.09621232832988992,
        -0.005181916946135703,
        0.034608540773057216,
        0.02296471878097859,
        -0.008722127020433061,
        -0.047795119419233145,
        0.19735085380061632,
        -0.042302378506071873,
        -0.06309727331958181,
        0.03897523271167186,
        0.0223489878879781,
        -0.1261540050966067,
        0.0988534822981566,
        -0.009452869722528654,
        -0.09946021600766171,
        0.11123255676705981,
        0.05613275256952467,
        -0.11453851792924119,
        0.15930430188241862,
        0.059559490558062526,
        -0.0007363846322562157,
        0.1573815210193093,
        0.011919506234825124,
        -0.0030799750887253456,
        -0.05277558979026413,
        0.05387598993357799,
        0.03031396549078545,
        -0.0002901011431586993,
        -0.06657425602170537,
        0.016543926652521357,
        -0.0020569806556854572,
        -0.11974952888060204,
        -0.11564818531127413,
        0.047241435070293596,
        -0.23365646833239753,
        0.018903225505833475,
        -0.04859267512460032,
        0.11572581438179945,
        -0.035400524419332995,
        0.07102073231183022,
        -0.03396479899410698,
        0.009240235187013683,
        0.06616987384012843,
        -0.04130064283595546,
        0.07983626877265713,
        -0.07479226103583164,
        0.02800392865459272,
        0.09529482240314646,
        0.05927311653099903,
        0.1705566755860926,
        -0.06855887458234801,
        -0.12385125891423182,
        -0.08400821506895215,
        0.06345878489733785,
        0.04499894302456405
      ],
      [
        0.009033701253139076,
        -0.10329181016704943,
        0.07341026793644892,
        -0.10827369988734879,
        0.10186859770857352,
        0.2517539247517797,
        0.03290828442902064,
        0.04893773245755753,
        -0.03649378023474069,
        -0.1550348206831971,
        -0.05694434260323948,
        -0.09880655883778403,
        -0.13419655806430242,
        0.1539209212629571,
        0.024279261563195452,
        0.03449916397785756,
        -0.029380395355086488,
        -0.016542443754583015,
        0.08661920830186363,
        -0.001467198623535064,
        0.04765772251135535,
        -0.019603737301297608,
        -0.03180436639065414,
        -0.12189169927116049,
        -0.17601996141141385,
        -0.024670820536418843,
        0.010098622838112576,
        -0.11576613540860196,
        -0.0034585378700484246,
        0.004993552510668723,
        -0.18828584514746574,
        -0.08449738020062467,
        0.03445646581357197,
        0.037253689287396925,
        -0.09636524627385833,
        0.014022141997501483,
        0.09026268900825533,
        0.07234128100592244,
        -0.006316017243284667,
        -0.04253297064985304,
        -0.05651680309389179,
        0.04845447798626496,
        0.015213341761077585,
        0.05652214830642389,
        0.008863390349439266,
        0.06597882859752989,
        0.006762468739468524,
        0.07417502114211195,
        0.081702026744376,
        -0.07146784783775188,
        -0.16338115808460293,
        0.13860975029033162,
        0.023286721155080552,
        -0.15308857631897238,
        -0.054934925149921376,
        0.07278661044849065,
        -0.016393848058957116,
        -0.045984472936535424,
        0.12663940062337664,
        -0.09404916211751176,
        -0.07167628744162073,
        0.024092885129281677,
        0.03533268629655541,
        0.04484787821964811
      ],
      [
        0.08140032117883989,
        0.01363571940886487,
        0.04661042464823067,
        -0.02333933595944402,
        0.010899085432408428,
        0.01358315131015695,
        0.019316382824587114,
        0.06810549409761565,
        0.04820304906094154,
        0.0009844473689910103,
        -0.06388258320333039,
        0.005436250722256942,
        -0.00039650503435917486,
        0.016572236027922033,
        0.19794577028868085,
        -0.04760346291711447,
        0.036272325791600356,
        0.09365623325692891,
        0.008800831690510857,
        0.2113814497217991,
        -0.03394893058470997,
        0.02692756144023743,
        -0.07253650408854799,
        -0.0322238658924599,
        0.024548656506754425,
        0.07292344946391391,
        0.031791967660130864,
        0.11267770262895685,
        -0.007143940763561722,
        -0.02963138742121158,
        0.23954284281321966,
        0.03180807377874802,
        -0.0597636615777069,
        -0.06733202795114912,
        -0.08077305928253939,
        0.0905026747847959,
        -0.03313137527331689,
        0.0090921824666368,
        -0.01050393702993167,
        0.06836497666956216,
        -0.07603986427091099,
        -0.09716270050548902,
        0.01765922344317891,
        0.05396773691715981,
        0.03708753633637683,
        -0.07330188030345373,
        0.059104695213189194,
        -0.06537739215696056,
        -0.04179785458999667,
        -0.0830894193317184,
        0.11607976766378919,
        0.05688293359324112,
        0.05456809571288933,
        0.11662535701365917,
        0.24489987727904372,
        -0.15404054832503036,
        -0.05953852586949945,
        -0.0553341560472694,
        -0.07292628253051188,
        -0.09676983232242889,
        -0.026909639536456236,
        -0.11615241671440511,
        0.03158036997540288,
        0.005236639276313608
      ],
      [
        0.04273074169628235,
        0.03387112077031442,
        0.05440917792517544,
        -0.034480232363090335,
        0.19193314119897806,
        0.02232477271863357,
        -0.16725606825771971,
        -0.08837105454653137,
        -0.15449459314833577,
        -0.0018412400093516048,
        0.005268492410314013,
        -0.04259701473145461,
        0.18050210191190452,
        0.0485241354867977,
        0.06499950593370114,
        -0.07901845932174918,
        -0.09134508013907582,
        0.006281963022021505,
        0.015536499785013223,
        -0.16526493947226403,
        -0.016192048648219586,
        -0.0010049416554684602,
        -0.020094644407540285,
        -0.07264888668845952,
        -0.04992628705474281,
        -0.017106689006639978,
        0.02121278001716454,
        0.05260699186058921,
        0.09847213097168166,
        -0.025747535589613145,
        -0.05003133335786479,
        0.03558957757399784,
        0.05014138405301486,
        -0.046832148017602396,
        0.08429810003168821,
        0.10764012237042414,
        0.11458358283166248,
        0.15860045373498619,
        -0.08472858978252458,
        0.0006987729015536761,
        0.0010127670536803962,
        -0.019974319924270505,
        -0.06343364528444483,
        -0.13340740613490867,
        0.00959932492364619,
        -0.07024542076683019,
        0.005986916267084335,
        -0.07585404022452549,
        -0.10777498943961508,
        0.02305615789549982,
        0.012834446255605309,
        0.05202105670888086,
        0.19653444770979883,
        0.03738748904959555,
        0.03773163198478778,
        -0.09973026967890031,
        -0.11296369571137506,
        0.14214228042229882,
        -0.07717108474385838,
        -0.09374894512759328,
        -0.003511186777010038,
        -0.0072839763689691635,
        -0.08256307455244805,
        -0.026873003667008875
      ],
      [
        0.10993429092354115,
        -0.08828864143425508,
        -0.12166147125538317,
        0.08377660482208413,
        0.062478040622658014,
        -0.0473705495300954,
        -0.14208279239413818,
        -0.06025210548196494,
        -0.016267665125069646,
        0.08655476803013262,
        -0.06310138931641102,
        -0.008187079611697939,
        0.07225372078848002,
        -0.21432303609226735,
        0.09263068664122769,
        -0.10406397324720264,
        0.028188506009036045,
        0.0223009863978871,
        0.0973987332064969,
        0.050911230273579196,
        -0.21348698838627175,
        -0.0728212661600629,
        0.011326223951928286,
        -0.009008482134759244,
        0.042882225755196096,
        0.06502866280140156,
        0.06574020066202743,
        -0.0209860381811828,
        -0.16195972936794387,
        -0.04021775333116146,
        0.014905113524349896,
        -0.10127707964147259,
        0.06312741705349383,
        0.0618752859582455,
        0.02047655297971591,
        -0.24260159209944787,
        -0.11604710570959982,
        0.155223833963069,
        -0.059163610971423565,
        -0.1757687414663752,
        0.11092849012762569,
        -0.024457755401302708,
        0.09409939129300765,
        0.02487162325585478,
        0.05087510930315499,
        0.03452730366876258,
        0.06087456144855518,
        0.19641856279456057,
        0.07048739976328207,
        -0.13969942640890498,
        0.038878657156225314,
        0.10250799905646672,
        0.10824380753427355,
        -0.015045805245826414,
        0.08902609630349205,
        0.08210220622359607,
        0.234589100088737,
        -0.06735214417975974,
        -0.03966872972399152,
        -0.027490302077399484,
        -0.0440232486589646,
        -0.0998900821067011,
        -0.24403258123685254,
        -0.03843479422896561
      ],
      [
        0.03270242532128851,
        -0.04802978535014295,
        0.17656448335717081,
        0.0002583233612843504,
        0.1188334603094691,
        0.02599944237401403,
        0.07421356724525659,
        0.023762838136830916,
        0.12282391940204775,
        0.004415286312992339,
        0.05118552308880561,
        0.03230069840665508,
        -0.024186807400369926,
        0.03559250388672758,
        0.200447756475747,
        -0.02471119013653975,
        0.03591107648841013,
        0.10984993262357765,
        0.10239776745550924,
        0.002488925733009081,
        -0.21403462392093014,
        0.04416864774227393,
        -0.20041130611443558,
        0.13330589285324915,
        0.018446337576723495,
        0.08822972465863496,
        -0.07782571801933152,
        -0.14112418238347463,
        0.02474136169343287,
        -0.0023320076883412318,
        -0.044838232740482556,
        0.004019494161461558,
        0.2533513121506035,
        0.07248380128083484,
        0.09821525832541106,
        0.08081005765777803,
        0.1314250813138689,
        -0.019895860619895338,
        -0.1879174666287595,
        -0.012506077255826704,
        0.07289601867992014,
        -0.08593371924610298,
        -0.02109031018116339,
        -0.06212275681245745,
        0.13682931493456274,
        0.06703799714993448,
        0.05674048760779801,
        0.058034653926249645,
        -0.0014184317169491716,
        0.019680551633636738,
        -0.1073156917907573,
        -0.19634828597875753,
        0.013715770103457222,
        0.030626841402254072,
        0.10552517962545255,
        0.13990377387880165,
        0.1490039534778199,
        -0.08962516445169705,
        -0.02885543313846102,
        0.04313529314279672,
        0.227371752174444,
        0.1274636510261327,
        0.1042231587689941,
        -0.03422201553389176
      ],
      [
        -0.0797805758647001,
        0.06687867250471843,
        -0.09636807664514434,
        -0.02244350434513422,
        -0.01012623238169443,
        0.1453481419089972,
        -0.03185275811307768,
        -0.2207041840582603,
        0.04699232662850243,
        -0.06222167469939868,
        0.009561543689221578,
        -0.00838328217957561,
        -0.024254371770656126,
        0.0701986974814721,
        -0.13786138154204303,
        -0.046249149489813346,
        0.0596880123579552,
        -0.057844877828335126,
        -0.14447510746056758,
        0.06147480253505015,
        0.10085687515255089,
        -0.006112979082448124,
        -0.17718576680460904,
        0.06408563634667837,
        -0.14589108329999134,
        0.02609161950849863,
        -0.07635253124455316,
        -0.10586153817438072,
        -0.038292129474696485,
        -0.015774936188554384,
        -0.05776772862936852,
        0.049276809712486935,
        -0.03614148196163473,
        0.08522833363840217,
        0.0298174860379957,
        -0.058182579011383004,
        -0.07919823846437099,
        -0.14943710972344248,
        0.022497703729759518,
        -0.02784354338991637,
        -0.21302944714220615,
        -0.04603251867719047,
        -0.08615941927292337,
        0.14150002491931646,
        -0.15162492912836353,
        -0.12943464546090322,
        0.09782133002202836,
        0.12381945931580873,
        -0.06442762126671088,
        -0.05482537237413379,
        0.054379360690131544,
        -0.2089797309384045,
        -0.16690204018658503,
        -0.024282892995561633,
        0.1368593547296139,
        -0.04038236996873984,
        0.016625546762773648,
        0.1018172823667884,
        0.19225305927385836,
        -0.051802522121743313,
        -0.0015119824256416782,
        0.16065154519574487,
        -0.13430618358069618,
        0.09288187517240393
      ],
      [
        -0.09191434198707386,
        0.004239799327163958,
        -0.01805932341207985,
        -0.08693456219701785,
        -0.0870413421777507,
        0.026269566105747478,
        0.08940207085709555,
        -0.012792234456689535,
        0.009626549886783096,
        0.052103159707120004,
        -0.08105913755288768,
        0.06603067471770767,
        0.07333450225714959,
        0.23303656190970304,
        -0.03398120519015149,
        -0.04000440875093239,
        0.069081864022652,
        0.0707117395933396,
        -0.048052244896435795,
        -0.034512464900624845,
        0.04859498381707651,
        -0.07675140856659565,
        -0.03791937134308772,
        0.010395177855920711,
        0.09252319846996003,
        -0.056762364673335154,
        -0.16125029924740633,
        -0.173820429071714,
        -0.11153731461419897,
        -0.11724027201666593,
        -0.013588087379493005,
        -0.11065588353146555,
        -0.06147746781358989,
        -0.0687314407313077,
        -0.03440330505797706,
        0.12408296452927647,
        0.058010107084775234,
        -5.988635161242994e-05,
        -0.04425162879414043,
        -0.03611974752986516,
        0.0294325018619646,
        0.054659477695066634,
        -0.08660893838148517,
        0.003276068565129505,
        -0.18351606762621228,
        0.015586164186596684,
        0.06727467929714778,
        -0.023975519842955213,
        0.1637638494164017,
        -0.07834341197144587,
        0.019147304914039192,
        -0.0032171572224858154,
        -0.00876890969548888,
        -0.008037556792309494,
        0.009699865517084362,
        0.07494259507534254,
        0.13050339255988552,
        -0.00020207792190163923,
        0.07542921183483689,
        -0.0630205321683265,
        0.0687848302129751,
        -0.07038550293321431,
        0.10325193526388818,
        0.1991237821339695
      ],
      [
        -0.011430364398776328,
        -0.20274928402097678,
        -0.043424237256040735,
        0.10958266711895367,
        0.04397500604994537,
        0.018341525449888558,
        0.09058109235805968,
        0.042247153008877304,
        0.11621002498433822,
        0.0887214078590892,
        0.13757764000380798,
        0.03184264015784779,
        0.07594384139387331,
        -0.028356807327343404,
        -0.05419716186130967,
        0.15542006020262628,
        0.01962175543232152,
        0.07023048773508928,
        0.011112181330577606,
        -0.05221860200190727,
        0.0009862928696949076,
        0.12653611023502678,
        0.048815890164830976,
        -0.1516003140584394,
        -0.01696967721257735,
        0.15938814645674554,
        -0.010627238889407328,
        -0.16339265517387894,
        0.1717651985461306,
        0.06196632671575737,
        -0.0021504414033902144,
        -0.03727879505356016,
        0.09122698039959348,
        -0.047077760059605296,
        0.11196038362030224,
        0.05178904129043338,
        0.02053862254001276,
        0.015354434758256975,
        -0.017106982693664567,
        0.0942850162304671,
        -0.07771008035817735,
        -0.14029728319241325,
        0.04875919474139213,
        0.05668687528168825,
        0.037610982668465416,
        0.03217357070873951,
        -0.029891656485092864,
        0.07274794787148602,
        -0.004662441593556968,
        -0.04309356172771813,
        -0.02834733957136959,
        0.18145880169296238,
        -0.1557104669272797,
        0.04857532286820402,
        -0.14180951194869645,
        -0.010925988747110668,
        -0.033175056078231104,
        -0.18724106847978075,
        0.03754648905338305,
        -0.0341284254708498,
        -0.18851429458611688,
        0.08253698841607293,
        0.13388246353253086,
        0.13441948718330832
      ],
      [
        0.031768332355907855,
        -0.0025496720528624946,
        0.12817374001122148,
        0.1499623318817201,
        0.08593141622971845,
        -0.09470210708171749,
        0.018081301586601355,
        0.037690898327707875,
        -0.14551321127252254,
        0.0597064731581874,
        0.19549469709157827,
        0.057071078167270674,
        0.11865174498927156,
        0.015650245708698576,
        -0.006766258589239111,
        0.03851110443686087,
        -0.07321336151364882,
        -0.08615011342105096,
        0.11371750622414269,
        0.12348269360582419,
        -0.08900397457585509,
        0.08545994117127498,
        -0.008860373557920213,
        0.03382932204611696,
        0.040567466289617986,
        0.09160518155573781,
        0.022787261557717917,
        0.12479910745151379,
        0.028910930520889853,
        0.05673907269151616,
        -0.060478040869922936,
        0.19001479523757048,
        0.02480692649749348,
        0.06468944949617265,
        -0.12770832483299085,
        -0.07470620007601761,
        0.10986633680791913,
        0.03560319334824691,
        -0.17310761662584492,
        0.08830827599672388,
        -0.04883313740636877,
        0.13599555373074834,
        -0.012968701882102016,
        0.01838320308480873,
        0.09454385365783552,
        -0.08686156283917777,
        -0.09031745398634963,
        -0.015551075106422441,
        0.07111795553966967,
        -0.11877880537532584,
        -0.15016350791648841,
        0.07397232294373766,
        -0.05407006108311625,
        -0.02846888168077136,
        -0.1412775003523704,
        -0.06223731829120457,
        0.0037633809880530094,
        0.08355039805869166,
        -0.06716820231942056,
        0.14883676932316098,
        -0.06147494573853066,
        -0.03992648807996767,
        0.1384550423709404,
        0.01959205317147068
      ],
      [
        -0.04972568609625594,
        -0.016484342573688006,
        0.12843811037534475,
        0.13083347654891897,
        -0.08278886558870419,
        -0.009941217204338482,
        0.00809632213150518,
        -0.09057885744408115,
        0.00645364592332062,
        0.012329285973177204,
        0.09469328473713023,
        0.1078329982536302,
        -0.03743234258228943,
        -0.019969625508890452,
        0.05951906330517989,
        -0.04827950677724017,
        0.05110118960180408,
        -0.007606609073722229,
        -0.0870545621695355,
        -0.08568558332584059,
        0.12994970707556858,
        -0.015230723760620643,
        0.14621298670186741,
        -0.041813656987483495,
        0.026404771876461664,
        0.21574218296107237,
        -0.08408465970459263,
        -0.1708846011926789,
        0.11603697410968604,
        -0.07403626509774233,
        0.013741328892951493,
        -0.05643201044584813,
        0.015719945973795505,
        -0.08757283927574717,
        -0.0042462972915517,
        0.035671339048074735,
        -0.09218033314286833,
        -0.055288228957262764,
        -0.033956546012976485,
        -0.1299177240759968,
        -0.03794709647014984,
        0.02002275489931286,
        -0.03875824627401937,
        -0.024370328487984667,
        -0.00768411379888718,
        -0.064375903787729,
        0.060292678057937435,
        0.1322764368750519,
        -0.04021810953240258,
        0.04530975281637336,
        -0.022445092328840486,
        0.03282173249630237,
        0.1406829457993666,
        0.045725091988470294,
        -0.1386783335534684,
        0.04086451663229361,
        0.11611107863892696,
        -0.019899923520242897,
        0.09047110813955128,
        -0.06197420510098323,
        -0.13340535470929968,
        0.024932591537342015,
        -0.15639345286126213,
        -0.021267806605698915
      ],
      [
        0.11544733815372468,
        -0.17061612519004565,
        -0.10932185397839908,
        -0.0936518075137389,
        -0.010441600940026085,
        -0.03578881480135315,
        0.1256461562055874,
        0.08348639226356756,
        0.05069245882369998,
        0.02205579356136106,
        0.028525995686155416,
        -0.0780052708225348,
        0.0720752122721045,
        -0.10061385092622877,
        0.07487770856109037,
        0.10880005634018174,
        0.017176429255611154,
        -0.018184297401683546,
        0.03594889099313472,
        -0.25723035989460236,
        0.027143589310578094,
        -0.011621134566864717,
        -0.005643172602436056,
        0.0676634316660255,
        -0.0050094501944553775,
        -0.10247003855468392,
        -0.007084918322645394,
        0.005931453726466016,
        0.01057339830606437,
        0.01467542585964832,
        0.1089815941231284,
        -0.10126259636572493,
        0.01418264626565903,
        0.11454608817496482,
        -0.14920022197978955,
        0.008130605387168803,
        -0.054151489077270125,
        -0.028102874916837963,
        -0.083591320287158,
        -0.014033331340817063,
        0.16534963536881958,
        -0.1025549695053002,
        -0.10774911976502696,
        -0.1169171758466578,
        0.1510764706744505,
        -0.04523492286959308,
        -0.004069393584995915,
        -0.03185113830957802,
        -0.07952870237556296,
        -0.019602333405645305,
        0.2198604650391056,
        0.12501165910213588,
        -0.07635799045593127,
        0.05469426260034003,
        -0.0590363951675716,
        -0.15713202553433822,
        0.09862202556420661,
        0.104179413050258,
        0.0936921903710957,
        -0.042195144998983615,
        -0.014976903038081905,
        0.0719970204367152,
        0.04044086875979096,
        -0.0350073789847945
      ],
      [
        -0.14551918007750517,
        0.011383700334601387,
        0.10105279680295065,
        -0.10847650208949147,
        0.055724817789985254,
        0.029724060271098224,
        0.06736530269135196,
        0.07652805148149265,
        -0.05786053154586851,
        -0.13851889641919876,
        -0.04796470520167382,
        0.07916846907965217,
        -0.05162339641965991,
        -0.06307861549594782,
        -0.16384263265826576,
        0.15852047020723664,
        0.07239329108105302,
        0.06757469662021724,
        0.08690430518575247,
        0.05298760913325551,
        -0.021941378914187733,
        -0.016907979505327818,
        -0.03949304725334007,
        0.2385908449767678,
        0.05354070567818193,
        -0.0425817887148919,
        0.04658688393529093,
        -0.09085240212687921,
        0.1356679859248801,
        -0.059254673675430095,
        0.05303487815301399,
        0.09239006434954256,
        0.037110655206177436,
        0.010479755490231526,
        0.005997208689021383,
        -0.007332104483107156,
        -0.053188548369081164,
        -0.036872874880443905,
        0.13144522210349535,
        -0.007637162653237605,
        -0.07056658814700298,
        -0.03812282128528919,
        0.09661021934458776,
        0.06067126670039934,
        0.04547215684953195,
        -0.02513881327978824,
        0.04971988244417745,
        -0.05494135555000699,
        -0.01735911982760089,
        0.08781803427521319,
        0.07762947876999757,
        -0.08817810722252901,
        -0.07659045675188167,
        0.004882976522547797,
        0.15998969035651148,
        -0.17033495883414226,
        0.031393590235692284,
        -0.12357233908456243,
        -0.05623931989897203,
        -0.03272663804678394,
        -0.03776276401388079,
        -0.04770945436816211,
        0.0030771185997166186,
        -0.04778460841985054
      ],
      [
        -0.13147825691595727,
        0.07043146766888041,
        0.07172258530433173,
        0.07478812899437254,
        -0.1378452373458491,
        0.029836559351620395,
        0.060704693280458105,
        -0.09380664138318062,
        0.0035187363788795993,
        -0.006506677720747122,
        0.1683312447270319,
        0.17218081730346244,
        -0.15089460723675976,
        0.22318527458199527,
        -0.08233015324673909,
        0.08869103520239356,
        0.08539530858784537,
        -0.0919162239323259,
        0.04429675554627616,
        -0.00822005494705838,
        0.04978030395225203,
        0.01849318366593317,
        0.10633782346412705,
        0.006801750046589232,
        -0.010662063111590096,
        0.09681997770029246,
        0.056183976869569836,
        0.06601769415647245,
        -0.05839024557852211,
        -0.09374771283526986,
        -0.04687925053739823,
        -0.05931119137454877,
        0.07446567821950509,
        0.08887460101340587,
        -0.009609158831053899,
        0.12885193102555673,
        0.12255653113065305,
        0.02341195948132,
        -0.07559349527935277,
        0.14449742080455918,
        -0.0054795198801655025,
        0.016458875184029956,
        -0.033033639263768975,
        -0.07990553014755539,
        -0.13504385595698024,
        0.05658431440892945,
        -0.07212107881553546,
        0.27705556079160065,
        -0.09181819009004032,
        -0.11180342749540907,
        0.04492883452788673,
        0.13733640464176947,
        0.0060384091529348625,
        0.0493739065071417,
        -0.16455097662253743,
        -0.05993010674589582,
        -0.09004327536835945,
        -0.17018014111723778,
        0.012654578105945159,
        -0.20141186618666757,
        -0.11873670291385983,
        -0.05073806157750724,
        -0.07092944322555456,
        0.036275606001692565
      ],
      [
        0.026975003717098434,
        0.07872636988258469,
        0.07032817613177687,
        0.1015051527145696,
        0.0021137965949316047,
        0.030632332695979744,
        0.045935286462015036,
        0.011852189266865827,
        -0.035043253841188435,
        -0.029984439068147177,
        -0.0676837999749511,
        0.03735070651439157,
        -0.006897471819488087,
        -0.06033074285593018,
        -0.05967739221588697,
        -0.1086043881992173,
        0.08614456446774292,
        0.004258610628885379,
        -0.07748172905208224,
        0.07404649174659951,
        -0.05032978887683244,
        -0.1285401859935972,
        0.09061183501172565,
        -0.04870258935291857,
        -0.03299886473677097,
        0.001767243913327477,
        0.1053294294536441,
        0.00114382300353043,
        -0.10674999655325201,
        0.049191066484489655,
        -0.04274560719629785,
        0.1659586969943623,
        0.004921446117865525,
        -0.20241737828585923,
        0.036441204800983354,
        0.17805552853572237,
        0.1406532857660786,
        0.16340084840826527,
        -0.09476429724037988,
        0.0860948224175888,
        -0.06483702368554722,
        0.022062332879941526,
        -0.11804239584686195,
        -0.057873836147328245,
        -0.05998767711141912,
        0.08094336810238562,
        0.07013711247410886,
        0.02652059228596241,
        -0.11794469969699409,
        -0.025990855487675997,
        -0.06788621265180726,
        0.07809918847323903,
        0.10604220989818931,
        0.09562066754066807,
        -0.0701038547942777,
        -0.24862973088891027,
        -0.1513350705380981,
        0.12766587138393318,
        -0.033299711513322255,
        -0.06741706090122042,
        0.14751524906500274,
        0.10811871067414588,
        0.005664157906369188,
        -0.025755491758724647
      ],
      [
        -0.012329946725626253,
        0.016662665420817378,
        0.14645060996409356,
        0.03699583458324228,
        0.06809496049822601,
        0.10752675182706381,
        -0.10504000571873053,
        0.06647480541365104,
        -0.02654962428360092,
        -0.22656023440730555,
        -0.18448269839648127,
        -0.09202663074642616,
        0.04940724519557639,
        0.009443520685472353,
        0.01635056724232686,
        0.17477106881210233,
        -0.11572559468482745,
        -0.005565539485223477,
        0.027339117011327237,
        -0.06468251737360162,
        0.0025438168030285364,
        -0.14591232684632616,
        0.12551668215744183,
        -0.05990916109508811,
        0.18565225473220914,
        -0.00445993285273389,
        0.09550818925464272,
        -0.006491634505058548,
        -0.001435950905113766,
        -0.05176171209002776,
        0.01000108118596497,
        0.024973812490648284,
        -0.06560026064388103,
        -0.01368812524994288,
        -0.05082099426816081,
        0.21153821739993878,
        -0.00949260229354239,
        0.13593902314261394,
        -0.02096185790373228,
        0.027714175017319875,
        -0.11866199658758882,
        -0.03899137675609936,
        0.013654391288379437,
        0.14242734853758446,
        0.02187774813403923,
        0.12399652704217724,
        0.055769585308733806,
        0.14835816268124954,
        -0.0033754977252034323,
        0.2165878096672544,
        -0.04447284033228523,
        -0.06883030461153411,
        -0.1084278670369909,
        0.2108638525700353,
        0.07051857999186628,
        -0.031211275653767828,
        0.12017947679304372,
        0.061756581304766016,
        0.17934236001912687,
        -0.1389994917056052,
        -0.023830041199819695,
        -0.04698882765862581,
        -0.17354361051601366,
        0.09582256483632749
      ],
      [
        -0.02424439073755354,
        0.06521114971634172,
        0.20863099476584238,
        -0.029525591595735427,
        -0.052939780067929806,
        0.0034022674560395204,
        0.08865742950385967,
        -0.04877278379595198,
        -0.03934271316977913,
        0.10535994612888569,
        0.02404087283320322,
        -0.18356398729096568,
        -0.12245619430431419,
        0.13487481127230147,
        0.03612186622744627,
        -0.06894188537557619,
        -0.014579170773850032,
        0.007131017210204557,
        0.0660708061921464,
        -0.12197551179694999,
        -0.07551946202003192,
        0.023962545223756262,
        -0.008860336517474861,
        0.04035943409088506,
        -0.12907443106689334,
        0.04004572961895559,
        0.11103064487395792,
        0.04389285772313185,
        0.005201715577119394,
        -0.008677241707621382,
        -0.06723747838295016,
        -0.008633171453004688,
        0.10612238869783101,
        -0.011224760288005824,
        -0.07135936676209516,
        -0.06032203519798004,
        0.017851798056892906,
        -0.01903709337833044,
        0.039292426159586336,
        0.04488054680542278,
        0.07983304630664988,
        0.135584134107657,
        0.09841862659443329,
        -0.08389714464075293,
        -0.09040091327720018,
        -0.012898437743499904,
        -0.04155929025661919,
        -0.0953367563003198,
        -0.033285006565631305,
        -0.04277259854624971,
        -0.06065216504327672,
        -0.02835873301887492,
        0.10583515992139716,
        0.02247197678701594,
        0.243770201257981,
        0.01918909445422156,
        -0.029219361623147047,
        0.0003711438187342219,
        0.027003951673357965,
        0.03908695921802892,
        0.18649418245166707,
        -0.0640975569612915,
        0.07022220591500504,
        0.0186048148001385
      ],
      [
        -0.1410958484109623,
        0.08544595793052251,
        0.09833594153203706,
        -0.07142746642168622,
        -0.01149780807770163,
        -0.1387569967725474,
        -0.11304415719243026,
        0.09122864491118078,
        -0.040973620642881965,
        -0.09016396593074166,
        0.012761126422515614,
        -0.04696834711274174,
        -0.04367666665659589,
        0.0662384406204429,
        -0.1047734381989633,
        -0.08472820395581687,
        0.012108151869696066,
        0.0792553416589907,
        0.11119007745332357,
        -0.059926277584947854,
        0.08417893662827278,
        -0.06998115647093427,
        0.1629514992762159,
        -0.09355133025803292,
        0.137450805755686,
        -0.05387007449003426,
        0.17457032978946033,
        0.052793586382819925,
        -0.09339352322264485,
        -0.04685077314509878,
        0.09056912527098504,
        0.09418099544136761,
        0.014529661221673857,
        0.006066875984596336,
        0.05617591104425615,
        -0.016168609059986946,
        -0.11874981190635801,
        -0.06434475831921155,
        0.017859369004821,
        0.12084142544817202,
        0.14511950568079224,
        0.0930970198687001,
        0.01694734785387937,
        0.06724547207686289,
        -0.05380798568297202,
        -0.01648717589694583,
        -0.07392359251743064,
        -0.10819306179666816,
        0.055161379790327286,
        0.01648727612651393,
        0.061305025650937234,
        0.0490422901639165,
        0.022028185549482805,
        0.02892512582133021,
        -0.007030260968917698,
        0.03493099183820977,
        -0.07107426302494863,
        0.03320057221775217,
        0.05032604564379438,
        -0.06013916757531499,
        0.004654659897145966,
        -0.04533953335708271,
        -0.04379678080905241,
        -0.10111297390880715
      ],
      [
        0.11361872613015857,
        0.10798864608465994,
        0.05985602922725173,
        0.17905254825260247,
        -0.0266977265691461,
        0.24382209872366253,
        -0.020432744683143357,
        0.016273520858281147,
        -0.02418330413496875,
        0.0534116140882687,
        0.0492775312443553,
        -0.009971041992836719,
        0.14901364139946785,
        0.021597749129639365,
        0.02429030473307557,
        -0.08015620120870104,
        0.038757360573409165,
        -0.007520644029334822,
        -0.05462154014615361,
        -0.06972946029577409,
        0.23993143438263817,
        -0.024457976355386102,
        -0.13022096900135835,
        -0.06127295377917456,
        0.007164895115013621,
        0.05963332032098205,
        0.053174802584548916,
        0.061008076434985084,
        -0.05827915216358382,
        0.030572454338612134,
        -0.0513759397747062,
        -0.0529388128353515,
        -0.08793743444710993,
        -0.09117795081767929,
        0.09158471174336899,
        0.04255459535206589,
        0.08624574621539562,
        0.01920405060596387,
        0.08124413805155783,
        -0.15736943108243326,
        0.07750754717703777,
        0.02080080568453979,
        0.07148609730605096,
        0.034127099701418785,
        -0.09192219314089575,
        -0.1453824124579119,
        -0.06407542209081381,
        0.053085096749179855,
        0.05339535357544222,
        -0.12338455474124084,
        -0.08911608514291479,
        -0.06494848190497308,
        -0.03208694163245822,
        -0.12443738698831265,
        -0.0839897391231591,
        -0.07266797416137315,
        0.0047429703787224475,
        -0.1060205014812633,
        -0.024089780968925438,
        0.09506084912722194,
        -0.11690327145524461,
        -0.009520909640841626,
        0.09625572623760821,
        -0.03832374266429086
      ],
      [
        -0.05194521630084776,
        0.10409195610448284,
        -0.020682219638980842,
        0.0985176074025979,
        0.02293040297412053,
        -0.039664355945728244,
        0.043077481313676676,
        0.02124329033418715,
        0.10775985317036915,
        -0.028498735942414047,
        -0.008150730455355158,
        -0.006122897556151876,
        0.05046895486092935,
        -0.09283979139111326,
        0.09123830335018616,
        0.04152610238321076,
        -0.12001527716387457,
        0.10740693442126956,
        0.20062748126630228,
        0.09140410670223179,
        0.12814701505265855,
        0.005430414239599485,
        -0.15026582545342718,
        -0.16792631080163,
        0.022478469091927834,
        -0.05232025709108179,
        -0.07666081698417082,
        -0.007143271663283492,
        0.05542740799468354,
        -0.12979364400072904,
        -0.026195569847730967,
        0.13233543359905037,
        -0.10569656730568476,
        0.08573058209613806,
        -0.03458784482647181,
        0.04055025661032574,
        0.09698316462436259,
        0.07593877542614805,
        0.08757528518505964,
        -0.10476338768821122,
        0.10000959399216026,
        -0.05997200050394085,
        0.018312396573094438,
        0.023191192206449964,
        0.03378494245449607,
        0.02483622638848462,
        -0.077440031746358,
        -0.11274503626195445,
        0.080724915934168,
        0.018565401303194375,
        0.10191665010740233,
        -0.004017136077677937,
        -0.1259493979669346,
        0.07896458554768598,
        -0.016314936424362863,
        0.02939794639675481,
        -0.05088507745305595,
        0.14766265264483225,
        -0.07488920375874634,
        -0.030302086449529943,
        0.009649178350168326,
        -0.08055232178307657,
        0.028275961990545405,
        0.14529815350914266
      ],
      [
        -0.04451170986497317,
        0.03445067426164008,
        -0.24531647928107628,
        -0.004371615468978016,
        -0.02414942154445389,
        -0.06779136941898609,
        0.09711711911231503,
        -0.031221574446758778,
        -0.01638069036405499,
        -0.035116122003992875,
        -0.16649561447943775,
        -0.1022528372486641,
        0.08981271104413564,
        -0.1902551435634909,
        -0.0690232017283977,
        -0.03865774859389954,
