{
  "saved_at": "2026-04-16T00:48:20",
  "schema_version": 2,
  "mode": "heading_drive",
  "mode_suffix": "heading",
  "model_mode": "heading",
  "input_dim": 248,
  "output_dim": 2,
  "memory_steps": 10,
  "whisker_dim": 11,
  "input_layout": [
    "t-9.whiskers",
    "t-9.target_bbox_lengths",
    "t-9.heading_to_target",
    "t-9.action.drive_speed",
    "t-9.action.rotation_rate",
    "t-8.whiskers",
    "t-8.target_bbox_lengths",
    "t-8.heading_to_target",
    "t-8.action.drive_speed",
    "t-8.action.rotation_rate",
    "t-7.whiskers",
    "t-7.target_bbox_lengths",
    "t-7.heading_to_target",
    "t-7.action.drive_speed",
    "t-7.action.rotation_rate",
    "t-6.whiskers",
    "t-6.target_bbox_lengths",
    "t-6.heading_to_target",
    "t-6.action.drive_speed",
    "t-6.action.rotation_rate",
    "t-5.whiskers",
    "t-5.target_bbox_lengths",
    "t-5.heading_to_target",
    "t-5.action.drive_speed",
    "t-5.action.rotation_rate",
    "t-4.whiskers",
    "t-4.target_bbox_lengths",
    "t-4.heading_to_target",
    "t-4.action.drive_speed",
    "t-4.action.rotation_rate",
    "t-3.whiskers",
    "t-3.target_bbox_lengths",
    "t-3.heading_to_target",
    "t-3.action.drive_speed",
    "t-3.action.rotation_rate",
    "t-2.whiskers",
    "t-2.target_bbox_lengths",
    "t-2.heading_to_target",
    "t-2.action.drive_speed",
    "t-2.action.rotation_rate",
    "t-1.whiskers",
    "t-1.target_bbox_lengths",
    "t-1.heading_to_target",
    "t-1.action.drive_speed",
    "t-1.action.rotation_rate",
    "t+0.whiskers",
    "t+0.target_bbox_lengths",
    "t+0.heading_to_target"
  ],
  "output_layout": [
    "drive_speed",
    "rotation_rate"
  ],
  "history_includes_drive": true,
  "hidden_layers": 2,
  "hidden_width": 64,
  "activation": "relu",
  "weights": [
    [
      [
        0.02736440157100575,
        -0.09333163832716954,
        0.06739250683958657,
        0.08463641844713811,
        -0.17422069879754093,
        -0.11550898272082848,
        0.01148040711104248,
        -0.02862196105445434,
        -0.0008137984579570021,
        -0.0770700554253342,
        0.0784787396316616,
        0.06984777773835303,
        0.006762205224575216,
        0.10122924871725991,
        0.041983578307758763,
        -0.0781345181380965,
        0.033114797973873636,
        -0.08734467998170674,
        0.07888716584090205,
        -0.004483479160823915,
        -0.016601130318964992,
        -0.060495761624079006,
        0.10978745318638346,
        -0.013936673866871056,
        -0.0384649739330378,
        -0.03282606287756933,
        0.04730724326154485,
        0.03281784577700123,
        0.03706448268099854,
        0.03868886818235444,
        0.19232563209462855,
        -0.036819203252123525,
        -0.04520520520734729,
        -0.07272155672394934,
        0.054497838516384664,
        0.10067927099414024,
        -0.010232783773643492,
        -0.07560425064018726,
        -0.07475603888589336,
        0.058253882211955356,
        0.06674619495082726,
        0.04849080276381081,
        -0.05877532573457344,
        0.020848702274166936,
        0.011014385458663047,
        0.02007132973749884,
        0.07764296481565001,
        0.021180970334227986,
        0.06124073644348591,
        0.00606877959312038,
        0.025963688461757076,
        0.05669135623383897,
        -0.1308564555626249,
        -0.028707322681559806,
        -0.04291363125269806,
        -0.057372924445980744,
        -0.024708503565947657,
        0.13424969285827829,
        -0.07820241028137619,
        0.08695396316119579,
        -0.15112616680139315,
        -0.03219820531687745,
        0.014615656706983945,
        0.05264431943931164
      ],
      [
        0.06387003233658292,
        0.07130637632011004,
        -0.03131643596274476,
        -0.04134920321651796,
        0.07803594200641789,
        -0.01574944643398211,
        -0.11456001369726675,
        -0.10199473407574335,
        -0.0818742627372425,
        0.04418190349746152,
        0.012296678864845213,
        0.062007415281203064,
        -0.03753594675819124,
        0.014237284549532426,
        0.05617967582677631,
        -0.0287479163240544,
        0.04101962724992537,
        -0.06067718469896744,
        -0.032603197882151054,
        -0.03428107487331744,
        -0.10738957036080547,
        0.04438493636184419,
        -0.042153574542092585,
        0.0010624882664554403,
        0.043172324435579355,
        0.03889614683464475,
        0.05925781397066487,
        -0.008844257595284144,
        -0.03801331059105712,
        -0.007158906673438972,
        -0.15152710531560462,
        -0.13027659370726652,
        -0.1179863818581961,
        -0.0891980172381966,
        0.03508203876600112,
        -0.08201985342128917,
        -0.03395999986673059,
        0.11651817366991521,
        -0.03270888906795232,
        0.06605977834709681,
        -0.08384134269785543,
        -0.01873472775346178,
        -0.08432528879706133,
        -0.03044606899709351,
        0.07599758887397957,
        -0.15468543914740332,
        0.0383987452398589,
        0.022450784629171355,
        -0.05308374245037373,
        -0.12985982884281425,
        0.006477421008996062,
        -0.047549848966189745,
        0.02089494060740366,
        0.001962380598335498,
        0.1431710708449013,
        -0.021494769882050374,
        -0.09191278814299844,
        0.016099427281185505,
        0.019307804672574924,
        0.12205864748104922,
        0.07499520377422209,
        0.0299233253421242,
        0.1314084788670712,
        -0.10675407370496354
      ],
      [
        -0.05745138363080531,
        -0.08314728447842595,
        -0.03500595371439469,
        -0.12345885219841184,
        0.05802567218157475,
        -0.01852599822410161,
        -0.13208230437351576,
        -0.09142423170483217,
        0.028849364656455878,
        0.07480153838331267,
        0.17881819762742293,
        0.2616725741358648,
        0.038047539248454776,
        -0.08886314645766501,
        -0.19146340809290446,
        0.023073422049788274,
        -0.07300426547659415,
        -0.03853466349844394,
        -0.05496791523237949,
        -0.012643394838716118,
        0.09572785065259297,
        0.014756894311179785,
        -0.014245828909150916,
        -0.09306396925308828,
        -0.1503909680413574,
        -0.04487527597653229,
        -0.005325348401670447,
        0.15876479304534247,
        0.011698997387765617,
        0.08825261334547067,
        -0.04483806838813188,
        -0.10673314889517273,
        -0.08587449396031496,
        -0.06476983158420964,
        0.19032347797384291,
        -0.07446813511429068,
        0.07529855334162812,
        -0.08124122600713624,
        0.0829422861625561,
        0.03439854240157806,
        -0.014066498458860193,
        -0.003946473348196881,
        -0.05781246064541097,
        0.040058466236468734,
        -0.04032303223971602,
        -0.10963013267875057,
        -0.11537583161697365,
        0.016600349843795065,
        0.1420790796884029,
        0.014367671038804219,
        -0.010654036196458237,
        0.025667945065230922,
        0.11728241863337417,
        0.019701130208422388,
        -0.03757527463546121,
        0.09934765894955877,
        0.03850346481291121,
        0.13791495939093473,
        0.016006457457229298,
        -0.10996056513229654,
        -0.12286432310061408,
        0.1461330631069592,
        0.15478975118724136,
        -0.016121301260615256
      ],
      [
        -0.03441123727272993,
        0.1313032631767488,
        -0.09941563704042884,
        -0.0801776447699864,
        0.0587598849949996,
        -0.034006397045541356,
        -0.00045995720959964606,
        -0.014900143475467972,
        0.03101007942281396,
        0.12593115310087394,
        0.007641234974753053,
        0.057827410726623514,
        -0.18327841617095744,
        -0.004375041646460324,
        -0.07572431368703508,
        -0.11042042089114065,
        -0.07886041054388278,
        -0.031239651157298213,
        0.08225047637347137,
        -0.11911358233786459,
        0.002750789239475632,
        -0.04282618203627185,
        -0.029425912539463948,
        0.08999079431940582,
        0.04832419279418005,
        0.11889835897567573,
        -0.014370552353188223,
        -0.062497491481209574,
        -0.020103115208589307,
        0.021776854718395775,
        0.01585675568748038,
        -0.09770298098298877,
        0.008921772105414805,
        0.020852900677939247,
        0.22525709582733178,
        0.1678401878204268,
        -0.07662351483972712,
        -0.025963759467139053,
        -0.13213641137538099,
        -0.053218130691016274,
        0.028342165995502242,
        0.10800296145062334,
        -0.06448445118529567,
        -0.05874408446905811,
        -0.19229655690031228,
        -0.014175316889629913,
        -0.09602128027327161,
        -0.046443566829014876,
        -0.07847192377842623,
        -0.008465027263172878,
        -0.1578486693053225,
        -0.13174455219269648,
        0.19121203532274036,
        -0.11561396077290625,
        -0.09916717247147973,
        0.16495970452560918,
        0.26088273316974564,
        -0.10520978910733299,
        -0.03351821331472348,
        0.03067259394279586,
        0.15524163126822038,
        -0.09074702365363937,
        -0.022026600800454692,
        0.06980697506266532
      ],
      [
        0.03904314605778617,
        -0.033718120966228234,
        -0.012017656980010975,
        -0.12329807499326653,
        -0.02040120024673055,
        -0.022492113708893185,
        0.020849471573923348,
        -0.050092394328493835,
        0.04304039940551103,
        0.0904801158650567,
        0.013464435863032113,
        0.031588657985196264,
        0.005605964663345331,
        7.5787233362085504e-06,
        -0.06479782427215444,
        0.02745424675342898,
        -0.008736594445606169,
        0.1867375827425257,
        0.14129144122718645,
        0.0346500433039501,
        -0.06852456030546841,
        -0.09924398258508249,
        0.1069677949232951,
        0.023536060252559544,
        0.04311815049115694,
        -0.1578719830840593,
        0.08279090153583224,
        0.04080815104604993,
        -0.09971961922703035,
        -0.042344177727582484,
        0.02368250406905471,
        0.004389600213439757,
        -0.02544219720927504,
        -0.00893612922600039,
        -0.023446983158971747,
        0.012995084219205763,
        0.13214388011970543,
        -0.23064870398440276,
        -0.02198522165227119,
        0.01568020851114476,
        0.026581044957930802,
        -0.033684805792418324,
        -0.15676906290444506,
        0.029454863957945398,
        0.15565631892266987,
        -0.1373123064437522,
        0.0769603960362721,
        -0.028400938661732145,
        -0.005234590156407129,
        -0.09455307750926213,
        -0.030035050925348156,
        0.1167474510395913,
        0.05232398535734287,
        0.15556617454707017,
        0.10506178903187569,
        0.03943114779254004,
        0.15660994364364345,
        0.03942274943144004,
        0.07390705252187327,
        -0.02663285784098496,
        0.0059759906780053156,
        -0.0647551500517144,
        0.08886726072687642,
        -0.10581478905439429
      ],
      [
        0.07025713477033742,
        -0.017059278957453818,
        0.10518109398509008,
        0.06760123921736066,
        0.16448628487799863,
        0.06705569364845299,
        -0.14117338245742436,
        -0.006235110318670787,
        -0.10455436287575072,
        -0.04700735310964672,
        0.1352187897882332,
        0.057252226329280745,
        -0.06193333182497968,
        -0.09103450688465735,
        0.002943918846055303,
        -0.1102181035070268,
        -0.06027017611207322,
        0.026784797269936867,
        0.10375008359005572,
        0.05466839404056732,
        -0.2057638721112712,
        0.027986455763923765,
        0.006468805838252483,
        0.03710892813778838,
        0.1451399140057814,
        -0.18648780346232902,
        -0.053578187365177866,
        0.05306495428741571,
        -0.1420313698988905,
        0.13254413727589068,
        0.03307940033883075,
        0.075703428865082,
        -0.05047670455833817,
        0.07343552825250904,
        0.09513283165962416,
        0.02020762975820883,
        0.02104982156424747,
        0.024121567828161286,
        -0.07824613351953083,
        -0.013419541450983135,
        -0.01369692775349724,
        0.034143894961978505,
        0.09077607817510293,
        -0.09505934635498559,
        -0.010690451861127506,
        0.13347114954310146,
        -0.06738984382317159,
        -0.07273873404900603,
        0.018440131013549223,
        0.07582802858202589,
        0.001026090079973465,
        0.11934418411355828,
        0.07694237100679219,
        0.0755976736829947,
        0.049088210856165396,
        0.2090294190506088,
        -0.018424063546554546,
        -0.1799216131919913,
        0.1436178138017845,
        -0.04110262226724184,
        0.009687949894506566,
        0.1154764812974152,
        -0.14388715439858502,
        -0.11240123796025228
      ],
      [
        -0.1437990037625214,
        -0.07125385268520404,
        0.03948053270285419,
        0.04724467137912791,
        0.02579758707423034,
        -0.12543993254409275,
        -0.20745341272474835,
        0.004658558161484186,
        -0.041671748479282025,
        0.04078961083962787,
        0.06254376671630588,
        0.012414447078756725,
        0.06909443972505198,
        0.02058378903795448,
        0.047601215771642474,
        -0.06424930407932795,
        -0.016129581114327583,
        0.016436534719210402,
        0.07368563232445732,
        -0.03535900107888534,
        0.04680220118611576,
        -0.023219511639464226,
        -0.010555598231925284,
        0.07443349232248042,
        -0.17898210495038888,
        -0.11763018855958157,
        -0.13359971074361962,
        -0.20956491400995267,
        -0.060909944814045956,
        0.06730115095485228,
        -0.025583344392629066,
        0.01744001633339768,
        0.09861016856040397,
        0.11958712598645671,
        -0.007027516424588363,
        0.1208501674447883,
        0.008273218156387856,
        -0.07535655219649236,
        -0.05409416739681713,
        -0.133127178615347,
        -0.07975677452001809,
        -0.03243673813534918,
        0.07315327530993757,
        0.1545296926225645,
        -0.12358787380037589,
        0.035709462045453895,
        -0.09405725384571352,
        0.04373055427180038,
        -0.011499430073538609,
        -0.16442019691696372,
        0.08336353077060207,
        -0.05433066787521312,
        -0.0479456567826247,
        -0.09606660246177774,
        -0.05942929269326957,
        0.03842569591769021,
        -0.016994643505370537,
        0.029514719092334798,
        0.032053061180246166,
        0.11859891775815849,
        -0.030783105078296236,
        -0.1347503889620476,
        0.0958394022290778,
        -0.02976851663391548
      ],
      [
        0.10009335632254059,
        0.03448997252666062,
        -0.011776497859608541,
        0.03149221336047388,
        0.17619353342373578,
        0.18794854670292832,
        0.006230609865241601,
        0.01416300204862612,
        0.09734420929356849,
        -0.07640705189958151,
        0.029417072628311468,
        -0.0023225523090124683,
        0.029022263099074123,
        -0.0748387280461179,
        -0.14274737486385045,
        -0.18712718503421777,
        -0.10034405554670925,
        -0.04242473695852386,
        -0.026329381735880106,
        0.1739684940119168,
        0.09932113662090543,
        -0.08574481614717447,
        0.03122514080985831,
        -0.03661622151148042,
        -0.025536626508342094,
        0.015439198085309169,
        0.05510767497538751,
        -0.030466311231567164,
        0.09553668792420093,
        -0.10254908000111303,
        0.0005692646050708924,
        0.23295592974699544,
        0.020828702100743064,
        0.1290638537591854,
        0.007400008020581163,
        0.05144988899561266,
        -0.005099281389472217,
        -0.015459024284208797,
        -0.07071502565029122,
        0.03847112790415841,
        -0.0764702970253704,
        0.05948542825708547,
        0.09845086036471554,
        0.032915492049570755,
        -0.02517020466034243,
        0.04119982649558496,
        -0.02833330829792443,
        0.08511610931419301,
        -0.16419262277388014,
        -0.03013843135668024,
        -0.178780194831386,
        -0.134260425980679,
        0.12247844385431894,
        0.08038998452842885,
        -0.06528415223370605,
        -0.13492879350924922,
        -0.2662225486438169,
        -0.048807337426218136,
        0.21691120389017338,
        0.03905376046146118,
        -0.05025107472086572,
        0.03964079390753201,
        -0.14017819822039201,
        -0.026700426178462577
      ],
      [
        0.008933340792926032,
        -0.007670375362495519,
        0.07101648616538472,
        0.03112126844065843,
        0.0610048815312975,
        -0.06038746673774469,
        0.08062620379593438,
        0.14606031833163535,
        -0.08642700871803977,
        -0.08018187247458938,
        0.11946344477689058,
        -0.01718319726068675,
        0.12689935609219558,
        -0.039740880096014765,
        0.13066695009441193,
        0.010839997944431395,
        0.023189632902445686,
        0.13928134601772957,
        -0.03248794793286547,
        -0.08451525914133678,
        -0.04028225503066683,
        0.04127430452784567,
        -0.14060931553007208,
        0.057187060284600834,
        -0.04838309261204912,
        0.10187308326763406,
        -0.21550645535610669,
        -0.07063569180075427,
        -0.1514493108304688,
        -0.07419759642485937,
        0.022241054485202548,
        -0.01641708346670722,
        -0.021958427573249912,
        -0.013937831856047585,
        0.017446056592029177,
        -0.0912746440218979,
        0.0634769716205957,
        0.05935318913409114,
        0.033861987536165754,
        0.049807103671777625,
        0.026619122280706047,
        0.18246908715258736,
        -0.006832077193233986,
        -0.02757688708816786,
        -0.06713308386561241,
        -0.09226741035521302,
        -0.1123705152513998,
        -0.07871485764224419,
        -0.006074786976308867,
        0.03002058875995577,
        0.004592692436266012,
        -0.06874709735745725,
        0.0808389602503231,
        0.06640121816551821,
        -0.01500976116929882,
        -0.058633600680331535,
        0.04925028118027617,
        0.016880526476749095,
        -0.13049414766246675,
        -0.006104807203968257,
        0.023531510584725218,
        -0.08291961876898113,
        0.017048439954178315,
        -0.13064691593003425
      ],
      [
        0.11999305402833221,
        0.11213090841546959,
        -0.022676726047240036,
        0.03281037652581635,
        -0.21542994790024472,
        -0.10241289629424155,
        -0.026382125841511533,
        -0.09650292546177952,
        0.06484968804089408,
        0.1788980740226568,
        -0.10615665083294906,
        -0.07520643381354604,
        0.02197636118632299,
        0.14468250122574436,
        -0.10977245379675032,
        0.021396327005898757,
        0.16355746509065322,
        -0.14956683075876376,
        -0.11504341090637332,
        -0.038040996246968016,
        -0.04675021956126774,
        0.07362726647390282,
        0.02170168348306371,
        -0.15945581512141238,
        0.04628522054037094,
        -0.05306805968082937,
        0.11395320589803394,
        -0.05635902451499628,
        -0.05716974009821893,
        0.04859505319739154,
        0.06851282064217523,
        0.039918453429748035,
        -0.1505755578166009,
        0.048674310637167074,
        -0.09370235160544328,
        0.020422984727889715,
        -0.12785512663788404,
        0.03992494031247115,
        -0.07315015991737522,
        -0.11535506673991693,
        0.06410294060285752,
        0.021414428210201824,
        -0.05414753417070743,
        0.13031970773664792,
        -0.03903606517024819,
        0.0033158682452993286,
        0.02353549088123425,
        -0.05454614632796829,
        0.0425817868066199,
        -0.04790543496470616,
        -0.03696621259371857,
        0.12236892143822047,
        -0.0934473861231725,
        -0.2166740700304265,
        0.14399349283460672,
        0.22893640844664023,
        -0.03639425441159823,
        -0.17393319063126766,
        -0.028330764921817225,
        -0.02570357967656392,
        -0.017055664414443828,
        -0.10210983961064378,
        0.052046127018735226,
        0.04710215277676424
      ],
      [
        -0.13420158634907817,
        0.06285141151111245,
        0.18433655307410837,
        0.015613707187543633,
        -0.029305260443294207,
        -0.01132207601550462,
        0.05525168872770275,
        -0.15564143610679826,
        0.015457710955337716,
        -0.03552914708527238,
        0.16544605496547538,
        -0.015641173229934264,
        0.1506132026062335,
        -0.09911884069219035,
        0.05273743001080384,
        0.027715213447468787,
        -0.07804274671414588,
        0.014696160957221146,
        0.1088874059511467,
        -0.029077353421079553,
        -0.15194273131107877,
        -0.0009236717602296891,
        -0.08103998624807307,
        -0.03080264055979502,
        -0.007326798007993552,
        -0.15437562723802223,
        -0.14558593476280698,
        0.0432908797958268,
        -0.046941524650298716,
        -0.23032084106707248,
        0.07048107511945864,
        0.024137468710358535,
        -0.06331230186458257,
        -0.11789745229244158,
        0.07423901822635944,
        0.030667178226245987,
        0.21396400129557816,
        0.03757807834821563,
        0.034101329885467255,
        -0.015161645516819698,
        0.07334863815838953,
        0.05584841774208858,
        0.11339743436400444,
        -0.04681618012766466,
        -0.03856505487922411,
        -0.04259222085198002,
        0.07040244137436891,
        0.13565949424881538,
        -0.040932594006412124,
        -0.038145806836658615,
        0.028204967326433142,
        -0.022070034218185205,
        0.08549694195894217,
        -0.2022155701893334,
        -0.07491322475228543,
        -0.07026306098591373,
        -0.2083741212071283,
        -0.0865372869227353,
        -0.08263192605632286,
        -0.018059731106922373,
        0.09994728755857024,
        -0.024131737975449253,
        -0.09256980478132203,
        -0.0051146687882261364
      ],
      [
        0.09421857257874938,
        -0.08758199754199024,
        -0.08177203852235364,
        0.050330390729146086,
        -0.01890709712385629,
        0.05957603080700729,
        -0.0012255180810453942,
        0.06278871781951306,
        -0.09225776862076543,
        -0.00154968297571212,
        -0.01941405163868478,
        -0.10919022832766842,
        -0.13957199098426423,
        0.061582081297537575,
        -0.03151645430263805,
        -0.09277125634600143,
        -0.00863712350736461,
        0.10006460336640867,
        -0.20481630478096002,
        -0.13440212196252183,
        -0.08287764906650759,
        0.1318712524529558,
        0.025377060208027668,
        0.06884760564432818,
        -0.10238947311939596,
        -0.10174082603685618,
        0.03971932616193448,
        0.005233189404034555,
        0.04927820064795359,
        -0.016853352503684388,
        0.02497804399836797,
        0.013877455631153944,
        0.07064112323719626,
        0.0728288747034797,
        -0.14628754599931437,
        -0.20251610762149208,
        0.08995939234956533,
        0.1065048903071605,
        -0.09237009284366551,
        -0.1671892248212518,
        0.008893589469082957,
        0.08330584995164483,
        0.16241796381684068,
        0.04636489068648585,
        -0.03284545431715092,
        -0.07977298351471944,
        0.00041470673609831347,
        -0.025773266464164075,
        -0.09088329022236989,
        0.1839836887261812,
        0.16031285501141013,
        0.10202018346354638,
        -0.08269480690999209,
        0.07678300198957087,
        0.056767227298084734,
        0.03974177024789828,
        0.11222325385988395,
        0.05705801300634843,
        0.06600675944553272,
        0.057195872693908245,
        0.03060397188117405,
        -0.16229764966477364,
        0.007509394432063728,
        -0.04994751237698035
      ],
      [
        -0.11493311087158635,
        0.1510932823566023,
        0.15526836520133172,
        0.12223282668410602,
        0.023906274771820488,
        0.12271990547753892,
        0.0010824075711870706,
        0.01798919518506191,
        -0.09750163784870645,
        0.03518642227490407,
        0.004929286649592728,
        -0.11698161343993584,
        -0.0037651628300444263,
        -0.007159926198482562,
        0.16142575812340623,
        0.07933495049665043,
        0.001027830772425905,
        0.021107279541975235,
        0.003970388761363231,
        -0.01822221376233038,
        -0.09720483185445938,
        -0.012911342432918926,
        -0.06700160136386245,
        -0.11234116671589765,
        0.04590907420224294,
        0.03393306717688622,
        -0.16094660386630852,
        -0.011017405685678858,
        0.08941662407151706,
        0.09512109976920173,
        0.09212286799829826,
        0.003172451770047771,
        -0.07509176085249805,
        -0.09696163600174612,
        0.0301276873982075,
        0.0333549187495824,
        0.11560574655414582,
        0.09862511691861384,
        -0.012589923902517427,
        -0.11190406119304071,
        -0.028656618367439327,
        0.01922204673755832,
        -0.01715840090626257,
        -0.05189642291039054,
        0.023245417247510385,
        -0.04482422717255615,
        -0.0570156489435887,
        0.029070787485550514,
        -0.03582750071262905,
        0.02192122125425914,
        0.024534445519642706,
        -0.10232374493955936,
        -0.043216728699775976,
        0.1291161807704142,
        -0.10503074086488597,
        -0.19008118079683453,
        -0.16719863053760414,
        0.0026141503734429775,
        0.0023279727672103397,
        -0.010561766605128102,
        0.10903746547127084,
        -0.2421522596519655,
        0.03555591154988962,
        0.14022128991553753
      ],
      [
        -0.10127770244918176,
        -0.0340459402058647,
        -0.06761169009368204,
        -0.08014343239555106,
        -0.02831175961203392,
        0.12962215184817927,
        0.16500219439545397,
        -0.030390770886642892,
        0.17177444758914248,
        0.0027304126485813945,
        0.1569925734493218,
        -0.008378466074852825,
        0.012601813750309934,
        0.032820576521046294,
        0.28546948759086543,
        0.07547992441515865,
        -0.0635142297573788,
        0.08578409716044773,
        -0.032493521053073696,
        -0.04398086475881996,
        0.08159481083268053,
        0.0034450848068919263,
        0.02501685563163898,
        0.0011963932811467522,
        0.03022605705554266,
        0.036959527647079715,
        -0.17444029824213897,
        0.05985999273420431,
        -0.08818794724738971,
        -0.12952228592755222,
        -0.00524548454749913,
        0.007219659363266312,
        -0.06148314224710822,
        0.0749862554902712,
        -0.12134963466503232,
        -0.037250061265959665,
        -0.05252324782614514,
        -0.004339632122834278,
        0.024327312028194416,
        -0.09068253367878991,
        0.06504250451864353,
        0.00537188925734552,
        -0.16891257886716038,
        -0.17588670359978242,
        -0.0005706147014791346,
        -0.019410936919696375,
        -0.00990104998056168,
        -0.001411401478812112,
        0.02052837022085357,
        0.08510144719617964,
        -0.09978016565636393,
        -0.10524615595487387,
        -0.09818338085447104,
        0.025945482633702402,
        0.11112665504161684,
        -0.03873542504053335,
        -0.22465927804531524,
        -0.15302307637030263,
        -0.07525738686083018,
        -0.050085532643817605,
        -0.03667438137119257,
        0.0013400452833027348,
        -0.027995646951552253,
        0.0942334788401535
      ],
      [
        -0.06070814618111443,
        -0.07737674735234323,
        0.043004292864600994,
        -0.13773351542149892,
        0.035982781579642166,
        0.010639736859194998,
        -0.013240726466666087,
        0.14240886706457223,
        -0.05518088804171134,
        0.1845557882927397,
        -0.02073787156929779,
        -0.11467946214601811,
        0.007111437266395373,
        -0.0966496721290596,
        -0.06750966804846897,
        0.03468686590662588,
        0.04989274441633605,
        -0.05710678927438589,
        0.08867159964942514,
        0.10394726523886043,
        0.1289837053945686,
        0.0481962440586527,
        0.12243951281306432,
        -0.16896020157124897,
        -0.02854885084135231,
        -0.07906290699335503,
        0.010211265638670756,
        -0.05131765480339735,
        -0.014921414693749406,
        0.1690242939131286,
        -0.015241287648002397,
        0.036837589683517954,
        -0.020062851750690256,
        0.007156645570570639,
        -0.00027843274713089053,
        0.0395552558246326,
        0.10464770593801373,
        0.14778437650543672,
        0.02708926415634584,
        0.05277179839779138,
        -0.1033506838820849,
        -0.008177454870575728,
        0.08542969692160059,
        0.07776627942431392,
        0.01953880544741356,
        0.08003304141629129,
        0.04345850188330664,
        0.10889218131911517,
        0.026257718060432582,
        -0.03194265169927538,
        0.03015943519225371,
        -0.2631751439965028,
        0.03438415416259046,
        -0.32763714369553015,
        -0.15544450284257388,
        0.040570018009109504,
        0.04288340042322421,
        -0.10438918607082387,
        -0.06439713191501892,
        0.12307821410005793,
        -0.04346718898558505,
        0.19929554822610615,
        -0.00017240790479235662,
        0.03664273039330524
      ],
      [
        0.14519960734085122,
        0.011828273813823505,
        -0.09001314669334559,
        -0.009682602585538417,
        -0.0022105051504303455,
        -0.12112722922537772,
        -0.022974398220652004,
        -0.0668733555008017,
        0.0837047671062422,
        0.0026437887600231015,
        -0.025889337775593314,
        -0.009535418859626934,
        0.020869422287646353,
        0.05539155031484318,
        -0.08977680838501226,
        -0.09450510764750737,
        0.09920312206253606,
        -0.03826342465120405,
        -0.12723617598255468,
        0.039855557856036894,
        0.04161183698129442,
        -0.13680877143155848,
        0.020608066407731714,
        0.06599779502332669,
        0.03362089586671798,
        0.05555007610017757,
        -0.1266026205046509,
        0.029728283510541045,
        -0.027176056649479766,
        -0.043355836136647216,
        0.07817820158046654,
        0.13252071526594164,
        0.16193473762775815,
        0.11843062402960658,
        -0.010673167017765555,
        0.030969771892781897,
        0.06886272674392399,
        0.010726129348573293,
        0.011027530725989936,
        0.07380414015816869,
        -0.0053237387722169715,
        -0.06577779067501874,
        -0.03623156983061156,
        0.05692683242538788,
        0.0008044959471945623,
        0.030984271828815826,
        0.059561242725344424,
        -0.03256025977847332,
        0.06818558858864766,
        0.03402107010737733,
        -0.1108894887106752,
        0.12952279381783496,
        -0.04496820547039047,
        -0.1486319494979418,
        -0.09452061547871597,
        -0.09169256223330347,
        0.004685302327612734,
        -0.024592501379408462,
        -0.030696884402424768,
        0.055650879338533334,
        0.03052170844923739,
        0.026257294791535924,
        0.03680368192884354,
        0.055330526567854345
      ],
      [
        -0.18929979830414356,
        -0.03266582975901899,
        -0.1957886435572232,
        0.003409490487342974,
        0.0005713801761605975,
        0.09532175908688402,
        0.10665271690103116,
        0.01798719899377547,
        -0.044238761188134766,
        0.043104304776857,
        -0.04790193315527196,
        -0.00012506379155035151,
        0.0893901290589698,
        -0.050089345529155595,
        0.0723520776688352,
        0.05986466173330701,
        -0.08574283634423721,
        0.08622379410364364,
        0.06273310972309476,
        0.00915321489295659,
        -0.06845866746057597,
        -0.07650546161801097,
        -0.048283524756580716,
        0.04866690451143724,
        -0.0858176734077577,
        0.03808622324392279,
        -0.1120084711637337,
        -0.018325899871157944,
        0.009846659038411256,
        0.21957916909903935,
        -0.12368659714797053,
        0.13186875303200055,
        0.014251795835912415,
        0.037281719855199666,
        0.009809209763573036,
        0.03923221343782279,
        -0.013801329792978309,
        0.1304215892584925,
        -0.04170775886857392,
        0.101506591285812,
        -0.057865875620991575,
        -0.005696665974519409,
        -0.09527586872764385,
        0.04086233636118154,
        0.1303118324424446,
        -0.006514276015345142,
        -0.018294507303688114,
        -0.0989940608485224,
        -0.02031858947620635,
        -0.14303714704189915,
        -0.08197886325911459,
        0.020365988153444682,
        0.11845088187882281,
        0.2522745825940107,
        -0.053349815617281686,
        0.1288937590666908,
        0.021889618931156752,
        -0.013582439637360898,
        0.038399647816447356,
        0.0055602643758874745,
        0.009913828820523739,
        -0.03879404235797321,
        -0.12555395385736204,
        -0.13862163535756003
      ],
      [
        0.05866312227958505,
        -0.02478671020032491,
        -0.053530363428776866,
        0.0009350412938217552,
        0.0723744570518461,
        0.017627349321711384,
        -0.05891547252077881,
        0.10990182043766342,
        0.1425100346356819,
        0.04394804942595165,
        0.08694403470687807,
        0.11153130016645847,
        0.102318388056857,
        0.05514773408985335,
        0.05373315105335662,
        0.04569912013829398,
        -0.0985438322311903,
        0.06169231669580964,
        -0.1217556888881529,
        -0.07135713756402313,
        0.11706359885761243,
        0.07610751466157169,
        0.1335723095265689,
        -0.024456596584913927,
        -0.10347500057375762,
        -0.02279543423211484,
        0.008667148218615455,
        0.007093396127477346,
        0.10180751239447809,
        -0.032443041898042584,
        0.03161362881600019,
        -0.08910339625217174,
        0.04123523519107626,
        0.0006365476425853275,
        -0.06815397214373807,
        -0.02188353572295598,
        -0.01653947028943656,
        -0.02441661854222004,
        0.1583556993989055,
        -0.009011786853810742,
        -0.021902517265778156,
        -0.18864254680319137,
        -0.07931298050832351,
        -0.023624690927350603,
        -0.061055698063105415,
        0.12451351881548955,
        -0.015425499096285081,
        0.1168072065712014,
        0.005813738388219112,
        0.0033431584021503214,
        -0.00797415640515423,
        0.00034091345952090075,
        0.15435234782244076,
        -0.2083071925813497,
        -0.180417033908159,
        -0.04877818058198383,
        0.0013046423116031935,
        0.0619732068198771,
        0.0420360037811187,
        -0.034506301617734325,
        0.09151282515158345,
        0.09038963642546345,
        0.01652888118796135,
        0.08644920202743055
      ],
      [
        0.02448426744244855,
        -0.0503609728791085,
        0.0626658020639826,
        0.010104565109986292,
        0.0011077551544828074,
        0.13370532469297605,
        -0.22009481443772347,
        -0.1275343346786982,
        -0.10590708120198909,
        -0.03308621845887328,
        -0.023358018421480727,
        -0.13536183911049116,
        -0.08763732943332989,
        -0.07730586483423085,
        0.22068319813258183,
        0.160833426374359,
        -0.036976189261300065,
        -0.03388522375037149,
        -0.10320156550269027,
        -0.17135516958689942,
        -0.010496150590424354,
        -0.08895623679754676,
        -0.007619802683143846,
        -0.1437622441285997,
        -0.06842732636075102,
        0.012143570637643816,
        0.032391059947620884,
        0.03749008861878442,
        -0.11858341141127694,
        0.0767530443494861,
        -0.07186113172676664,
        0.05651026107740435,
        -0.00015983153797871028,
        -0.12324585464377909,
        -0.029214138716329083,
        0.0321051988086399,
        0.05504591614604868,
        -0.012817058694196633,
        0.13684236513624065,
        0.09030606329424186,
        -0.023048220046196326,
        0.0670770368736315,
        0.17464899173741202,
        0.1760567144212384,
        -0.10974195427980066,
        -0.08277261562875793,
        0.13273599397482871,
        -0.09393494658298489,
        -0.11849520117315752,
        -0.043661521843923794,
        0.037737472537450384,
        -0.009195495708716512,
        -0.05842233776528926,
        -0.060546066409122926,
        -0.06464267673235681,
        -0.07898229624537301,
        0.20489668101869327,
        0.02671728289829546,
        0.07918483313342624,
        -0.04392045318799483,
        -0.016699402584947894,
        -0.06620368100767239,
        -0.23813043819003982,
        -0.12374888618197935
      ],
      [
        -0.16259835743659964,
        -0.20197485604195328,
        -0.10734640480461331,
        0.11915574594926646,
        -0.003003052296748301,
        0.11732623624896596,
        0.03690732492601198,
        0.07005331922449011,
        -0.08020794844232461,
        0.04658773538914108,
        0.06494694024424175,
        -0.051784455542277175,
        0.05108068216565986,
        0.05084516169134779,
        -0.04935128224883717,
        -0.10179535866743918,
        -0.10633786334452518,
        0.006533946575246085,
        0.02936635312482046,
        -0.07117092057170717,
        0.0023874341291794236,
        0.05188925496328989,
        0.055515165008804594,
        0.13930343212460672,
        0.11467626402466598,
        -0.09112216163150048,
        0.15069497206617183,
        -0.04768309773492519,
        0.0938323485302216,
        0.006105379252843608,
        -0.03701210679895561,
        -0.1626580276055004,
        -0.014611398011632285,
        -0.13967935688116967,
        0.08604728910131433,
        0.13550656783588672,
        -0.07156471946054402,
        0.026961801463827345,
        -0.06585752170503172,
        -0.05661066975261022,
        0.0695516776029388,
        -0.0037467285182189317,
        0.15721421625074852,
        -0.04330575499227921,
        0.09027874237238855,
        0.009180496732706532,
        0.07084932527973542,
        -0.03905444574969676,
        -0.004178016322588816,
        -0.010372105550119599,
        -0.07508014531175582,
        0.059456676992453154,
        0.05839408451975607,
        0.05330278512396227,
        0.13735067030532755,
        0.13015500538349117,
        -0.0336710271318447,
        0.0335010871620796,
        -0.05644947583140712,
        0.002097369302342768,
        -0.05385909047469278,
        0.14336196674903845,
        0.032661058069463615,
        -0.019579593701914567
      ],
      [
        0.10719011205151616,
        -0.19486532670512305,
        -0.18087175243184572,
        0.07163963448321713,
        0.006417660307583329,
        0.023920930790624382,
        -0.11911388637183264,
        -0.002308986725896059,
        0.18061544641033103,
        0.07355086152353987,
        0.01474656784132305,
        -0.0394282050652169,
        -0.0346012145804694,
        -0.1912076149822704,
        0.02313679280692523,
        0.07495884755335107,
        -0.1414947925678511,
        -0.06063147077083916,
        -0.10394339242879687,
        -0.086691096452768,
        0.004802791869115327,
        -0.18653132267924957,
        0.05516311380361995,
        0.06763866704256037,
        -0.022549678082037252,
        -0.22397773712105196,
        -0.08997656689405467,
        0.11071786212195488,
        -0.2494712509094543,
        -0.031208523704196207,
        -0.10596719810422078,
        0.07193048863982321,
        -0.059831472812998866,
        0.036633533544681775,
        0.04996109808393536,
        0.16419251445418145,
        -0.018224724543857804,
        0.03361380954788443,
        -0.1340773589336795,
        0.1067312189211781,
        -0.06829571067594606,
        -0.05064310094110805,
        -0.0010087007015662814,
        -0.14035115743884102,
        0.021079845532411465,
        0.0873135500795432,
        0.025692584308090537,
        -0.14158571615249527,
        -0.010845904180215062,
        0.06663616261611394,
        -0.1686483697570986,
        -0.09651683725992173,
        0.0787159393753496,
        0.02425528601752828,
        0.036323220284160566,
        0.16698756327020228,
        0.04207728164954554,
        0.05908008740682261,
        0.2429836538046443,
        -0.01920021611527186,
        -0.07165198737082883,
        0.036292608817114255,
        0.039422558210218644,
        -0.04730043852632492
      ],
      [
        -0.09271198925434532,
        0.2074918439571902,
        0.02935141010726006,
        -0.06558995508270375,
        0.08324040265217943,
        -0.008371334864752554,
        -0.022709424271440876,
        0.050271056592177656,
        -0.11531946245837234,
        0.031202408432845753,
        0.17129488319629171,
        0.041863989908541926,
        -0.03295237072776396,
        -0.045539398525343396,
        -0.03684961742315357,
        -0.023774298722508986,
        -0.033928028211869035,
        0.08105271614574262,
        -0.15564677222870255,
        0.07740988970068326,
        -0.03409685651186318,
        0.034504427065803735,
        -0.101206501996075,
        0.11925507530445768,
        0.11186132161838949,
        0.08497023656671701,
        -0.13652452726137218,
        0.07445727019279076,
        0.03635706014594396,
        -0.14415761358807122,
        -0.0021819694753088875,
        0.03241410613186184,
        0.050732583577923436,
        0.016275932269371074,
        0.025334606690689127,
        0.1316287757749989,
        0.1101010953422877,
        -0.25762510719363957,
        -0.029222263764361923,
        -0.014957173630418194,
        -0.15734309666765445,
        0.008171997870577466,
        0.11313096869113065,
        -0.09757667429717716,
        0.030745386559926046,
        -0.08181086211668318,
        -0.0609531305876589,
        0.13377536223824005,
        -0.04845063190340135,
        0.04150790684465031,
        -0.16804034744655316,
        0.1672410540420472,
        0.054119787318026746,
        -0.016388969679519572,
        0.05101268244649226,
        -0.1266055221696934,
        0.10619439551421607,
        -0.029094691727556604,
        -0.018774464204609792,
        -0.04415197760951779,
        -0.05214403528119563,
        0.06025862066586527,
        0.022981113551844783,
        0.05852871089104109
      ],
      [
        -0.0007897864306438812,
        0.04600916272423771,
        -0.03761372757809591,
        0.20031757106855935,
        -0.13995625979183193,
        0.11448252208018093,
        0.12284171541570783,
        -0.07660248621007171,
        0.20048101930229809,
        0.08876814000130301,
        0.08729621100310976,
        0.002516466682116678,
        -0.018852202279096012,
        -0.018805467813760742,
        0.0350706828513317,
        0.12523763624379255,
        0.016282497430374368,
        -0.08266032233101735,
        0.07403573576935055,
        0.0827217790092129,
        0.05879016116578533,
        0.06723721935949258,
        -0.024330064322271253,
        -0.08345063099024204,
        -0.07796607166394956,
        -0.14775029464860928,
        0.0210188305658274,
        -0.007493921957589607,
        -0.03951206228006287,
        -0.2654224058112588,
        -0.11201241543384693,
        0.10025851211463184,
        -0.05901785551225626,
        0.03250966533162269,
        -0.12524461284207683,
        0.12895176943762626,
        -0.01293406569216491,
        0.025952946630116915,
        0.20814908417087927,
        0.13604957643078258,
        -0.027530405501143954,
        -0.05369957196609769,
        -0.028661745484269058,
        0.045790214460275855,
        -0.00894747047712567,
        -0.03501576723783163,
        0.13129803312225624,
        -0.009717880385997722,
        0.20663788151161838,
        0.008148922784696457,
        0.1603263247043445,
        0.03208823141798749,
        0.08647641229917169,
        -0.06507199337988992,
        -0.07744230154201213,
        0.041282813446986914,
        0.08877470184126529,
        0.0036151406001673006,
        -0.11566720499072349,
        -0.122154807355921,
        -0.12816063227403238,
        -0.16033179477855655,
        0.009832075525502084,
        0.1010319266758786
      ],
      [
        -0.0012047732312785683,
        -0.20215936378095004,
        -0.01713079504657662,
        -0.01433439676398561,
        0.18747752825018835,
        -0.1320197407958324,
        -0.03508388440496244,
        0.15261895656125465,
        0.04199130708970954,
        0.05241717885323028,
        0.007239677521933725,
        0.029629804456160442,
        0.06967812849336973,
        -0.07269401739563876,
        0.078851988131004,
        -0.12388876688039359,
        0.02948831446816411,
        0.015348238378444144,
        -0.055344753120878686,
        -0.0020371978632116633,
        -0.05590575607164561,
        -0.09469927266729078,
        -0.031755541234319284,
        -0.09925712013306279,
        0.028988068015972427,
        -0.10338165667987785,
        0.06332686676128893,
        -0.10609995241683412,
        -0.05085478467457682,
        -0.056091041889720104,
        0.11900168923467912,
        0.03070185571871386,
        -0.019561206919562476,
        0.045888496877654616,
        -0.1909518092556629,
        -0.005867835361063175,
        0.17938206860369468,
        0.011845858524000264,
        0.007298411690842726,
        0.049221317967637276,
        0.08042772511111813,
        -0.17804091668800323,
        -0.14999375155017283,
        0.018884715424563894,
        -0.06499343914757193,
        0.11670717698748405,
        -0.028363803066965655,
        -0.1719250912676796,
        -0.1134611725141582,
        -0.24692819599076488,
        -0.02102509391793923,
        -0.016917394037184987,
        -0.03811787659474053,
        0.09688619782764644,
        0.10958770504988175,
        -0.01530133211937017,
        -0.19170115044091227,
        0.05543352234993852,
        0.0484449466019132,
        0.027784183201288115,
        0.08813948340382373,
        -0.10453809588845542,
        0.18039155891684636,
        -0.08615915568795762
      ],
      [
        0.06728220506264694,
        -0.14874713960840238,
        -0.0835402350609904,
        0.13711684923451134,
        -0.026017997078526964,
        0.07144490496710014,
        0.021279222078896022,
        -0.011313363350197279,
        0.12775376537871144,
        -0.015084669573206826,
        -0.17012040511359133,
        -0.07213308965750022,
        0.0489780635593694,
        0.03551776625128906,
        -0.14072598516354265,
        -0.06688119016762356,
        -0.05224011930944625,
        -0.03506086661571034,
        -0.12356068782176269,
        -0.05642939132934909,
        -0.06543115313245623,
        0.07444877530916598,
        0.0726612387183514,
        -0.013410813475417966,
        -0.03520621297193896,
        0.012297712922994274,
        -0.07533208671830172,
        -0.10298856124583919,
        -0.08443435710054141,
        -0.05700790502283303,
        -0.10448303160596514,
        0.018073029495916125,
        0.0636163699546182,
        -0.13883497916532445,
        -0.0034640860134247105,
        -0.02644704906316106,
        0.030668385305302193,
        -0.0012695811177514935,
        -0.12649448863623147,
        -0.1133744016595219,
        0.002642315089823333,
        0.09688688953472326,
        -0.19522608564610225,
        0.03104716339197333,
        0.10408026532494817,
        -0.017561536881274913,
        0.04919758292088237,
        -0.05722356089202562,
        -0.009294528531036197,
        -0.14556233100750895,
        -0.2105282439815103,
        0.08466286823479,
        -0.08845515574439484,
        -0.04090760809172352,
        -0.11784821844409826,
        -0.12661901718549082,
        -0.015611086314566744,
        -0.06551796615228989,
        0.02911195624806603,
        0.040639149709774405,
        0.02881314881665749,
        0.02182792096820491,
        0.14168776748751696,
        -0.09587275066560487
      ],
      [
        -0.004933296618087756,
        0.10178024008355245,
        0.1135590271905192,
        -0.12750693136005856,
        -0.02706291335517639,
        0.12339306389680017,
        0.04562685057138583,
        0.01731259997313945,
        -0.018853672529447116,
        -0.0349307898883024,
        0.025389306131281267,
        -0.022663865470790585,
        -0.002991199510970696,
        0.007058372175352504,
        -0.06089262083541591,
        0.04681885148128836,
        0.26170689512928197,
        -0.16081259144350263,
        0.029097183633799525,
        -0.06826708523207967,
        0.0518522821631916,
        0.004834501146060062,
        0.06841657839621851,
        0.10550409013679289,
        0.017279926486541915,
        0.10045776005239525,
        -0.21101969838724685,
        0.14282683266319277,
        0.033681575534717935,
        0.096793190723083,
        -0.10954807579369925,
        -0.07492739511937294,
        0.013901195524181415,
        -0.0011726560350699166,
        0.024601563021322968,
        0.09668690270286359,
        -0.15852146393688354,
        0.08729556250472618,
        2.829746359651326e-05,
        -0.018471226222319437,
        -0.132110047993944,
        0.04488921356976446,
        -0.21580407459972395,
        0.05822750111044053,
        -0.13345936915583653,
        0.005233176275527044,
        -0.011315327123684353,
        0.10612912338774477,
        -0.015771209124007004,
        -0.06233548296149912,
        -0.04549426510874317,
        0.11430824706342942,
        0.0481608895628892,
        -0.03463059465102351,
        -0.021906435268439512,
        -0.1407366573420208,
        0.03488601308677552,
        -0.15803611584605337,
        0.06706483489227556,
        0.011550559983279283,
        0.21435459944291413,
        -0.10091973103798084,
        -0.00921932793402657,
        0.16149100282766066
      ],
      [
        0.10698994808805509,
        -0.06245999647432896,
        0.02011286880858658,
        0.0003507609719477102,
        0.02630781772475265,
        -0.06131316627191382,
        -0.008021208952109293,
        -0.14373187765674417,
        0.01282943421785524,
        0.039948600185755696,
        -0.020916395954152886,
        -0.1450358514960463,
        0.08960525543057841,
        0.032735314772509426,
        -0.06519808044929122,
        -0.026166440976958066,
        -0.13476409066448605,
        -0.09331902826708302,
        -0.04829688464795024,
        0.11031544550277636,
        -0.05742909983374588,
        0.05814640043943731,
        -0.048342222100430335,
        0.022206831559434665,
        -0.012697690933882544,
        0.07719926064009337,
        -0.048523008723966914,
        -0.1412172056436621,
        -0.12410268658183714,
        -0.04776400897041654,
        -0.11216889664159314,
        0.036516069116433215,
        -0.04103166613628672,
        0.21360335490123458,
        -0.15687012394856006,
        0.017581365469565124,
        -0.10129317172937481,
        -0.0444647201228075,
        0.011984403604818436,
        -0.2089955889192497,
        0.021267613116770973,
        0.17060024430614534,
        -0.03973075100940419,
        0.02333143429524131,
        0.09257637558597388,
        -0.014290944940511939,
        -0.05278541467681853,
        -0.20326566476241775,
        0.05783516454733208,
        -0.0101628232046242,
        -0.09094169449310421,
        0.011368720192510636,
        -0.05241604338563497,
        -0.04745406743892207,
        0.05377363317153214,
        -0.12019028860657119,
        0.09405168913626778,
        -0.12551592273276255,
        -0.0599608240628521,
        0.17268566598328247,
        0.10123944622805504,
        0.006640455436124162,
        -0.08446210671020184,
        -0.04753005624962108
      ],
      [
        0.006580317503635473,
        0.003431377163702495,
        -0.008160450380462434,
        -0.002597628036615105,
        -0.018264019798826806,
        -0.12806332407469248,
        -0.04638403392293502,
        0.0819131268299758,
        -0.12218505736661016,
        -0.01748703674878064,
        -0.07410960578908604,
        0.00999956375142943,
        -0.03406781639625129,
        0.13267386770510967,
        0.045492510205008406,
        -0.11877117886990662,
        0.06027805487735496,
        -0.07080027072142567,
        -0.05181580377480755,
        0.02818177994404308,
        -0.04416022192075905,
        0.08083433589525656,
        -0.0695530567604447,
        -0.055642557975668375,
        -0.05894384628864611,
        -0.05199939565114665,
        0.09821478289979968,
        0.05646757411359756,
        0.15355750015459788,
        0.2036404610652956,
        -0.09256112191217444,
        0.00600176694690406,
        -0.10483035673175686,
        -0.069473682160412,
        -0.05740182637871949,
        -0.09564074404219888,
        -0.09446226567352009,
        -0.013113091433822192,
        -0.1099799795139948,
        0.07545415855550901,
        -0.08241670063700686,
        0.2520208512803764,
        -0.039546310067730274,
        0.006467375163884144,
        -0.11578938186968783,
        0.15364407675678896,
        0.09992047933393997,
        0.027765329619519517,
        -0.12067394060130701,
        0.018918444100384044,
        -0.1007074808610656,
        0.13132337938328847,
        0.0726678321064821,
        0.00857067866636742,
        -0.21946591335711121,
        -0.08831336193250582,
        0.061762772881635786,
        0.10892017088764358,
        0.09915790873376867,
        -0.14296698804906463,
        0.027080196571001164,
        0.0890713167451439,
        -0.14892293005907087,
        -0.0007098464354926998
      ],
      [
        0.024591773327963338,
        -0.026947765625162417,
        -0.16632904472090232,
        -0.029077340249118656,
        -0.028405461964000345,
        -0.011867105379601846,
        -0.0506012277734635,
        -0.0400062036908875,
        -0.002870739390623084,
        0.03926914718100648,
        -0.027831860150777165,
        -0.03678755975223983,
        0.00912611100235693,
        -0.17250334251922303,
        0.0428390190514445,
        -0.0010183445897785396,
        0.0035645839165314576,
        0.08504200732484325,
        -0.17536801153844608,
        -0.17725551417334856,
        0.024588311167711544,
        1.4404159314128102e-05,
        0.015282340639990151,
        -0.04155975317291552,
        0.059660721157230236,
        0.08254990400569116,
        0.04296736028046465,
        -0.023423087024466625,
        -0.18927609452055655,
        0.06907945073721973,
        0.10971447304538981,
        0.05756099676000482,
        -0.07819867209584404,
        0.06086591438442963,
        0.0764591024501234,
        0.13928039768224154,
        -0.0786769937748086,
        -0.020492193769083154,
        0.06639157121481438,
        0.004984501745121435,
        -0.10033898071463569,
        0.03694775110948777,
        0.05295455901143483,
        0.007899301281339751,
        0.02025499904552412,
        -0.02279996179935149,
        0.1321397177510971,
        -0.07978304854496696,
        -0.05247046282070704,
        0.0009865282375152303,
        0.07893240180643454,
        -0.13446808023080933,
        -0.1176681217431616,
        -0.18299342204013166,
        0.0022631979702221346,
        -0.10042682702884033,
        -0.034533619327098725,
        0.059393514774710957,
        -0.05806071782688502,
        0.02076973877409271,
        -0.026881337664905462,
        0.058233005440250125,
        0.042667760018718484,
        -0.062137480241971764
      ],
      [
        -0.015145374553416729,
        0.09379261551803617,
        0.03532628579616727,
        -0.12527968268561618,
        0.05986367330942557,
        -0.09597072012134118,
        0.12684741827355675,
        0.0917442528188039,
        0.026727474253771477,
        0.013655476868588383,
        -0.019265180545396072,
        0.06093324961180139,
        -0.03246438902026936,
        0.02115479888234322,
        0.07830201762312533,
        -0.051419493940624825,
        -0.05533574158636734,
        -0.10849166686458617,
        -0.09559247453363083,
        -0.1641947460678951,
        0.06554056003948479,
        0.16309883795243377,
        0.1279983176897441,
        -0.1460862145677766,
        0.06509387110518501,
        0.1265053837131376,
        -0.041518280039629527,
        0.009110248210871218,
        -0.18031411891361765,
        0.02395361500545463,
        -0.09551048321431871,
        0.017605696474423317,
        -0.1394046113567996,
        0.04910749927761566,
        0.0911852076495444,
        -0.07103706161517814,
        -0.10209866180764084,
        -0.19377255660982207,
        -0.02464008163187584,
        -0.052399751976687094,
        -0.13928565500208165,
        0.04039639483638834,
        -0.03941932291385696,
        -0.0966039408767696,
        -0.04926638174320033,
        0.09663850164339002,
        0.053531686329674685,
        -0.010575187723925806,
        0.05586977058452107,
        -0.10425297127666719,
        0.0029069208588577223,
        0.013229935831155447,
        -0.04219256400605962,
        0.03910531297485442,
        -0.07075791309960944,
        0.0457832510998169,
        0.04955838066850133,
        -0.26196869071649365,
        0.10644412692931977,
        -0.2736854836834081,
        -0.05532283564915413,
        0.08995432984825479,
        -0.028493189059025478,
        -0.1316673881044329
      ],
      [
        -0.09822048765375,
        0.09228054978548815,
        -0.17255620077750225,
        0.1015576073024643,
        -0.003960881206421621,
        -0.10565007263900142,
        -0.052365279338644766,
        -0.09157198040492832,
        0.0784843094377214,
        0.06530950969427728,
        -0.15487875714807461,
        -0.036243642171145465,
        -0.07668388725994808,
        0.11616062427989464,
        -0.12124247993858915,
        0.14309624945818833,
        -0.0029899558734211846,
        -0.10557927041324935,
        -0.06082101718696194,
        -0.07198749700328537,
        -0.11446411153144008,
        0.009169220007795428,
        -0.11027007167269108,
        -0.19586218244206519,
        -0.034095953609573064,
        -0.163104802367208,
        -0.06804157270091714,
        -0.08163984944050962,
        -0.07823751287338843,
        0.17969179110276592,
        0.005065908279647228,
        0.021712909720474793,
        -0.158729726441594,
        -0.05837023147051079,
        0.018516000338311626,
        -0.09271084623230984,
        0.0815464506346699,
        -0.10816131352154704,
        -0.02643187816723217,
        -0.05280006576544159,
        0.014756430828763913,
        -0.0578035968396047,
        -0.02333775559850729,
        -0.021205108225697586,
        -0.0654142770233318,
        0.04399522938621613,
        0.02079425841771992,
        -0.0068562699010212644,
        -0.038383800825003464,
        0.07153176558958434,
        -0.021178540294251057,
        -0.027542229505385082,
        0.009401442218624483,
        0.15235798180479193,
        -0.12104046071555696,
        0.06913518989730076,
        -0.170011789101275,
        0.01951170560298163,
        0.14099813272268236,
        0.04388372896396457,
        0.015322584382240838,
        -0.05245448989701809,
        0.002788120910416309,
        -0.022635909045119508
      ],
      [
        -0.07058278302674556,
        -0.025969907308765354,
        0.017815154135366912,
        -0.06872691319121907,
        -0.07141881159740718,
        -0.12072327762862725,
        0.035088143160057844,
        0.048748936685255304,
        0.02149871205339988,
        0.08621041962857696,
        0.007397216941306961,
        0.03520362140168794,
        0.02811787983465092,
        -0.008220536417572033,
        -0.04766920738181505,
        0.19786899767098096,
        -0.04058639611894313,
        -0.061032064125992665,
        0.03897523271167186,
        0.022617194162918096,
        -0.1261540050966067,
        0.10147300011163941,
        -0.008458922577585112,
        -0.09982407416094455,
        0.10675596495157982,
        0.05498378847068133,
        -0.1140547559545954,
        0.15959573039064512,
        0.059161750159927265,
        -0.0009156382131681646,
        0.1428058644361785,
        0.013983305919323492,
        -0.0017263847673409589,
        -0.05893930928811496,
        0.05143296534248927,
        0.042094776133682336,
        0.001318315479343451,
        -0.07109884058459502,
        0.010952605343816754,
        -0.006439190863848558,
        -0.11974952888060204,
        -0.13245854138239155,
        0.0517414819013853,
        -0.23365646833239753,
        0.01898210032936154,
        -0.042500611986044004,
        0.11687036386363087,
        -0.043213256073378455,
        0.05949592941198618,
        -0.035643915167060475,
        0.010214885730933371,
        0.06616987384012843,
        -0.04153872956734372,
        0.08949327050829682,
        -0.08990962360353892,
        0.026455218231311913,
        0.08285549303660608,
        0.05927311653099903,
        0.17165334968962037,
        -0.06855887458234801,
        -0.12385125891423182,
        -0.09141857057800319,
        0.05930949331813521,
        0.04471479949775487
      ],
      [
        0.009182919120111618,
        -0.10078282855897563,
        0.06886671591641068,
        -0.10981052227622758,
        0.10506417825228202,
        0.25803573459618645,
        0.03290828442902064,
        0.05214211851088461,
        -0.04356512379864513,
        -0.16302640443169922,
        -0.05461932642403882,
        -0.09814488993058293,
        -0.1291123734552574,
        0.15467248879047354,
        0.024503777480902635,
        0.03312917432063617,
        -0.027751027617050367,
        -0.016758761903625373,
        0.08661920830186363,
        -0.002903958984964919,
        0.04765772251135535,
        -0.01694818893976693,
        -0.030726236639631723,
        -0.12640413853670215,
        -0.17760710883980946,
        -0.024692488652834035,
        0.004578019954556081,
        -0.11549788684439474,
        -0.00309593427343877,
        0.00482712265531118,
        -0.19361523455021978,
        -0.08250267779811844,
        0.03736892714508875,
        0.035116291592718125,
        -0.10442181250093717,
        0.013523621169921368,
        0.09181487925261225,
        0.06962724000531571,
        -0.009272356283827833,
        -0.042196588412886205,
        -0.05651680309389179,
        0.04172556626256219,
        0.018510064266570918,
        0.05652214830642389,
        0.012378308479706982,
        0.07395968730022962,
        0.007881010612218723,
        0.0715686242283853,
        0.07847469201243158,
        -0.07224862420505554,
        -0.16237612882306768,
        0.13860975029033162,
        0.023048634423692226,
        -0.15396537854061326,
        -0.06477580312828504,
        0.06931635770389309,
        -0.025115720862757283,
        -0.045984472936535424,
        0.12535442405042632,
        -0.09404916211751176,
        -0.07167628744162073,
        0.016858424008252566,
        0.0350638879996907,
        0.0445729202958265
      ],
      [
        0.08183159210654674,
        0.017894577996797383,
        0.043947975080042875,
        -0.023106465188158815,
        0.00661790720867639,
        0.011087043534080552,
        0.019316382824587114,
        0.06915358483564953,
        0.05054854396330223,
        0.003506354781948401,
        -0.07315518825834826,
        0.006077058371442387,
        -0.0016835978238458529,
        0.01734821799417951,
        0.1981518221093371,
        -0.04800396101700966,
        0.037922673411300366,
        0.09471624572913138,
        0.008800831690510857,
        0.20994468936036917,
        -0.03394893058470997,
        0.029757587945940408,
        -0.07173487353611346,
        -0.031627369830013526,
        0.022354925080748933,
        0.07479681182566332,
        0.02816002926007079,
        0.11307185140058122,
        -0.008528136645531648,
        -0.029829614562762174,
        0.2428250309344078,
        0.035081528680045125,
        -0.06381580035847483,
        -0.06198933475729776,
        -0.0854739019825784,
        0.08340097720098232,
        -0.03272204687089466,
        0.011281516210696185,
        -0.006418687332982191,
        0.06551888256436918,
        -0.07603986427091099,
        -0.09687513309140484,
        0.0211317030551661,
        0.05396773691715981,
        0.030397973725965418,
        -0.07225857674077658,
        0.060226285227739394,
        -0.0656991859389957,
        -0.04656305423706151,
        -0.08476952895346697,
        0.11684746909715385,
        0.05688293359324112,
        0.054330008981501074,
        0.11200289199276647,
        0.25191043892964754,
        -0.15349303531241562,
        -0.06630817440896519,
        -0.0553341560472694,
        -0.07685433838641903,
        -0.09676983232242889,
        -0.026909639536456236,
        -0.11137888070518226,
        0.03008769280666141,
        0.0046426463172318105
      ],
      [
        0.04319764930920628,
        0.045657052377052844,
        0.05415161401695671,
        -0.03336189897332291,
        0.19147173410003854,
        0.022482724830833852,
        -0.16725606825771971,
        -0.09023853717998224,
        -0.155606792485401,
        0.0010922463537666632,
        -0.011431961834093575,
        -0.04206586947416747,
        0.1814189694209261,
        0.04930011745305525,
        0.06520555775435763,
        -0.08458064448084097,
        -0.08972585998800782,
        0.0020707509741264706,
        0.015536499785013223,
        -0.16670169983369396,
        -0.016192048648219586,
        0.0019172269640538849,
        -0.019320965449566137,
        -0.07310413205497078,
        -0.04845168965150865,
        -0.017085960971896717,
        0.007658550072337424,
        0.054311887423622966,
        0.09706375256885748,
        -0.02643320589250267,
        -0.040964035687341804,
        0.038980582345294584,
        0.055651042677354934,
        -0.03863495838270237,
        0.07016068297466055,
        0.08726392671680204,
        0.1159968688942617,
        0.15954196003308665,
        -0.07852190613847984,
        0.0010770211775054143,
        0.0010127670536803962,
        -0.009093156887794728,
        -0.05731632113058728,
        -0.13340740613490867,
        0.008858550410040201,
        -0.06856786114370654,
        0.007108792927551446,
        -0.0702057177651479,
        -0.09847973599513327,
        0.02104061388993543,
        0.013553153202211355,
        0.05202105670888086,
        0.19629636097841066,
        0.024901335000993487,
        0.042888708707615936,
        -0.09676786396179445,
        -0.1155676997690197,
        0.14214228042229882,
        -0.08337941315751428,
        -0.09374894512759328,
        -0.003511186777010038,
        -0.010224159662041928,
        -0.08104747683543843,
        -0.027387403528522005
      ],
      [
        0.11040119853646507,
        -0.0723186713479273,
        -0.12515548374049598,
        0.08481861945066146,
        0.045197001141718034,
        -0.05429402804670707,
        -0.14208279239413818,
        -0.06709168931332413,
        -0.004217613425237405,
        0.104215994585528,
        -0.09358133914281244,
        -0.007590109423067708,
        0.06146225381140849,
        -0.21384411991454624,
        0.09283673846188417,
        -0.10715497305179386,
        0.029814075436930453,
        0.020918320378725964,
        0.0973987332064969,
        0.04947446991214915,
        -0.21348698838627175,
        -0.0698217402381654,
        0.012411186999572683,
        -0.017569227385212157,
        0.04289070968459656,
        0.06968367278747639,
        0.05414504618516104,
        -0.019242457887132285,
        -0.16580595826275338,
        -0.04090342363405104,
        0.037390963500413,
        -0.09824711143843348,
        0.057485694108287425,
        0.0819335178525031,
        0.010574244196828751,
        -0.2758409879291532,
        -0.11477572320087984,
        0.16922881500816242,
        -0.04979598269903394,
        -0.1783523962921241,
        0.11092849012762569,
        0.0009134770872413921,
        0.10021579537552712,
        0.02487162325585478,
        0.04171551654044527,
        0.03303170679197491,
        0.06202264984790435,
        0.20562078907841394,
        0.08747144179061608,
        -0.14191866024321736,
        0.04011138817770219,
        0.10250799905646672,
        0.10800572080288513,
        -0.03831025841422839,
        0.10394217952821226,
        0.08331372693721954,
        0.23101888561804662,
        -0.06735214417975974,
        -0.046014397648723004,
        -0.027490302077399484,
        -0.0440232486589646,
        -0.08205086462515153,
        -0.24809558429925285,
        -0.0390371651344618
      ],
      [
        0.033169332934212446,
        -0.04423093783913092,
        0.17380236100234142,
        0.0013723969068952916,
        0.1169252650548224,
        0.024906435182878304,
        0.07421356724525659,
        0.02485409391767703,
        0.12361547863734516,
        0.004559052639500989,
        0.04405942500218731,
        0.0328976685952853,
        -0.02505632485312733,
        0.036368485852985126,
        0.20065380829640325,
        -0.025250139201442943,
        0.03766905938526822,
        0.11171740376026235,
        0.10239776745550924,
        0.0010521653715792267,
        -0.21403462392093014,
        0.0470547995174549,
        -0.19931467228032285,
        0.13194474344443358,
        0.015219202910656156,
        0.08856984060074455,
        -0.08150750447728573,
        -0.13941928682044072,
        0.02341643495924001,
        -0.003017677991230738,
        -0.0441416692702241,
        0.007280750078855048,
        0.24931862943970476,
        0.07529999808724665,
        0.09342901044078977,
        0.07508233633663111,
        0.1328596225918765,
        -0.017224911851920568,
        -0.18523845263505553,
        -0.017106609553196053,
        0.07289601867992014,
        -0.08737653687439653,
        -0.014848919647342874,
        -0.06212275681245745,
        0.1354218991773516,
        0.06773574080892639,
        0.057896425363281365,
        0.056922943091134305,
        -0.0030725829567630654,
        0.017741077895319573,
        -0.10643271727199172,
        -0.19634828597875753,
        0.013477683372068911,
        0.029095183915745348,
        0.10792224408815734,
        0.14111012191648123,
        0.14099002603990743,
        -0.08962516445169705,
        -0.032082814760056845,
        0.04313529314279672,
        0.227371752174444,
        0.13079219041685639,
        0.10052483268431689,
        -0.03482438643938795
      ],
      [
        -0.07931366825177617,
        0.07090771075819056,
        -0.09884229939599207,
        -0.02124100295043743,
        -0.009319930734273844,
        0.14447791752521474,
        -0.03185275811307768,
        -0.21927362192592262,
        0.04599545667562542,
        -0.06323846482337792,
        0.0033348492031015707,
        -0.007786311990945391,
        -0.0237468708820779,
        0.07097467944772937,
        -0.13765532972138678,
        -0.04739702498789223,
        0.06142841799160604,
        -0.05638092118953563,
        -0.14447510746056758,
        0.060038042173620104,
        0.10085687515255089,
        -0.0033871723125067353,
        -0.1760891329704963,
        0.06333843807143645,
        -0.1490623321364833,
        0.026527457159012464,
        -0.08019213690024928,
        -0.10415664261134734,
        -0.03968469104312751,
        -0.01646060649144391,
        -0.057851608689399134,
        0.052545057674856566,
        -0.039262662895888145,
        0.08838113037035969,
        0.02443134906802029,
        -0.06334792019869956,
        -0.07776369718636404,
        -0.14810550693208888,
        0.025393170103907844,
        -0.03201397662439986,
        -0.21302944714220615,
        -0.048394506201224124,
        -0.07992603422527399,
        0.14150002491931646,
        -0.1523783429747317,
        -0.12900460885154824,
        0.09906456688182139,
        0.12294242563702633,
        -0.06662894418662153,
        -0.056762982556218484,
        0.055339572258773576,
        -0.2089797309384045,
        -0.1671401269179732,
        -0.025210603624397886,
        0.1385113616860339,
        -0.03912971704367026,
        0.009064391482603061,
        0.1018172823667884,
        0.18875535366576726,
        -0.051802522121743313,
        -0.0015119824256416782,
        0.16150074732991465,
        -0.13669753028284717,
        0.09227950426690792
      ],
      [
        -0.09144743437414994,
        0.00926398164649579,
        -0.02178783364288734,
        -0.085860767978997,
        -0.08729772595610641,
        0.02625293177888052,
        0.08940207085709555,
        -0.011873192877393747,
        0.006991337551186868,
        0.050828496044677644,
        -0.08774747139776322,
        0.06642634819022289,
        0.07441165574079923,
        0.23381254387596073,
        -0.03377515336949474,
        -0.04210473714614546,
        0.06905517380614239,
        0.0723232454077767,
        -0.048052244896435795,
        -0.03620507717797225,
        0.04859498381707651,
        -0.07366574213814099,
        -0.036867040454846574,
        0.007986151303944247,
        0.08943793414382532,
        -0.05549809506491809,
        -0.16594654163615102,
        -0.17211553350868009,
        -0.11309863211111096,
        -0.11792594231955529,
        -0.013884455999258777,
        -0.10708664689940396,
        -0.06231370857914155,
        -0.06915757298832519,
        -0.040377520296976686,
        0.11805896113460633,
        0.05944464836278177,
        0.0012924925081967335,
        -0.042116822189080576,
        -0.039076515935213,
        0.0294325018619646,
        0.05217404098783723,
        -0.08051724789889847,
        0.003276068565129505,
        -0.18190913265443107,
        0.019444973079431622,
        0.06782937278227968,
        -0.024049407860113538,
        0.16340143856145198,
        -0.07913754875467902,
        0.019526725731684805,
        -0.0032171572224858154,
        -0.009006996426877191,
        -0.010266433756424201,
        0.008945395698717542,
        0.07614894311302117,
        0.12372436641467878,
        -0.00020207792190163923,
        0.07276906393259103,
        -0.0630205321683265,
        0.0687848302129751,
        -0.07055350072885176,
        0.097944153614806,
        0.19852141122847375
      ],
      [
        -0.010963456785852387,
        -0.1968345265116367,
        -0.049218402354068436,
        0.11079686624220429,
        0.050655195052811866,
        0.023783290125013307,
        0.09058109235805968,
        0.043282665238406653,
        0.11004994006490773,
        0.0821022342690202,
        0.1361592048972263,
        0.03222083950800344,
        0.08212716764426435,
        -0.02758082536108593,
        -0.0540127753586622,
        0.15230448179812883,
        0.019415753095268745,
        0.0710459281469462,
        0.011112181330577606,
        -0.05267066031345533,
        0.0009862928696949076,
        0.12960958625163926,
        0.049862030619162445,
        -0.15375434359942086,
        -0.01932952281647465,
        0.15885117093661819,
        -0.019695057732392048,
        -0.16168775961084503,
        0.17000080840888276,
        0.06128065641286779,
        -0.006287340326415482,
        -0.033676354702696205,
        0.09799362245036283,
        -0.048314154550454895,
        0.10229772436409885,
        0.04798514021214133,
        0.02197308556382416,
        0.012911643537949232,
        -0.01642803354562041,
        0.09373017993585618,
        -0.07771008035817735,
        -0.14593906657380998,
        0.05616756217983061,
        0.05668687528168825,
        0.043662619083464645,
        0.03704760248990204,
        -0.029399025344999965,
        0.07181953178048028,
        -0.003818741887076581,
        -0.043744089105773924,
        -0.02800866666857913,
        0.18145880169296238,
        -0.15580545161250028,
        0.04488229671071811,
        -0.151461487677834,
        -0.009719640709431859,
        -0.03894089771911437,
        -0.18724106847978075,
        0.03448812620256841,
        -0.0341284254708498,
        -0.18851429458611688,
        0.07327079841831892,
        0.1288673590039953,
        0.13381711627781256
      ],
      [
        0.03223523996883179,
        0.004197834369982224,
        0.1192719855174252,
        0.1512537194505007,
        0.10278490798801619,
        -0.08312238361831119,
        0.018081301586601355,
        0.03924717702189812,
        -0.16181341110155628,
        0.04168538221698302,
        0.20362716189788488,
        0.05746796416825372,
        0.13314887428658867,
        0.01642622767495605,
        -0.006575199596504258,
        0.03327140460947213,
        -0.0732633957563677,
        -0.0877840472112228,
        0.11371750622414269,
        0.12323998048733645,
        -0.08900397457585509,
        0.08758237544345997,
        -0.007809236341480182,
        0.03045619410895391,
        0.04132885386704299,
        0.08809177154099677,
        0.00693278105445185,
        0.12663628553644188,
        0.027786093268021696,
        0.05605340238862658,
        -0.07482918971033016,
        0.19353124442609468,
        0.04298707344157632,
        0.06438645055681674,
        -0.1452380957695018,
        -0.07458625647943824,
        0.11116523682133078,
        0.025607611231986998,
        -0.1725779336494147,
        0.09307011327835572,
        -0.04883313740636877,
        0.12645411631271974,
        -0.006898666537077272,
        0.01838320308480873,
        0.10640893704408454,
        -0.08016473404379376,
        -0.08977392500712103,
        -0.016544581772224787,
        0.07455480892283634,
        -0.1195163054581052,
        -0.14979392905209593,
        0.07397232294373766,
        -0.054149050972095894,
        -0.03522293575665258,
        -0.16741941645646194,
        -0.060974142412060145,
        -0.0006795632984820032,
        0.08355039805869166,
        -0.06970699423161003,
        0.14883676932316098,
        -0.06147494573853066,
        -0.06346809650731679,
        0.13805878371587402,
        0.01898968226597459
      ],
      [
        -0.049573284090186395,
        -0.013869675015009608,
        0.1215095942794452,
        0.13184011359124206,
        -0.07236275946414386,
        -0.0023804795469892608,
        0.00809632213150518,
        -0.08878951435878131,
        -0.004305675323767946,
        1.3557681182339561e-05,
        0.10190030411228736,
        0.10842996844226024,
        -0.028731403175846444,
        -0.01921355951134955,
        0.05965520977238201,
        -0.05351925103141675,
        0.05286144611894141,
        -0.009128716023681234,
        -0.0870545621695355,
        -0.08592647340352771,
        0.12994970707556858,
        -0.01339354688577045,
        0.14730814623273142,
        -0.04618541458616928,
        0.026150999050494804,
        0.21366517621209288,
        -0.09545166557710134,
        -0.17042877322264607,
        0.11553920455725575,
        -0.07424964954630528,
        -0.0018594863895882443,
        -0.05293906594470793,
        0.024877278458518906,
        -0.08500327969438314,
        -0.016977843516093286,
        0.039689174978371426,
        -0.09054881102778493,
        -0.06302537353722001,
        -0.03191133937977012,
        -0.12848248866725726,
        -0.03794709647014984,
        0.01038235377526584,
        -0.03489134390913916,
        -0.024370328487984667,
        -0.001251532344823876,
        -0.05845498730628358,
        0.0614456008175053,
        0.1300561397039006,
        -0.04143009162710273,
        0.04357208745370531,
        -0.021518255786318215,
        0.03282173249630237,
        0.14061115280455125,
        0.04567897542628347,
        -0.15993024686379476,
        0.04077001125243372,
        0.11071443248743745,
        -0.019899923520242897,
        0.08896216426833742,
        -0.06197420510098323,
        -0.13340535470929968,
        0.010552710292672761,
        -0.15773626596632045,
        -0.021532072594009646
      ],
      [
        0.11556184662163198,
        -0.1714400803180307,
        -0.1149022042362032,
        -0.0925080180812557,
        -0.004698857899861791,
        -0.031412147780411105,
        0.1256461562055874,
        0.08548047204397652,
        0.04517181355819215,
        0.01261353899763912,
        0.03481954662381604,
        -0.07740830063390476,
        0.07781223576082166,
        -0.099864522085662,
        0.07501906864801473,
        0.10555096419456471,
        0.018936200272393306,
        -0.017058880254614713,
        0.03594889099313472,
        -0.256971935558548,
        0.027143589310578094,
        -0.009525972892247407,
        -0.004546538768323289,
        0.06338897596800838,
        -0.006714447369924591,
        -0.10359713496388528,
        -0.013193867460415362,
        0.006066661560950732,
        0.010321369951313218,
        0.014540788432609473,
        0.09333809561493868,
        -0.09785083932374154,
        0.01657391657347419,
        0.11619649815192497,
        -0.1565914575038509,
        0.015427314366946653,
        -0.052568541323424756,
        -0.03344674702676115,
        -0.08196955245153872,
        -0.015397178616010145,
        0.16534963536881958,
        -0.11383508889476109,
        -0.10404486861927856,
        -0.1169171758466578,
        0.15566243201039054,
        -0.041086817219724604,
        -0.0029161052021673428,
        -0.035069478594841094,
        -0.08453917948760661,
        -0.021117151453488543,
        0.22075679263185152,
        0.12501165910213588,
        -0.07659607718731969,
        0.058153871182555966,
        -0.07534586929644435,
        -0.15952252314278226,
        0.09155478314337512,
        0.104179413050258,
        0.0934897844803789,
        -0.042195144998983615,
        -0.014976903038081905,
        0.06520629251756244,
        0.03515738201509617,
        -0.03534968846068079
      ],
      [
        -0.14539694162768158,
        0.010287985743632152,
        0.09689792607240177,
        -0.10737538971230201,
        0.058349719198153106,
        0.031203512235191144,
        0.06736530269135196,
        0.0780831735948355,
        -0.061669829735528585,
        -0.14567169001418373,
        -0.0484049975805522,
        0.07984599020234717,
        -0.0478409138609217,
        -0.06232693040055926,
        -0.16356208912897222,
        0.15642461971544594,
        0.07415127397791045,
        0.06790421970637632,
        0.08690430518575247,
        0.051789939728184575,
        -0.021941378914187733,
        -0.014052934074273063,
        -0.038396413419227345,
        0.2365471877621125,
        0.049922374140927164,
        -0.042854045707507754,
        0.041307311598389025,
        -0.09077870865053152,
        0.13510869179676507,
        -0.0593657573065042,
        0.04499880023368757,
        0.09540555970276489,
        0.03534878512177927,
        0.00884104730172352,
        0.0001513092559512354,
        -0.005773993939423591,
        -0.051789053141104366,
        -0.04052077532279342,
        0.132155697961663,
        -0.009917952212086438,
        -0.07056658814700298,
        -0.046650783349237085,
        0.09980541447911113,
        0.06067126670039934,
        0.05085473610759302,
        -0.022693572349409274,
        0.050875820199660804,
        -0.056691997810257744,
        -0.023041529584438093,
        0.08709101393245802,
        0.07851245328876315,
        -0.08817810722252901,
        -0.07682854348327009,
        0.009761741493506542,
        0.15433834331235421,
        -0.17202282995821122,
        0.024995035837780254,
        -0.12357233908456243,
        -0.05741308560079388,
        -0.03272663804678394,
        -0.03776276401388079,
        -0.05006093232103624,
        0.0006472131278115815,
        -0.048067368853098785
      ],
      [
        -0.13133255015400874,
        0.07009605007434394,
        0.06760991648416362,
        0.07589050177197168,
        -0.13737460890831255,
        0.02827383162879424,
        0.060704693280458105,
        -0.09282721737501798,
        0.0015187720311805356,
        -0.010905502271658759,
        0.16493648289866314,
        0.17282484598848727,
        -0.14863114281681744,
        0.22396125654825297,
        -0.0821896960352078,
        0.08709928463327594,
        0.0871532914847028,
        -0.0906501023751662,
        0.04429675554627616,
        -0.009656815308488196,
        0.04978030395225203,
        0.021368500885874993,
        0.10743445729823983,
        0.0067115621423477784,
        -0.015075536470888204,
        0.0972259372765203,
        0.05162556352185241,
        0.0657187828571212,
        -0.059681644996987276,
        -0.09386736877520986,
        -0.050982953503094716,
        -0.05607346360905727,
        0.07139832837542728,
        0.08800334665829614,
        -0.014749857853074403,
        0.12779488746304427,
        0.12289217939079185,
        0.02170189620367005,
        -0.07452349993673393,
        0.1413019245990063,
        -0.0054795198801655025,
        0.011044078665893877,
        -0.02950822134184437,
        -0.07990553014755539,
        -0.13135202376292082,
        0.05726576720267857,
        -0.07096514106005213,
        0.27585551252163054,
        -0.09725978824352283,
        -0.11291627959110136,
        0.045811809046651567,
        0.13733640464176947,
        0.005800322421546551,
        0.05138888635513402,
        -0.16622836528967774,
        -0.06084233289529844,
        -0.09641353864622444,
        -0.17018014111723778,
        0.010056654369267514,
        -0.20141186618666757,
        -0.11873670291385983,
        -0.05036606864980164,
        -0.07465167181828657,
        0.03559853438244093
      ],
      [
        0.027441911330022377,
        0.08032718828246053,
        0.06756605377694642,
        0.10261922626018136,
        0.0008151559574610278,
        0.028682321278866902,
        0.045935286462015036,
        0.012498609060860645,
        -0.034974111971964664,
        -0.030318670191675133,
        -0.07391244133511457,
        0.037862309037763164,
        -0.0076103383330173,
        -0.05955476088967263,
        -0.05947134039523022,
        -0.1096647915134848,
        0.08790254736460035,
        0.005825594723798036,
        -0.07748172905208224,
        0.07260973138516984,
        -0.05032978887683244,
        -0.12565396834095705,
        0.09170846884583843,
        -0.048292250231713574,
        -0.03672022229771156,
        0.0024945384631715885,
        0.10211200846595525,
        0.0017994018389211252,
        -0.10768389680339621,
        0.04884159679449281,
        -0.043553362952954616,
        0.16921852018593336,
        0.00069499582180063,
        -0.2003547212252196,
        0.031273575278314425,
        0.17392460308689117,
        0.1415218196971585,
        0.16426857727178656,
        -0.0922926080512384,
        0.08174262842203484,
        -0.06483702368554722,
        0.01985589222260793,
        -0.11332529245966334,
        -0.057873836147328245,
        -0.06019305570011711,
        0.08112516024371975,
        0.0712930502295922,
        0.025960642846184417,
        -0.12099892465594653,
        -0.027986047328996316,
        -0.06700323813304168,
        0.07809918847323903,
        0.10580412316680089,
        0.09486622611790418,
        -0.06849362589344121,
        -0.2460173369205778,
        -0.15867786269172596,
        0.12766587138393318,
        -0.03648223804538008,
        -0.06741706090122042,
        0.14751524906500274,
        0.11149007522134728,
        0.0021955600422859565,
        -0.026348375393067187
      ],
      [
        -0.011863039112702312,
        0.02046151293182939,
        0.14368848760926414,
        0.038109908128852614,
        0.0661867652435793,
        0.10643374463592734,
        -0.10504000571873053,
        0.06756606119449705,
        -0.025758065048303237,
        -0.22641646808079724,
        -0.191608796483097,
        -0.09142966055779611,
        0.04853772774281934,
        0.010219502651729823,
        0.01655661906298355,
        0.1742321197471967,
        -0.11396761178797002,
        -0.0036980683485384864,
        0.027339117011327237,
        -0.06611927773503129,
        0.0025438168030285364,
        -0.14302617507114496,
        0.12661331599155456,
        -0.06127031050390371,
        0.18242512006614167,
        -0.004119816910624707,
        0.0918264027966885,
        -0.004786738942024948,
        -0.002760877639306482,
        -0.05244738239291734,
        0.010697644656223247,
        0.02823506840804177,
        -0.06963294335478035,
        -0.01087192844353109,
        -0.05560724215278089,
        0.20581049607878987,
        -0.008058061015535646,
        0.13860997191058758,
        -0.018282843910027775,
        0.023113642719950558,
        -0.11866199658758882,
        -0.04043419438439288,
        0.01989578182219997,
        0.14242734853758446,
        0.02047033237682805,
        0.12469427070116913,
        0.05692552306421716,
        0.14724645184613463,
        -0.00502964896501735,
        0.21464833592893695,
        -0.04358986581352039,
        -0.06883030461153411,
        -0.10866595376837931,
        0.2093321950835255,
        0.07291564445457109,
        -0.030004927616088917,
        0.1121655493551305,
        0.061756581304766016,
        0.17611497839753204,
        -0.1389994917056052,
        -0.023830041199819695,
        -0.043660288267903656,
        -0.17724193660069015,
        0.09522019393083149
      ],
      [
        -0.02428232753603094,
        0.06628665786758325,
        0.21191377548978838,
        -0.03165968054457721,
        -0.036916180672242595,
        0.011988133971507005,
        0.08865742950385967,
        -0.050930795058159714,
        -0.05648317838331091,
        0.09417973988124999,
        0.0342971653532465,
        -0.18362201861983182,
        -0.10937748879547309,
        0.1348149603680562,
        0.0360942253377366,
        -0.06900492711725277,
        -0.015303238977984078,
        0.00041971299811302494,
        0.0660708061921464,
        -0.12197565363276275,
        -0.07551946202003192,
        0.02469845552485593,
        -0.008965409991300863,
        0.051331422430440594,
        -0.11041302372346226,
        0.0311931707518606,
        0.09780863934273926,
        0.0437175960964914,
        0.012492603017675411,
        -0.008610601699138225,
        -0.07497184672046339,
        -0.006935339320117087,
        0.11383448800766409,
        -0.01063459009763655,
        -0.08014853703836522,
        -0.044315435891567105,
        0.01803688915220548,
        -0.03363300727186275,
        0.04278659186198663,
        0.04682222762352194,
        0.07983304630664988,
        0.12731784242613486,
        0.08992833372949717,
        -0.08389714464075293,
        -0.08057872361224269,
        -0.006244728465212511,
        -0.04097028226228223,
        -0.10180329678818509,
        -0.03957127641718529,
        -0.04261251937912925,
        -0.06033370810790872,
        -0.02835873301887492,
        0.10582801044756679,
        0.017892104286896325,
        0.2210632752839254,
        0.01531208712404832,
        -0.02604867546781516,
        0.0003711438187342219,
        0.02298826909123978,
        0.03908695921802892,
        0.18649418245166707,
        -0.07752258479700498,
        0.07714461336696132,
        0.01865655441536385
      ],
      [
        -0.14108874228399002,
        0.06974871449519147,
        0.1138359562472206,
        -0.07682684610345145,
        -0.001466751148981396,
        -0.15588028513588167,
        -0.11304415719243026,
        0.09379746699404932,
        -0.04088414667083418,
        -0.09833362501763217,
        0.018606348739753465,
        -0.04691402126485538,
        -0.04240725317743253,
        0.06639343706879806,
        -0.10432673540299152,
        -0.08124875448861897,
        0.01383679176309033,
        0.08683285323185476,
        0.11119007745332357,
        -0.05972430557599791,
        0.08417893662827278,
        -0.06929461025657638,
        0.1639984406576576,
        -0.10181162220463616,
        0.11930091902420979,
        -0.05884320482907752,
        0.18057186331657232,
        0.05310216905012156,
        -0.09124097781427967,
        -0.046898399924117824,
        0.07015214315092508,
        0.09527781909856782,
        -0.006893749891102684,
        0.004862568937912441,
        0.06703683446003306,
        0.010438960355821095,
        -0.11616016546728498,
        -0.07290337689232136,
        0.022019926959875445,
        0.10913028657770418,
        0.14511950568079224,
        0.07087495371065368,
        0.02640191921637907,
        0.06724547207686289,
        -0.06062621480590039,
        -0.0146819299747368,
        -0.07405173705202482,
        -0.11121505511787405,
        0.030147562531962494,
        0.016659586729569284,
        0.0617530160848517,
        0.0490422901639165,
        0.02179009881809448,
        0.04998565217607677,
        -0.002257325817758922,
        0.03707874187158787,
        -0.06520969237976784,
        0.03320057221775217,
        0.058932104740835975,
        -0.06013916757531499,
        0.004654659897145966,
        -0.0555971399628057,
        -0.047281697123448166,
        -0.1010216382909538
      ],
      [
        0.1136699438662288,
        0.097944520233161,
        0.0482629848539573,
        0.1778160454838292,
        -0.019508948428731767,
        0.2686274331166064,
        -0.020432744683143357,
        0.021477388863426733,
        -0.03144085659214425,
        0.03860154425725458,
        0.06662375277723329,
        -0.010229994090049972,
        0.1590787793642194,
        0.021476239748039937,
        0.02429030473307557,
        -0.08217559919840052,
        0.0375823263412738,
        -0.013338622860854996,
        -0.05462154014615361,
        -0.06972946029577409,
        0.23993143438263817,
        -0.01927837722289834,
        -0.13084115327401366,
        -0.06271335784550462,
        -0.004630928691996794,
        0.04924241580499146,
        0.04852554938859279,
        0.06076178046376689,
        -0.05791016506933813,
        0.030572454338612134,
        -0.07867246232249751,
        -0.052617358380068195,
        -0.08436850201074367,
        -0.10341010728860651,
        0.09097797382831628,
        0.05611043467820793,
        0.08770713937700694,
        0.003701369572419344,
        0.07333500985542073,
        -0.15826270542491752,
        0.07750754717703777,
        0.019638704870383793,
        0.059104624376613096,
        0.034127099701418785,
        -0.09141564312928256,
        -0.13810846171371885,
        -0.06414262590817099,
        0.05503890921408196,
        0.06307197748091796,
        -0.12284484294218188,
        -0.08810532410620325,
        -0.06494848190497308,
        -0.03208694163245822,
        -0.12231577542555515,
        -0.12160178890042125,
        -0.0738029883137714,
        0.0077458231530800606,
        -0.1060205014812633,
        -0.01474557698132192,
        0.09506084912722194,
        -0.11690327145524461,
        -0.017382818345334467,
        0.09202587133463944,
        -0.03756161028977248
      ],
      [
        -0.05151705904511646,
        0.10454669999271667,
        -0.027497758437455614,
        0.09935779476011038,
        0.03950966268019527,
        -0.029358169626354774,
        0.043077481313676676,
        0.02855467796067073,
        0.09237297372606919,
        -0.049707332269995186,
        0.0032068842279995313,
        -0.005524271107386609,
        0.06406684336071765,
        -0.092063809424856,
        0.09132723495152907,
        0.040909783009362564,
        -0.11826336279823906,
        0.10727072443242401,
        0.20062748126630228,
        0.08996734634080211,
        0.12814701505265855,
        0.008320093005321003,
        -0.14920754646430376,
        -0.16566642202021478,
        0.022907043765237903,
        -0.054364802810866385,
        -0.0826269071076769,
        -0.005634818562686265,
        0.05528119077478292,
        -0.130461478978946,
        -0.04031040028175925,
        0.13526833266246285,
        -0.09576819732216162,
        0.07846425195107117,
        -0.04434885401542832,
        0.04830829272823197,
        0.0985429191767295,
        0.06641309608025883,
        0.08092950246700337,
        -0.10358722705480146,
        0.10000959399216026,
        -0.07685999263430143,
        0.02429674885211411,
        0.023191192206449964,
        0.04410098231506997,
        0.0306921167917002,
        -0.07639002263652367,
        -0.12012017484126819,
        0.07861172273928098,
        0.01668843771115147,
        0.10321708733140465,
        -0.004017136077677937,
        -0.12618748469832278,
        0.0867610065768871,
        -0.03393318253801334,
        0.03071281713215188,
        -0.058143573101073556,
        0.14766265264483225,
        -0.07916632575897893,
        -0.030302086449529943,
        0.009649178350168326,
        -0.10020551020183673,
        0.029681529878861145,
        0.14475383407283576
      ],
      [
        -0.04404480225204924,
        0.03554656410296744,
        -0.2469065864562786,
        -0.003324731939818085,
        -0.02712459379148587,
        -0.0720730654538409,
        0.09711711911231503,
        -0.029520085384842,
        -0.0152429588101768,
        -0.034337369397774,
        -0.17262867659586573,
        -0.10165538323011816,
        0.08714121646060846,
        -0.18947916159723321,
        -0.06881714990774121,
