{
  "saved_at": "2026-04-17T12:27:21",
  "schema_version": 2,
  "mode": "heading_drive",
  "mode_suffix": "heading",
  "model_mode": "heading",
  "input_dim": 248,
  "output_dim": 2,
  "memory_steps": 10,
  "whisker_dim": 11,
  "input_layout": [
    "t-9.whiskers",
    "t-9.target_bbox_lengths",
    "t-9.heading_to_target",
    "t-9.action.drive_speed",
    "t-9.action.rotation_rate",
    "t-8.whiskers",
    "t-8.target_bbox_lengths",
    "t-8.heading_to_target",
    "t-8.action.drive_speed",
    "t-8.action.rotation_rate",
    "t-7.whiskers",
    "t-7.target_bbox_lengths",
    "t-7.heading_to_target",
    "t-7.action.drive_speed",
    "t-7.action.rotation_rate",
    "t-6.whiskers",
    "t-6.target_bbox_lengths",
    "t-6.heading_to_target",
    "t-6.action.drive_speed",
    "t-6.action.rotation_rate",
    "t-5.whiskers",
    "t-5.target_bbox_lengths",
    "t-5.heading_to_target",
    "t-5.action.drive_speed",
    "t-5.action.rotation_rate",
    "t-4.whiskers",
    "t-4.target_bbox_lengths",
    "t-4.heading_to_target",
    "t-4.action.drive_speed",
    "t-4.action.rotation_rate",
    "t-3.whiskers",
    "t-3.target_bbox_lengths",
    "t-3.heading_to_target",
    "t-3.action.drive_speed",
    "t-3.action.rotation_rate",
    "t-2.whiskers",
    "t-2.target_bbox_lengths",
    "t-2.heading_to_target",
    "t-2.action.drive_speed",
    "t-2.action.rotation_rate",
    "t-1.whiskers",
    "t-1.target_bbox_lengths",
    "t-1.heading_to_target",
    "t-1.action.drive_speed",
    "t-1.action.rotation_rate",
    "t+0.whiskers",
    "t+0.target_bbox_lengths",
    "t+0.heading_to_target"
  ],
  "output_layout": [
    "drive_speed",
    "rotation_rate"
  ],
  "history_includes_drive": true,
  "hidden_layers": 2,
  "hidden_width": 16,
  "activation": "relu",
  "weights": [
    [
      [
        0.02736440157100575,
        -0.09339332975218488,
        0.06739250683958657,
        0.08449896774620513,
        -0.17831976706146324,
        -0.11859150697280793,
        0.01148040711104248,
        -0.02839942315579967,
        -0.00015746046078476167,
        -0.07755661983961147,
        0.07784721906848101,
        0.06984777773835303,
        0.005929731689260418,
        0.10122924871725991,
        0.039799930546519126,
        -0.08051651269278583
      ],
      [
        0.033114797973873636,
        -0.0861101995650559,
        0.07888716584090205,
        -0.004449716396204675,
        -0.019712765218909092,
        -0.06280161340207824,
        0.10978745318638346,
        -0.013877157149504155,
        -0.03711364590984396,
        -0.03257354005723138,
        0.04667772565146258,
        0.03281784577700123,
        0.03706448268099854,
        0.03868886818235444,
        0.19014198433338875,
        -0.039846917413035976
      ],
      [
        -0.04600075503295645,
        -0.07307894831905636,
        0.05531658511697515,
        0.10141846757161735,
        -0.013344418673587613,
        -0.0771006140585692,
        -0.07404059887981382,
        0.058424957076848465,
        0.06809752297402104,
        0.04782567949041139,
        -0.06088958635967355,
        0.020848702274166936,
        0.010478694996479552,
        0.019638815732662976,
        0.0760729666678643,
        0.016729701504711487
      ],
      [
        0.06096823777280079,
        0.00606877959312038,
        0.025963688461757076,
        0.056725118998458245,
        -0.1339680904625691,
        -0.030359657842825988,
        -0.04224071131969666,
        -0.057372924445980744,
        -0.02335717554275382,
        0.13329867914564647,
        -0.07887897988913749,
        0.08695396316119579,
        -0.15112616680139315,
        -0.030073563477420334,
        0.012432008945744278,
        0.049294547909263436
      ],
      [
        0.06387003233658292,
        0.0712446848950947,
        -0.03131643596274476,
        -0.04148665391745092,
        0.07393687374249559,
        -0.018831970685961538,
        -0.11456001369726675,
        -0.10177219617708871,
        -0.08121792474007024,
        0.04369533908318436,
        0.011665158301664508,
        0.062007415281203064,
        -0.03836842029350604,
        0.014237284549532426,
        0.053996028065536675,
        -0.031129910878743727
      ],
      [
        0.04101962724992537,
        -0.05944270428231655,
        -0.032603197882151054,
        -0.034247312108698164,
        -0.11050120526074962,
        0.04207908458384499,
        -0.042153574542092585,
        0.0011220049838223428,
        0.044523652458773204,
        0.0391486696549827,
        0.0586282963605826,
        -0.008844257595284144,
        -0.03801331059105712,
        -0.007158906673438972,
        -0.15371075307684443,
        -0.1333043078681791
      ],
      [
        -0.11878193168380527,
        -0.08955540883330362,
        0.03590078536659161,
        -0.08128065684381207,
        -0.0370716347666747,
        0.11502181025153327,
        -0.0319934490618728,
        0.06623085321198983,
        -0.08249001467466165,
        -0.019399851026861235,
        -0.08643954942216141,
        -0.03044606899709351,
        0.07546189841179611,
        -0.15511795315223922,
        0.03682874709207322,
        0.017999515799654857
      ],
      [
        -0.05335624112105885,
        -0.12985982884281425,
        0.006477421008996062,
        -0.04751608620157047,
        0.01778330570745956,
        0.00031004543706932404,
        0.14384399077790283,
        -0.021494769882050374,
        -0.09056146011980466,
        0.015148413568553638,
        0.018631235064813612,
        0.12205864748104922,
        0.07499520377422209,
        0.03204796718158134,
        0.12922483110583138,
        -0.11010384523501172
      ],
      [
        -0.05745138363080531,
        -0.0832089759034413,
        -0.03500595371439469,
        -0.12359630289934481,
        0.05392660391765245,
        -0.021608522476081037,
        -0.13208230437351576,
        -0.09120169380617754,
        0.02950570265362812,
        0.0743149739690354,
        0.1781866770642421,
        0.2616725741358648,
        0.037215065713139976,
        -0.08886314645766501,
        -0.19364705585414427,
        0.020691427495098946
      ],
      [
        -0.07300426547659415,
        -0.03730018308179305,
        -0.05496791523237949,
        -0.012609632074096877,
        0.09261621575264882,
        0.012451042533180549,
        -0.014245828909150916,
        -0.0930044525357214,
        -0.14903964001816353,
        -0.04462275315619434,
        -0.005954866011752702,
        0.15876479304534247,
        0.011698997387765617,
        0.08825261334547067,
        -0.04702171614937152,
        -0.10976086305608515
      ],
      [
        -0.08667004378592413,
        -0.06512722317931666,
        0.19114222457443325,
        -0.07372893853681357,
        0.07218691844168397,
        -0.08273758942551818,
        0.08365772616863563,
        0.03456961726647117,
        -0.012715170435666343,
        -0.004611596621596333,
        -0.05992672127051108,
        0.040058466236468734,
        -0.0408587227018995,
        -0.11006264668358637,
        -0.11694582976475937,
        0.012149081014278569
      ],
      [
        0.14180658101771781,
        0.014367671038804219,
        -0.010654036196458237,
        0.025701707829850148,
        0.11417078373343002,
        0.018048795047156205,
        -0.03690235470245981,
        0.09934765894955877,
        0.03985479283610505,
        0.13696394567830292,
        0.015329887849467995,
        -0.10996056513229654,
        -0.12286432310061408,
        0.14825770494641627,
        0.15260610342600156,
        -0.019471072790663412
      ],
      [
        -0.03441123727272993,
        0.1312415717517335,
        -0.09941563704042884,
        -0.08031509547091938,
        0.054660816731077304,
        -0.03708892129752075,
        -0.00045995720959964606,
        -0.014677605576813302,
        0.031666417419986215,
        0.1254445886865969,
        0.007009714411572356,
        0.057827410726623514,
        -0.18411088970627223,
        -0.004375041646460324,
        -0.07790796144827479,
        -0.11280241544582997
      ],
      [
        -0.07886041054388278,
        -0.030005170740647284,
        0.08225047637347137,
        -0.11907981957324539,
        -0.000360845660468484,
        -0.045132033814271055,
        -0.029425912539463948,
        0.0900503110367727,
        0.0496755208173739,
        0.11915088179601367,
        -0.015000069963270484,
        -0.062497491481209574,
        -0.020103115208589307,
        0.021776854718395775,
        0.013673107926240711,
        -0.10073069514390119
      ],
      [
        0.008126222279805627,
        0.020495509082832278,
        0.2260758424279221,
        0.16857938439790388,
        -0.07973514973967127,
        -0.027460122885520993,
        -0.1314209713693015,
        -0.053047055826123166,
        0.02969349401869608,
        0.10733783817722375,
        -0.06659871181039574,
        -0.05874408446905811,
        -0.19283224736249577,
        -0.014607830894465755,
        -0.09759127842105733,
        -0.050894835658531416
      ],
      [
        -0.07874442244911128,
        -0.008465027263172878,
        -0.1578486693053225,
        -0.13171078942807726,
        0.18810040042279616,
        -0.11726629593417245,
        -0.0984942525384783,
        0.16495970452560918,
        0.2622340611929394,
        -0.10616080281996489,
        -0.034194782922484804,
        0.03067259394279586,
        0.15524163126822038,
        -0.08862238181418214,
        -0.024210248561694365,
        0.06645720353261714
      ],
      [
        0.03904314605778617,
        -0.033779812391243516,
        -0.012017656980010975,
        -0.12343552569419951,
        -0.024500268510652855,
        -0.025574637960872615,
        0.020849471573923348,
        -0.04986985642983915,
        0.043696737402683296,
        0.08999355145077943,
        0.01283291529985141,
        0.031588657985196264,
        0.004773491128030533,
        7.5787233362085504e-06,
        -0.06698147203339415,
        0.025072252198739653
      ],
      [
        -0.008736594445606169,
        0.18797206315917658,
        0.14129144122718645,
        0.03468380606856938,
        -0.07163619520541256,
        -0.10154983436308172,
        0.1069677949232951,
        0.023595576969926445,
        0.044469478514350784,
        -0.15761946026372134,
        0.08216138392575002,
        0.04080815104604993,
        -0.09971961922703035,
        -0.042344177727582484,
        0.021498856307815038,
        0.0013618860525273584
      ],
      [
        -0.026237747034884233,
        -0.009293520821107373,
        -0.022628236558381268,
        0.013734280796682926,
        0.12903224521976123,
        -0.23214506740278454,
        -0.02126978164619168,
        0.015851283376037847,
        0.02793237298112464,
        -0.03434992906581775,
        -0.15888332352954546,
        0.029454863957945398,
        0.15512062846048638,
        -0.1377448204485881,
        0.07539039788848638,
        -0.032852207491248696
      ],
      [
        -0.005507088827092257,
        -0.09455307750926213,
        -0.030035050925348156,
        0.11678121380421051,
        0.04921235045739875,
        0.15391383938580408,
        0.10573470896487712,
        0.03943114779254004,
        0.15796127166683732,
        0.038471735718808193,
        0.07323048291411197,
        -0.02663285784098496,
        0.0059759906780053156,
        -0.06263050821225716,
        0.08668361296563672,
        -0.10916456058444247
      ],
      [
        0.07025713477033742,
        -0.017120970382469097,
        0.10518109398509008,
        0.06746378851642769,
        0.16038721661407632,
        0.06397316939647353,
        -0.14117338245742436,
        -0.006012572420016121,
        -0.10389802487857845,
        -0.04749391752392387,
        0.13458726922505237,
        0.057252226329280745,
        -0.06276580536029448,
        -0.09103450688465735,
        0.0007602710848156334,
        -0.11260009806171611
      ],
      [
        -0.06027017611207322,
        0.028019277686587796,
        0.10375008359005572,
        0.0547021568051866,
        -0.2088755070112154,
        0.0256806039859245,
        0.006468805838252483,
        0.037168444855155296,
        0.1464912420289753,
        -0.18623528064199105,
        -0.05420770497526013,
        0.05306495428741571,
        -0.1420313698988905,
        0.13254413727589068,
        0.030895752577591085,
        0.07267571470416957
      ],
      [
        -0.05127225438394733,
        0.07307813665740202,
        0.09595157826021468,
        0.02134373465354321,
        0.018761344637221275,
        0.023014542109008298,
        -0.0775306935134513,
        -0.013248466586090043,
        -0.012573213415863612,
        0.03408452521527482,
        0.0885725256420916,
        -0.09505934635498559,
        -0.011226142323311001,
        0.13303863553826556,
        -0.06837702430843201,
        -0.07652230993663152
      ],
      [
        0.018167632342864094,
        0.07582802858202589,
        0.001026090079973465,
        0.11669148287102855,
        0.07629847866973687,
        0.0755976736829947,
        0.049761130789166795,
        0.2090294190506088,
        -0.019103740505187036,
        -0.1823322066909526,
        0.14625379676337993,
        -0.04110262226724184,
        0.009687949894506566,
        0.11760112313687243,
        -0.14440769073670523,
        -0.11166404690674028
      ],
      [
        -0.1437990037625214,
        -0.07131554411021938,
        0.03948053270285419,
        0.038244906879105964,
        0.022607801546464603,
        -0.12687012163480604,
        -0.20745341272474835,
        0.004881096060138854,
        -0.044460215198392064,
        0.033284863897318925,
        0.07022253993349444,
        0.012414447078756725,
        0.06826196618973725,
        0.02058378903795448,
        0.04576244868426521,
        -0.06088567748895924
      ],
      [
        -0.016129581114327583,
        0.01767101513586133,
        0.07368563232445732,
        -0.03532523831426606,
        0.04369056628617165,
        -0.02552536341746349,
        -0.010555598231925284,
        0.0744930090398473,
        -0.177630776927195,
        -0.11737766573924363,
        -0.13422922835370196,
        -0.20956491400995267,
        -0.060909944814045956,
        0.06730115095485228,
        -0.027766992153868738,
        0.014412302172485297
      ],
      [
        0.0978146187347948,
        0.11922973439134969,
        -0.006208769823997872,
        0.1215893640222654,
        0.005161583256443739,
        -0.0768529156148743,
        -0.05337872739073761,
        -0.13295610375045389,
        -0.07840544649682431,
        -0.03310186140874861,
        0.07103901468483749,
        0.1545296926225645,
        -0.12412356426255935,
        0.03527694804061804,
        -0.09562725199349924,
        0.03927928544228384
      ],
      [
        -0.011771928744223737,
        -0.16442019691696372,
        0.08336353077060207,
        -0.054296905110593846,
        -0.05105729168256881,
        -0.09771893762304394,
        -0.05875637276026817,
        0.03842569591769021,
        -0.0156433154821767,
        0.028563705379702927,
        0.031376491572484844,
        0.11859891775815849,
        -0.030783105078296236,
        -0.13262574712259054,
        0.0936557544678381,
        -0.033118288163963686
      ],
      [
        0.10009335632254059,
        0.034428281101645336,
        -0.011776497859608541,
        0.031354762659540916,
        0.17209446515981347,
        0.18486602245094894,
        0.006230609865241601,
        0.01438553994728079,
        0.09800054729074074,
        -0.07689361631385878,
        0.02878555206513078,
        -0.0023225523090124683,
        0.02818978956375932,
        -0.0748387280461179,
        -0.14493102262509025,
        -0.1895091795889071
      ],
      [
        -0.10034405554670925,
        -0.04119025654187297,
        -0.026329381735880106,
        0.17400225677653602,
        0.09620950172096128,
        -0.0880506679251737,
        0.03122514080985831,
        -0.0365567047941135,
        -0.024185298485148256,
        0.015691720905647074,
        0.054478157365305244,
        -0.030466311231567164,
        0.09553668792420093,
        -0.10254908000111303,
        -0.001614383156168776,
        0.22992821558608287
      ],
      [
        0.020033152275133873,
        0.1287064621640784,
        0.008218754621171654,
        0.05218908557308987,
        -0.008210916289416337,
        -0.01695538770259073,
        -0.06999958564421169,
        0.03864220276905152,
        -0.07511896900217664,
        0.058820304983686046,
        0.09633659973961546,
        0.032915492049570755,
        -0.025705895122525926,
        0.0407673124907491,
        -0.029903306445710126,
        0.08066484048467643
      ],
      [
        -0.1644651214445652,
        -0.03013843135668024,
        -0.178780194831386,
        -0.13422666321605978,
        0.11936680895437479,
        0.07873764936716265,
        -0.06461123230070462,
        -0.13492879350924922,
        -0.2648712206206231,
        -0.049758351138849986,
        0.21623463428241205,
        0.03905376046146118,
        -0.05025107472086572,
        0.04176543574698913,
        -0.14236184598163182,
        -0.030050197708510733
      ],
      [
        0.008933340792926032,
        -0.007732066787510802,
        0.07101648616538472,
        0.03098381773972542,
        0.056905813267375205,
        -0.06346999098972413,
        0.08062620379593438,
        0.14628285623028991,
        -0.08577067072086751,
        -0.08066843688886666,
        0.11883192421370999,
        -0.01718319726068675,
        0.12606688255688078,
        -0.039740880096014765,
        0.12848330233317212,
        0.008458003389742064
      ],
      [
        0.023189632902445686,
        0.14051582643438046,
        -0.03248794793286547,
        -0.08448149637671758,
        -0.04339388993061095,
        0.03896845274984646,
        -0.14060931553007208,
        0.05724657700196775,
        -0.04703176458885528,
        0.102125606087972,
        -0.21613597296618903,
        -0.07063569180075427,
        -0.1514493108304688,
        -0.07419759642485937,
        0.020057406723962876,
        -0.019444797627619602
      ],
      [
        -0.022753977398859104,
        -0.014295223451154568,
        0.018264803192619656,
        -0.0905354474444208,
        0.06036533672065157,
        0.057856825715709215,
        0.03457742754224528,
        0.049978178536670734,
        0.027970450303899885,
        0.18180396387918804,
        -0.008946337818334111,
        -0.02757688708816786,
        -0.06766877432779587,
        -0.09269992436004881,
        -0.11394051339918551,
        -0.08316612647176078
      ],
      [
        -0.006347285646993994,
        0.03002058875995577,
        0.004592692436266012,
        -0.06871333459283804,
        0.07772732535037895,
        0.06474888300425201,
        -0.014336841236297386,
        -0.058633600680331535,
        0.05060160920347002,
        0.015929512764117224,
        -0.13117071727022808,
        -0.006104807203968257,
        0.023531510584725218,
        -0.08079497692952389,
        0.014864792192938644,
        -0.13399668746008256
      ],
      [
        0.11999305402833221,
        0.11206921699045425,
        -0.022676726047240036,
        0.03267292582488339,
        -0.21952901616416703,
        -0.105495420546221,
        -0.026382125841511533,
        -0.09628038756312489,
        0.06550602603806634,
        0.17841150960837976,
        -0.10678817139612966,
        -0.07520643381354604,
        0.02114388765100819,
        0.14468250122574436,
        -0.11195610155799003,
        0.01901433245120943
      ],
      [
        0.16355746509065322,
        -0.14833235034211287,
        -0.11504341090637332,
        -0.03800723348234874,
        -0.04986185446121186,
        0.07132141469590358,
        0.02170168348306371,
        -0.15939629840404546,
        0.047636548563564786,
        -0.052815536860491424,
        0.11332368828795172,
        -0.05635902451499628,
        -0.05716974009821893,
        0.04859505319739154,
        0.06632917288093552,
        0.036890739268835585
      ],
      [
        -0.15137110764221,
        0.048316919042060105,
        -0.09288360500485277,
        0.021162181305366855,
        -0.13096676153782824,
        0.038428576894089225,
        -0.07243471991129569,
        -0.1151839918750239,
        0.06545426862605129,
        0.020749304936802365,
        -0.05626179479580754,
        0.13031970773664792,
        -0.03957175563243167,
        0.0028833542404634697,
        0.021965492733448555,
        -0.05899741515748483
      ],
      [
        0.04230928813593478,
        -0.04790543496470616,
        -0.03696621259371857,
        0.12240268420283967,
        -0.09655902102311664,
        -0.21832640519169258,
        0.14466641276760825,
        0.22893640844664023,
        -0.03504292638840439,
        -0.17488420434389948,
        -0.029007334529578536,
        -0.02570357967656392,
        -0.017055664414443828,
        -0.09998519777118654,
        0.04986247925749559,
        0.043752381246716036
      ],
      [
        -0.13420158634907817,
        0.06278972008609711,
        0.18433655307410837,
        0.015476256486610605,
        -0.03340432870721652,
        -0.014404600267484047,
        0.05525168872770275,
        -0.1554188982081437,
        0.016114048952509945,
        -0.03601571149954954,
        0.16481453440229454,
        -0.015641173229934264,
        0.14978072907091872,
        -0.09911884069219035,
        0.0505537822495642,
        0.02533321889277946
      ],
      [
        -0.07804274671414588,
        0.015930641373872036,
        0.1088874059511467,
        -0.029043590656460328,
        -0.15505436621102298,
        -0.003229523538228928,
        -0.08103998624807307,
        -0.03074312384242811,
        -0.005975469984799711,
        -0.15412310441768426,
        -0.14621545237288933,
        0.0432908797958268,
        -0.046941524650298716,
        -0.23032084106707248,
        0.06829742735821893,
        0.021109754549446153
      ],
      [
        -0.06410785169019174,
        -0.1182548438875486,
        0.07505776482694995,
        0.03140637480372318,
        0.21085236639563396,
        0.036081714929833704,
        0.03481676989154678,
        -0.014990570651926606,
        0.0746999661815833,
        0.05518329446868916,
        0.11128317373890437,
        -0.04681618012766466,
        -0.03910074534140759,
        -0.04302473485681588,
        0.06883244322658319,
        0.13120822541929889
      ],
      [
        -0.041205092677097245,
        -0.038145806836658615,
        0.028204967326433142,
        -0.02203627145356598,
        0.08238530705899802,
        -0.20386790535059948,
        -0.074240304819284,
        -0.07026306098591373,
        -0.20702279318393443,
        -0.0874883006353672,
        -0.08330849566408416,
        -0.018059731106922373,
        0.09994728755857024,
        -0.022007096135992117,
        -0.09475345254256173,
        -0.008464440318274292
      ],
      [
        0.09421857257874938,
        -0.08764368896700558,
        -0.08177203852235364,
        0.050192940028213125,
        -0.023006165387778596,
        0.0564935065550279,
        -0.0012255180810453942,
        0.0630112557181677,
        -0.09160143062359317,
        -0.0020362473899893066,
        -0.020045572201865466,
        -0.10919022832766842,
        -0.14040446451957903,
        0.061582081297537575,
        -0.03370010206387769,
        -0.09515325090069075
      ],
      [
        -0.00863712350736461,
        0.1012990837830595,
        -0.20481630478096002,
        -0.1343683591979026,
        -0.08598928396645174,
        0.1295654006749566,
        0.025377060208027668,
        0.06890712236169506,
        -0.1010381450962022,
        -0.10148830321651824,
        0.03908980855185221,
        0.005233189404034555,
        0.04927820064795359,
        -0.016853352503684388,
        0.022794396237128298,
        0.010849741470241545
      ],
      [
        0.06984557341158709,
        0.07247148310837269,
        -0.14546879939872404,
        -0.20177691104401502,
        0.08684775744962119,
        0.10500852688877856,
        -0.09165465283758598,
        -0.16701814995635866,
        0.010244917492276807,
        0.08264072667824525,
        0.16030370319174028,
        0.04636489068648585,
        -0.0333811447793344,
        -0.08020549751955523,
        -0.0011552914116873792,
        -0.030224535293680573
      ],
      [
        -0.09115578889305495,
        0.1839836887261812,
        0.16031285501141013,
        0.10262884129562318,
        -0.0849358314293677,
        0.07552000452753362,
        0.05744014723108613,
        0.03974177024789828,
        0.11337604710585149,
        0.05687131363701223,
        0.06510012639002544,
        0.057195872693908245,
        0.03060397188117405,
        -0.16017300782531657,
        0.005951576880125849,
        -0.05267507078523613
      ],
      [
        -0.11493311087158635,
        0.151031590931587,
        0.15526836520133172,
        0.12042761302593655,
        0.022396414685763474,
        0.12128913676312286,
        0.0010824075711870706,
        0.018211733083716583,
        -0.09849753004797132,
        0.03424679842339458,
        0.006560364205836501,
        -0.11698161343993584,
        -0.004597636365359227,
        -0.007159926198482562,
        0.16091293387822045,
        0.08062259519370535
      ],
      [
        0.001027830772425905,
        0.022341759958626164,
        0.003970388761363231,
        -0.02510924562626551,
        -0.0993152976710137,
        -0.013567245385173383,
        -0.06700160136386245,
        -0.11228164999853077,
        0.04488064321732082,
        0.029033266510985017,
        -0.15539680625916646,
        -0.011017405685678858,
        0.08941662407151706,
        0.09512109976920173,
        0.0900784904084176,
        0.004943350623216879
      ],
      [
        -0.07588731067810722,
        -0.09731902759685314,
        0.030946433998797977,
        0.03409411532705961,
        0.11249411165420167,
        0.0971287535002319,
        -0.011874483896437924,
        -0.11173298632814768,
        -0.02730529034424549,
        0.018556923464158864,
        -0.019272661531362697,
        -0.05189642291039054,
        0.02270972678532689,
        -0.04525674117739201,
        -0.058585647091374385,
        0.024619518656034015
      ],
      [
        -0.03609999938331417,
        0.02192122125425914,
        0.024534445519642706,
        -0.10228998217494015,
        -0.04632836359972009,
        0.1274638456091481,
        -0.10435782093188453,
        -0.19008118079683453,
        -0.16584730251441027,
        0.0016631366608111106,
        0.001651403159449035,
        -0.010561766605128102,
        0.10903746547127084,
        -0.24002761781250842,
        0.033372263788649985,
        0.13687151838548922
      ],
      [
        -0.10127770244918176,
        -0.03410763163087998,
        -0.06761169009368204,
        -0.08028088309648404,
        -0.032410827875956234,
        0.12653962759619988,
        0.16500219439545397,
        -0.03016823298798822,
        0.1724307855863147,
        0.0022438482343042116,
        0.15636105288614097,
        -0.008378466074852825,
        0.011769340214995138,
        0.032820576521046294,
        0.2832858398296259,
        0.07309792986046933
      ],
      [
        -0.0635142297573788,
        0.08701857757709856,
        -0.032493521053073696,
        -0.04394710199420068,
        0.07848317593273638,
        0.0011392330288926842,
        0.02501685563163898,
        0.0012559099985136545,
        0.03157738507873652,
        0.037212050467417664,
        -0.1750698158522213,
        0.05985999273420431,
        -0.08818794724738971,
        -0.12952228592755222,
        -0.007429132308738798,
        0.004191945202353915
      ],
      [
        -0.06227869207271738,
        0.07462886389516418,
        -0.1205308880644418,
        -0.036510864688482456,
        -0.055634882726089255,
        -0.005835995541216205,
        0.025042752034273925,
        -0.09051145881389688,
        0.0663938325418373,
        0.004706765983946065,
        -0.17102683949226077,
        -0.17588670359978242,
        -0.0011063051636626285,
        -0.019843450924532238,
        -0.011471048128347374,
        -0.005862670308328607
      ],
      [
        0.02025587155016844,
        0.08510144719617964,
        -0.09978016565636393,
        -0.10521239319025466,
        -0.10129501575441519,
        0.02429314747243622,
        0.11179957497461827,
        -0.03873542504053335,
        -0.22330795002212137,
        -0.15397409008293444,
        -0.07593395646859148,
        -0.050085532643817605,
        -0.03667438137119257,
        0.003464687122759878,
        -0.030179294712791925,
        0.09088370731010531
      ],
      [
        -0.06070814618111443,
        -0.07743843877735858,
        0.043004292864600994,
        -0.137870966122432,
        0.03188371331571987,
        0.0075572126072155745,
        -0.013240726466666087,
        0.1426314049632268,
        -0.05452455004453908,
        0.18406922387846264,
        -0.021369392132478477,
        -0.11467946214601811,
        0.006278963731080575,
        -0.0966496721290596,
        -0.06969331580970868,
        0.03230487135193651
      ],
      [
        0.04989274441633605,
        -0.055872308857735,
        0.08867159964942514,
        0.10398102800347964,
        0.1258720704946244,
        0.045890392280653496,
        0.12243951281306432,
        -0.16890068485388204,
        -0.027197522818158473,
        -0.07881038417301708,
        0.009581748028588495,
        -0.05131765480339735,
        -0.014921414693749406,
        0.1690242939131286,
        -0.01742493540924207,
        0.033809875522605504
      ],
      [
        -0.020858401576299448,
        0.0067992539754636455,
        0.0005403138534596011,
        0.04029445240210981,
        0.10153607103806958,
        0.14628801308705494,
        0.02780470416242535,
        0.05294287326268449,
        -0.10199935585889112,
        -0.008842578143975183,
        0.08331543629650051,
        0.07776627942431392,
        0.019003114985230066,
        0.0796005274114555,
        0.04188850373552096,
        0.10444091248959858
      ],
      [
        0.025985219389747453,
        -0.03194265169927538,
        0.03015943519225371,
        -0.2631413812318835,
        0.03127251926264635,
        -0.32928947885679627,
        -0.15477158290957235,
        0.040570018009109504,
        0.04423472844641805,
        -0.10534019978345577,
        -0.06507370152278022,
        0.12307821410005793,
        -0.04346718898558505,
        0.20142019006556322,
        -0.0023560556660320257,
        0.03329295886325704
      ],
      [
        0.14519960734085122,
        0.011766582388808225,
        -0.09001314669334559,
        -0.009820053286471425,
        -0.006309573414352659,
        -0.12420975347735717,
        -0.022974398220652004,
        -0.06665081760214707,
        0.08436110510341445,
        0.0021572243457459186,
        -0.026520858338774,
        -0.009535418859626934,
        0.02003694875233155,
        0.05539155031484318,
        -0.09196045614625196,
        -0.09688710220219669
      ],
      [
        0.09920312206253606,
        -0.03702894423455316,
        -0.12723617598255468,
        0.03988932062065617,
        0.038500202081350306,
        -0.1391146232095577,
        0.020608066407731714,
        0.06605731174069357,
        0.03497222388991183,
        0.05580259892051552,
        -0.12723213811473325,
        0.029728283510541045,
        -0.027176056649479766,
        -0.043355836136647216,
        0.07599455381922683,
        0.12949300110502907
      ],
      [
        0.16113918780214903,
        0.11807323243449956,
        -0.009854420417175058,
        0.03170896847025909,
        0.06575109184397984,
        0.009229765930191364,
        0.011742970732069438,
        0.07397521502306172,
        -0.003972410749023131,
        -0.06644291394841832,
        -0.03834583045571167,
        0.05692683242538788,
        0.00026880548501106836,
        0.030551757823979963,
        0.05799124457755874,
        -0.03701152860798986
      ],
      [
        0.0679130899179626,
        0.03402107010737733,
        -0.1108894887106752,
        0.12955655658245419,
        -0.04807984037033458,
        -0.1502842846592079,
        -0.09384769554571454,
        -0.09169256223330347,
        0.006036630350806575,
        -0.025543515092040333,
        -0.031373454010186076,
        0.055650879338533334,
        0.03052170844923739,
        0.02838193663099306,
        0.034620034167603904,
        0.051980755037806144
      ],
      [
        -0.18929979830414356,
        -0.03272752118403427,
        -0.1957886435572232,
        0.00327203978640996,
        -0.003527688087761715,
        0.09223923483490457,
        0.10665271690103116,
        0.018209736892430144,
        -0.0435824231909625,
        0.04261774036257984,
        -0.048533453718452677,
        -0.00012506379155035151,
        0.08855765552365506,
        -0.050089345529155595,
        0.07016842990759549,
        0.057482667178617636
      ],
      [
        -0.08574283634423721,
        0.08745827452029448,
        0.06273310972309476,
        0.009186977657575831,
        -0.07157030236052012,
        -0.0788113133960102,
        -0.048283524756580716,
        0.048726421228804155,
        -0.08446634538456392,
        0.038338746064260736,
        -0.11263798877381592,
        -0.018325899871157944,
        0.009846659038411256,
        0.21957916909903935,
        -0.1258702449092103,
        0.12884103887108797
      ],
      [
        0.013456246010303237,
        0.0369243282600927,
        0.010627956364163534,
        0.039971410015299996,
        -0.016912964692922413,
        0.12892522584011074,
        -0.040992318862494395,
        0.10167766615070503,
        -0.05651454759779773,
        -0.006361789247918864,
        -0.09739012935274392,
        0.04086233636118154,
        0.1297761419802611,
        -0.006946790020181003,
        -0.01986450545147381,
        -0.10344532967803899
      ],
      [
        -0.02059108814689148,
        -0.14303714704189915,
        -0.08197886325911459,
        0.020399750918063907,
        0.11533924697887867,
        0.2506222474327446,
        -0.05267689568428029,
        0.1288937590666908,
        0.02324094695435059,
        -0.014533453349992766,
        0.037723078208686034,
        0.0055602643758874745,
        0.009913828820523739,
        -0.03666940051851609,
        -0.12773760161860184,
        -0.14197140688760834
      ],
      [
        0.05866312227958505,
        -0.02484840162534019,
        -0.053530363428776866,
        0.0007975905928887423,
        0.0682753887879238,
        0.014544825069731957,
        -0.05891547252077881,
        0.11012435833631805,
        0.14316637263285412,
        0.043461485011674496,
        0.08631251414369748,
        0.11153130016645847,
        0.10148591452154226,
        0.05514773408985335,
        0.05154950329211698,
        0.04331712558360461
      ],
      [
        -0.0985438322311903,
        0.06292679711246053,
        -0.1217556888881529,
        -0.07132337479940393,
        0.11395196395766828,
        0.07380166288357246,
        0.1335723095265689,
        -0.024397079867547026,
        -0.10212367255056386,
        -0.022542911411776934,
        0.008037630608533195,
        0.007093396127477346,
        0.10180751239447809,
        -0.032443041898042584,
        0.029429981054760513,
        -0.09213111041308417
      ],
      [
        0.040439685365467104,
        0.0002791560474783374,
        -0.06733522554314755,
        -0.02114433914547884,
        -0.01965110518938066,
        -0.02591298196060198,
        0.159071139404985,
        -0.00884071198891765,
        -0.020551189242584318,
        -0.1893076700765907,
        -0.08142724113342359,
        -0.023624690927350603,
        -0.06159138852528889,
        0.12408100481065376,
        -0.016995497244070776,
        0.11235593774168481
      ],
      [
        0.005541239717533984,
        0.0033431584021503214,
        -0.00797415640515423,
        0.0003746762241401401,
        0.15124071292249655,
        -0.20995952774261578,
        -0.17974411397515747,
        -0.04877818058198383,
        0.002655970334797035,
        0.06102219310724525,
        0.04135943417335738,
        -0.034506301617734325,
        0.09151282515158345,
        0.09251427826492069,
        0.014345233426721681,
        0.08309943049738236
      ],
      [
        0.02448426744244855,
        -0.05042266430412378,
        0.0626658020639826,
        0.010687945294306497,
        -0.00207636049080281,
        0.13101220458104504,
        -0.22009481443772347,
        -0.12731179678004365,
        -0.105420189496479,
        -0.032676577131732804,
        -0.024328083577000233,
        -0.13536183911049116,
        -0.08846980296864462,
        -0.07730586483423085,
        0.21916689383274965,
        0.1590430473954905
      ],
      [
        -0.036976189261300065,
        -0.0326507433337206,
        -0.10320156550269027,
        -0.1722103403727509,
        -0.010914617201440458,
        -0.08961082445923152,
        -0.007619802683143846,
        -0.14370272741123277,
        -0.06831131057523634,
        0.012647977115358517,
        0.03328962967166669,
        0.03749008861878442,
        -0.11858341141127694,
        0.0767530443494861,
        -0.07235932629394763,
        0.05684551408366185
      ],
      [
        -0.0009553813635878842,
        -0.1236032462388861,
        -0.028395392115738605,
        0.027073110416620083,
        0.053016024229918655,
        -0.012665074871647707,
        0.13755780514232013,
        0.09047713815913488,
        -0.02346236810704826,
        0.062262424293489264,
        0.17755137346140723,
        0.1760567144212384,
        -0.11027764474198412,
        -0.08320512963359372,
        0.13123632372151922,
        -0.09412812761296285
      ],
      [
        -0.11876769984384258,
        -0.043661521843923794,
        0.037737472537450384,
        -0.009161732944097271,
        -0.061533972665233375,
        -0.06219840157038907,
        -0.06396975679935538,
        -0.07898229624537301,
        0.20624800904188714,
        0.025766269185663594,
        0.07850826352566494,
        -0.04392045318799483,
        -0.016699402584947894,
        -0.06407903916821515,
        -0.24031408595127962,
        -0.12709865771202766
      ],
      [
        -0.16259835743659964,
        -0.20203654746696859,
        -0.10734640480461331,
        0.11901829524833349,
        -0.007102120560670614,
        0.1142437119969865,
        0.03690732492601198,
        0.07027585712314474,
        -0.07955161044515234,
        0.04610117097486392,
        0.06431541968106115,
        -0.051784455542277175,
        0.05024820863034506,
        0.05084516169134779,
        -0.05153493001007681,
        -0.1041773532221285
      ],
      [
        -0.10633786334452518,
        0.007768426991896991,
        0.02936635312482046,
        -0.07113715780708796,
        -0.0007242007707646923,
        0.049583403185290684,
        0.055515165008804594,
        0.13936294884197364,
        0.11602759204785974,
        -0.09086963881116254,
        0.1500654544560895,
        -0.04768309773492519,
        0.0938323485302216,
        0.006105379252843608,
        -0.03919575456019525,
        -0.16568574176641299
      ],
      [
        -0.015406947837241463,
        -0.14003674847627665,
        0.08686603570190485,
        0.13624576441336378,
        -0.07467635436048817,
        0.025465438045445404,
        -0.06514208169895218,
        -0.05643959488771711,
        0.07090300562613257,
        -0.004411851791618387,
        0.15509995562564813,
        -0.04330575499227921,
        0.08974305191020508,
        0.00874798272787069,
        0.0692793271319497,
        -0.0435057145792133
      ],
      [
        -0.004450514993273943,
        -0.010372105550119599,
        -0.07508014531175582,
        0.05949043975707243,
        0.055282449619811956,
        0.051650449962696125,
        0.13802359023832908,
        0.13015500538349117,
        -0.03231969910865085,
        0.03255007344944775,
        -0.057126045439168445,
        0.002097369302342768,
        -0.05385909047469278,
        0.14548660858849552,
        0.030477410308223946,
        -0.022929365231962723
      ],
      [
        0.10719011205151616,
        -0.19492701813013835,
        -0.18087175243184572,
        0.07150218378228415,
        0.002318592043661014,
        0.020838406538644955,
        -0.11911388637183264,
        -0.0020864488272413894,
        0.18127178440750324,
        0.0730642971092626,
        0.014115047278142346,
        -0.0394282050652169,
        -0.0354336881157842,
        -0.1912076149822704,
        0.02095314504568556,
        0.07257685299866175
      ],
      [
        -0.1414947925678511,
        -0.05939699035418827,
        -0.10394339242879687,
        -0.08665733368814879,
        0.001691156969171212,
        -0.1888371744572488,
        0.05516311380361995,
        0.06769818375992726,
        -0.021198350058843414,
        -0.223725214300714,
        -0.09060608450413689,
        0.11071786212195488,
        -0.2494712509094543,
        -0.031208523704196207,
        -0.10815084586546049,
        0.06890277447891079
      ],
      [
        -0.06062702263860802,
        0.036276141949574806,
        0.05077984468452585,
        0.16493171103165852,
        -0.021336359443801904,
        0.0321174461295025,
        -0.13336191892760002,
        0.10690229378607112,
        -0.06694438265275228,
        -0.051308224214507474,
        -0.0031229613266664075,
        -0.14035115743884102,
        0.02054415507022797,
        0.0868810360747074,
        0.02412258616030484,
        -0.14603698498201176
      ],
      [
        -0.01111840285090019,
        0.06663616261611394,
        -0.1686483697570986,
        -0.09648307449530252,
        0.07560430447540545,
        0.022602950856262096,
        0.036996140217161966,
        0.16698756327020228,
        0.04342860967273939,
        0.05812907369419076,
        0.24230708419688296,
        -0.01920021611527186,
        -0.07165198737082883,
        0.038417250656571374,
        0.03723891044897901,
        -0.05065021005637312
      ],
      [
        -0.09271198925434532,
        0.2074301525321749,
        0.02935141010726006,
        -0.06572740578363673,
        0.07914133438825713,
        -0.01145385911673198,
        -0.022709424271440876,
        0.05049359449083234,
        -0.11466312446120007,
        0.030715844018568608,
        0.17066336263311088,
        0.041863989908541926,
        -0.03378484426307876,
        -0.045539398525343396,
        -0.03903326518439321,
        -0.026156293277198314
      ],
      [
        -0.033928028211869035,
        0.08228719656239346,
        -0.15564677222870255,
        0.07744365246530246,
        -0.03720849141180729,
        0.03219857528780453,
        -0.101206501996075,
        0.11931459202182457,
        0.11321264964158327,
        0.08522275938705495,
        -0.13715404487145452,
        0.07445727019279076,
        0.03635706014594396,
        -0.14415761358807122,
        -0.004365617236548556,
        0.02938639197094944
      ],
      [
        0.04993703375231428,
        0.015918540674264105,
        0.026153353291279605,
        0.13236797235247597,
        0.10698946044234355,
        -0.2591214706120215,
        -0.028506823758282413,
        -0.014786098765525103,
        -0.15599176864446057,
        0.0075068745971780095,
        0.11101670806603058,
        -0.09757667429717716,
        0.03020969609774255,
        -0.08224337612151897,
        -0.06252312873544459,
        0.12932409340872356
      ],
      [
        -0.04872313057408647,
        0.04150790684465031,
        -0.16804034744655316,
        0.16727481680666642,
        0.05100815241808263,
        -0.018041304840785755,
        0.05168560237949366,
        -0.1266055221696934,
        0.10754572353740983,
        -0.03004570544018847,
        -0.019451033812371104,
        -0.04415197760951779,
        -0.05214403528119563,
        0.06238326250532239,
        0.02079746579060511,
        0.05517893936099289
      ],
      [
        -0.0007897864306438812,
        0.046086703534300465,
        -0.03761372757809591,
        0.20026959317215867,
        -0.14391594289992754,
        0.11158317925641531,
        0.12284171541570783,
        -0.07652611986011318,
        0.20154600808530618,
        0.08844665275392484,
        0.08608580694520036,
        0.002516466682116678,
        -0.019507484877490686,
        -0.018805467813760742,
        0.03288703509009206,
        0.12248047053156913
      ],
      [
        0.016282497430374368,
        -0.08185005360697552,
        0.07403573576935055,
        0.08275554177383211,
        0.055678526265841216,
        0.06529544297225877,
        -0.024330064322271253,
        -0.08342568997104491,
        -0.07661474364075578,
        -0.1478199490591138,
        0.020153563100762332,
        -0.007493921957589607,
        -0.03951206228006287,
        -0.2654224058112588,
        -0.11419606319508664,
        0.09730469032952827
      ],
      [
        -0.05968517673809298,
        0.032382088586949236,
        -0.12488723833747062,
        0.12923332910797253,
        -0.016045700592109014,
        0.024394061343929258,
        0.20886119098433986,
        0.13618034113593638,
        -0.026179077477950115,
        -0.054223758948641905,
        -0.030359855428643015,
        0.045790214460275855,
        -0.00944940620631681,
        -0.03549397201883147,
        0.12957311806956964,
        -0.01360612258364999
      ],
      [
        0.20650919679622257,
        0.008148922784696457,
        0.1603263247043445,
        0.032121994182606764,
        0.08336477739922754,
        -0.06672432854115612,
        -0.07666984151547832,
        0.041282813446986914,
        0.09012602986445907,
        0.0026641268875354346,
        -0.1166465821064741,
        -0.122154807355921,
        -0.12816063227403238,
        -0.15873715173184177,
        0.007648427764262419,
        0.09768215514583041
      ],
      [
        -0.0012047732312785683,
        -0.20299123759872204,
        -0.01713079504657662,
        -0.014586018715308414,
        0.18511460939104718,
        -0.13250718263355676,
        -0.03508388440496244,
        0.153190092951195,
        0.04176057597472083,
        0.04963599363964231,
        0.009164935839615515,
        0.029629804456160442,
        0.06983139727228752,
        -0.07269401739563876,
        0.07666834036976429,
        -0.1266490822957485
      ],
      [
        0.02948831446816411,
        0.01605141234779874,
        -0.055344753120878686,
        -0.002003435098592422,
        -0.05901739097158972,
        -0.09789395540801571,
        -0.031755541234319284,
        -0.09914110614502716,
        0.030339396039166265,
        -0.10423173997955586,
        0.06281237375521066,
        -0.10609995241683412,
        -0.05085478467457682,
        -0.056091041889720104,
        0.11681804147343941,
        0.026311141189389365
      ],
      [
        -0.019014256777631727,
        0.04478632791997601,
        -0.1892314589853287,
        -0.0038397479328578354,
        0.17627043370375048,
        0.010232731966054075,
        0.006098782630126981,
        0.049223381587541686,
        0.0817790531343119,
        -0.18032881804508505,
        -0.15220242830486486,
        0.018884715424563894,
        -0.06419781040573234,
        0.11782334674388312,
        -0.030487143504459746,
        -0.1770757600639651
      ],
      [
        -0.11387101125445996,
        -0.24692819599076488,
        -0.02102509391793923,
        -0.01688363127256576,
        -0.041229511494684644,
        0.09523386266638025,
        0.10763025861133083,
        -0.01530133211937017,
        -0.1903498224177184,
        0.05448250863730667,
        0.04874777041746541,
        0.027784183201288115,
        0.08813948340382373,
        -0.1046046510370792,
        0.17820791115560655,
        -0.08950892721800581
      ],
      [
        0.06728220506264694,
        -0.15152829613964616,
        -0.0835402350609904,
        0.1362076871541372,
        -0.02654113065434398,
        0.07377494142572968,
        0.021279222078896022,
        -0.009425520654292186,
        0.12382870278761919,
        -0.022203603552084932,
        -0.1610400531897677,
        -0.07213308965750022,
        0.04949847845406398,
        0.03551776625128906,
        -0.14290963292478245,
        -0.0683976500146207
      ],
      [
        -0.05224011930944625,
        -0.032820138416244114,
        -0.12356068782176269,
        -0.055581380407027835,
        -0.06758929727870303,
        0.0680228999575106,
        0.0726612387183514,
        -0.0130941656818521,
        -0.03402576423906839,
        0.012591249869638683,
        -0.0748490996663762,
        -0.10298856124583919,
        -0.08443435710054141,
        -0.05700790502283303,
        -0.10595623098105307,
        0.01178620503977613
      ],
      [
        0.06553040199179724,
        -0.14252563483052474,
        0.0022566248837496377,
        -0.020042646724742756,
        0.03038719107043708,
        -0.0011691793149105393,
        -0.13053706884901153,
        -0.11336590564830491,
        0.0029409108345159335,
        0.09208300857782549,
        -0.19883402708198075,
        0.03104716339197333,
        0.10683120977869238,
        -0.013742129356964387,
        0.0489768874595394,
        -0.06334660735804996
      ],
      [
        -0.010719401136455831,
        -0.14556233100750895,
        -0.2105282439815103,
        0.08054733059765341,
        -0.09015871691511912,
        -0.04093613800859381,
        -0.1245061898206377,
        -0.12661901718549082,
        -0.015184050550245496,
        -0.0694188265410171,
        0.03658422018577733,
        0.040639149709774405,
        0.02881314881665749,
        0.021426983559265252,
        0.13955278498040707,
        -0.09573811145891802
      ],
      [
        -0.004933296618087756,
        0.1017185486585371,
        0.1135590271905192,
        -0.12764438206099163,
        -0.031161981619098694,
        0.12031053964482072,
        0.04562685057138583,
        0.017535137871794122,
        -0.018197334532274876,
        -0.03541735430257956,
        0.02475778556810058,
        -0.022663865470790585,
        -0.0038236730462854955,
        0.007058372175352504,
        -0.06307626859665563,
        0.04443685692659898
      ],
      [
        0.26170689512928197,
        -0.15957811102685174,
        0.029097183633799525,
        -0.06823332246746046,
        0.048740647263247484,
        0.002528649368060817,
        0.06841657839621851,
        0.10556360685415977,
        0.018631254509735753,
        0.10071028287273319,
        -0.2116492159973292,
        0.14282683266319277,
        0.033681575534717935,
        0.096793190723083,
        -0.11173172355493896,
        -0.07795510928028536
      ],
      [
        0.013105645698572237,
        -0.0015300476301769064,
        0.025420309621913446,
        0.0974260992803407,
        -0.16163309883682775,
        0.08579919908634424,
        0.0007437374696760183,
        -0.01830015135742635,
        -0.13075871997075011,
        0.04422409029636504,
        -0.21791833522482434,
        0.05822750111044053,
        -0.13399505961802002,
        0.004800662270691183,
        -0.012885325271470046,
        0.10167785455822818
      ],
      [
        -0.016043707794692132,
        -0.06233548296149912,
        -0.04549426510874317,
        0.11434200982804862,
        0.045049254662945085,
        -0.03628292981228965,
        -0.021233515335438047,
        -0.1407366573420208,
        0.036237341109969366,
        -0.1589871295586852,
        0.06638826528451426,
        0.011550559983279283,
        0.21435459944291413,
        -0.0987950891985236,
        -0.011402975695266238,
        0.15814123129761234
      ],
      [
        0.10698994808805509,
        -0.06252168789934424,
        0.02011286880858658,
        0.00021331027101469563,
        0.022208749460830346,
        -0.06439569052389327,
        -0.008021208952109293,
        -0.1435093397580896,
        0.01348577221502748,
        0.03946203577147854,
        -0.021547916517333572,
        -0.1450358514960463,
        0.08877278189526368,
        0.032735314772509426,
        -0.06738172821053093,
        -0.028548435531647393
      ],
      [
        -0.13476409066448605,
        -0.09208454785043219,
        -0.04829688464795024,
        0.11034920826739557,
        -0.060540734733689996,
        0.0558405486614381,
        -0.048342222100430335,
        0.022266348276801566,
        -0.011346362910688693,
        0.07745178346043131,
        -0.04915252633404918,
        -0.1412172056436621,
        -0.12410268658183714,
        -0.04776400897041654,
        -0.11435254440283285,
        0.033488354955520765
      ],
      [
        -0.041827215961895876,
        0.2132459633061276,
        -0.15605137734796973,
        0.018320562047042264,
        -0.10440480662931896,
        -0.045961083541189426,
        0.012699843610897939,
        -0.20882451405435656,
        0.02261894113996481,
        0.16993512103274602,
        -0.0418450116345043,
        0.02333143429524131,
        0.09204068512379042,
        -0.014723458945347781,
        -0.05435541282460421,
        -0.20771693359193424
      ],
      [
        0.057562665876646955,
        -0.0101628232046242,
        -0.09094169449310421,
        0.011402482957129877,
        -0.055527678285579085,
        -0.04910640260018821,
        0.054446553104533536,
        -0.12019028860657119,
        0.09540301715946155,
        -0.12646693644539436,
        -0.060637393670613424,
        0.17268566598328247,
        0.10123944622805504,
        0.008765097275581304,
        -0.08664575447144154,
        -0.05087982777966928
      ],
      [
        0.006580317503635473,
        0.003369685738687211,
        -0.008160450380462434,
        -0.0027350787375481187,
        -0.02236308806274911,
        -0.13114584832667187,
        -0.04638403392293502,
        0.08213566472863043,
        -0.12152871936943789,
        -0.017973601163057833,
        -0.07474112635226664,
        0.00999956375142943,
        -0.03490028993156609,
        0.13267386770510967,
        0.04330886244376877,
        -0.12115317342459594
      ],
      [
        0.06027805487735496,
        -0.06956579030477483,
        -0.05181580377480755,
        0.028215542708662306,
        -0.047271856820703166,
        0.07852848411725732,
        -0.0695530567604447,
        -0.055583041258301456,
        -0.05759251826545226,
        -0.0517468728308087,
        0.09758526528971746,
        0.05646757411359756,
        0.15355750015459788,
        0.2036404610652956,
        -0.09474476967341415,
        0.0029740527859916607
      ],
      [
        -0.10562590655736603,
        -0.06983107375551902,
        -0.056583079778129,
        -0.09490154746472178,
        -0.09757390057346424,
        -0.01460945485220412,
        -0.10926453950791526,
        0.07562523342040203,
        -0.0810653726138131,
        0.25135572800697686,
        -0.041660570692830384,
        0.006467375163884144,
        -0.1163250723318713,
        0.15321156275195305,
        0.09835048118615425,
        0.02331406079000302
      ],
      [
        -0.12094643927199207,
        0.018918444100384044,
        -0.1007074808610656,
        0.1313571421479077,
        0.06955619720653795,
        0.006918343505101247,
        -0.21879299342410968,
        -0.08831336193250582,
        0.06311410090482962,
        0.10796915717501168,
        0.09848133912600737,
        -0.14296698804906463,
        0.027080196571001164,
        0.09119595858460114,
        -0.15110657782031067,
        -0.004059617965540855
      ],
      [
        0.024591773327963338,
        -0.027009457050177696,
        -0.16632904472090232,
        -0.029214790950051684,
        -0.03250453022792266,
        -0.014949629631581272,
        -0.0506012277734635,
        -0.03978366579223281,
        -0.00221440139345084,
        0.03878258276672932,
        -0.02846338071395785,
        -0.03678755975223983,
        0.008293637467042134,
        -0.17250334251922303,
        0.04065537129020486,
        -0.003400339144467871
      ],
      [
        0.0035645839165314576,
        0.08627648774149409,
        -0.17536801153844608,
        -0.17722175140872934,
        0.021476676267767444,
        -0.0022914476186851117,
        0.015282340639990151,
        -0.0415002364555486,
        0.061012049180424084,
        0.0828024268260291,
        0.04233784267038238,
        -0.023423087024466625,
        -0.18927609452055655,
        0.06907945073721973,
        0.1075308252841501,
        0.05453328259909237
      ],
      [
        -0.07899422192145321,
        0.06050852278932266,
        0.07727784905071391,
        0.1400195942597186,
        -0.08178862867475276,
        -0.021988557187465094,
        0.06710701122089392,
        0.005155576610014527,
        -0.09898765269144193,
        0.03628262783608834,
        0.05084029838633472,
        0.007899301281339751,
        0.019719308583340624,
        -0.02323247580418735,
        0.1305697196033113,
        -0.08423431737448354
      ],
      [
        -0.05274296149139216,
        0.0009865282375152303,
        0.07893240180643454,
        -0.1344343174661901,
        -0.12077975664310575,
        -0.18464575720139775,
        0.002936117903223569,
        -0.10042682702884033,
        -0.03318229130390488,
        0.05844250106207911,
        -0.05873728743464634,
        0.02076973877409271,
        -0.026881337664905462,
        0.060357647279707244,
        0.040484112257478846,
        -0.06548725177201994
      ],
      [
        -0.015145374553416729,
        0.09373092409302082,
        0.03532628579616727,
        -0.12541713338654925,
        0.05576460504550327,
        -0.09905324437332064,
        0.12684741827355675,
        0.09196679071745853,
        0.027383812250943718,
        0.013168912454311198,
        -0.019896701108576758,
        0.06093324961180139,
        -0.03329686255558416,
        0.02115479888234322,
        0.07611836986188562,
        -0.0538014884953142
      ],
      [
        -0.05533574158636734,
        -0.10725718644793533,
        -0.09559247453363083,
        -0.1641609833032759,
        0.06242892513954065,
        0.16079298617443455,
        0.1279983176897441,
        -0.14602669785040967,
        0.06644519912837878,
        0.12675790653347557,
        -0.04214779764971179,
        0.009110248210871218,
        -0.18031411891361765,
        0.02395361500545463,
        -0.09769413097555842,
        0.014577982313510936
      ],
      [
        -0.14020016118240872,
        0.04875010768250869,
        0.09200395425013491,
        -0.07029786503770104,
        -0.10521029670758499,
        -0.19526892002820384,
        -0.02392464162579633,
        -0.052228677111793985,
        -0.13793432697888777,
        0.03973127156298892,
        -0.04153358353895707,
        -0.0966039408767696,
        -0.04980207220538381,
        0.09620598763855423,
        0.051961688181889,
        -0.015026456553442293
      ],
      [
        0.05559727191383595,
        -0.10425297127666719,
        0.0029069208588577223,
        0.013263698595774687,
        -0.045304198906003734,
        0.03745297781358828,
        -0.070084993166608,
        0.0457832510998169,
        0.05090970869169518,
        -0.2629197044291255,
        0.10576755732155847,
        -0.2736854836834081,
        -0.05532283564915413,
        0.09207897168771202,
        -0.03067683682026515,
        -0.13501715963448122
      ],
      [
        -0.09822048765375,
        0.0922188583604728,
        -0.17255620077750225,
        0.10142015660153132,
        -0.00805994947034394,
        -0.10873259689098087,
        -0.052365279338644766,
        -0.09134944250627369,
        0.07914064743489367,
        0.06482294528,
        -0.15551027771125545,
        -0.036243642171145465,
        -0.07751636079526282,
        0.11616062427989464,
        -0.12342612769982886,
        0.140714254903499
      ],
      [
        -0.0029899558734211846,
        -0.10434478999659852,
        -0.06082101718696194,
        -0.07195373423866616,
        -0.11757574643138423,
        0.006863368229796197,
        -0.11027007167269108,
        -0.19580266572469826,
        -0.032744625586379215,
        -0.16285227954687004,
        -0.06867109031099936,
        -0.08163984944050962,
        -0.07823751287338843,
        0.17969179110276592,
        0.0028822605184075593,
        0.018685195559562412
      ],
      [
        -0.15952527626720311,
        -0.05872762306561776,
        0.019334746938902105,
        -0.09106084571281192,
        0.07942582216909445,
        -0.10926743215987497,
        -0.025716438161152662,
        -0.052628990900548484,
        0.015920257010516723,
        -0.05739870487204671,
        -0.025912667529341984,
        -0.021205108225697586,
        -0.06594996748551527,
        0.043562715381380276,
        0.019983082770863848,
        -0.010729979294624457
      ],
      [
        -0.038656299495688586,
        0.07153176558958434,
        -0.021178540294251057,
        -0.027304755959296927,
        0.00927254155245511,
        0.15233726793080246,
        -0.12036754078255553,
        0.06913518989730076,
        -0.16939248539003282,
        0.01952553007951095,
        0.14106692316884067,
        0.04388372896396457,
        0.015322584382240838,
        -0.05032984805756097,
        0.0023847640805634853,
        -0.02308274253819887
      ],
      [
        -0.07058278302674556,
        -0.026031598733780633,
        0.017815154135366912,
        -0.07113295758607731,
        -0.0736391539466324,
        -0.12223374348463203,
        0.035088143160057844,
        0.04897147458390999,
        0.022390420505674583,
        0.08386148854161736,
        0.009048868640837949,
        0.03520362140168794,
        0.027285406299336117,
        -0.008220536417572033,
        -0.04980418988892476,
        0.19801979818523063
      ],
      [
        -0.04058639611894313,
        -0.059797583709341774,
        0.03897523271167186,
        0.02265095692753732,
        -0.1292656399965509,
        0.09916714833364018,
        -0.008458922577585112,
        -0.09976455744357766,
        0.1081072929747736,
        0.05523631129101928,
        -0.11468427356467761,
        0.15959573039064512,
        0.059161750159927265,
        -0.0009156382131681646,
        0.14062221667493868,
        0.010955591758411093
      ],
      [
        -0.0025219345929501334,
        -0.05929670088322193,
        0.05225171194307976,
        0.042833972711159546,
        -0.001793319420600665,
        -0.07259520400297696,
        0.011668045349896256,
        -0.0062681159989554655,
        -0.11839820085740828,
        -0.13312366465579087,
        0.04962722127628519,
        -0.23365646833239753,
        0.018446409867178045,
        -0.04293312599087986,
        0.11530036571584515,
        -0.047664524902894995
      ],
      [
        0.059223430741301056,
        -0.035643915167060475,
        0.010214885730933371,
        0.06620363660474764,
        -0.04465036446728783,
        0.08784093534703062,
        -0.08923670367053749,
        0.026455218231311913,
        0.08420682105979986,
        0.05832210281836718,
        0.17097678008185904,
        -0.06855887458234801,
        -0.12385125891423182,
        -0.08929392873854596,
        0.05712584555689557,
        0.04136502796770667
      ],
      [
        0.009182919120111618,
        -0.10084451998399098,
        0.06886671591641068,
        -0.10994797297716055,
        0.10096510998835972,
        0.2549532103442073,
        0.03290828442902064,
        0.052364656409539294,
        -0.04290878580147287,
        -0.16351296884597627,
        -0.055250846987219535,
        -0.09814488993058293,
        -0.12994484699057218,
        0.15467248879047354,
        0.022320129719662962,
        0.030747179765946816
      ],
      [
        -0.027751027617050367,
        -0.015524281486974446,
        0.08661920830186363,
        -0.0028701962203456785,
        0.04454608761141123,
        -0.019254040717766194,
        -0.030726236639631723,
        -0.12634462181933523,
        -0.17625578081661558,
        -0.024439965832496125,
        0.003948502344473824,
        -0.11549788684439474,
        -0.00309593427343877,
        0.00482712265531118,
        -0.1957988823114596,
        -0.08553039195903087
      ],
      [
        0.03657337731947959,
        0.034758899997611156,
        -0.10360306590034665,
        0.01426281774739853,
        0.0887032443526681,
        0.06813087658693377,
        -0.00855691627774833,
        -0.042025513547993096,
        -0.055165475070697946,
        0.04106044298916277,
        0.01639580364147079,
        0.05652214830642389,
        0.011842618017523487,
        0.07352717329539382,
        0.006311012464433032,
        0.0671173553988687
      ],
      [
        0.07820219334174652,
        -0.07224862420505554,
        -0.16237612882306768,
        0.13864351305495085,
        0.019936999523748125,
        -0.15561771370187935,
        -0.06410288319528361,
        0.06931635770389309,
        -0.023764392839563445,
        -0.046935486649167274,
        0.12467785444266505,
        -0.09404916211751176,
        -0.07167628744162073,
        0.018983065847709705,
        0.03288024023845106,
        0.041223148765778296
      ],
      [
        0.08183159210654674,
        0.017832886571782103,
        0.043947975080042875,
        -0.023243915889091842,
        0.0025188389447540747,
        0.008004519282101125,
        0.019316382824587114,
        0.06937612273430416,
        0.05120488196047449,
        0.0030197903676712165,
        -0.07378670882152885,
        0.006077058371442387,
        -0.002516071359160651,
        0.01734821799417951,
        0.1959681743480973,
        -0.05038595557169904
      ],
      [
        0.037922673411300366,
        0.09595072614578222,
        0.008800831690510857,
        0.2099784521249884,
        -0.037060565484654084,
        0.027451736167941145,
        -0.07173487353611346,
        -0.03156785311264661,
        0.02370625310394277,
        0.07504933464600126,
        0.027530511649988522,
        0.11307185140058122,
        -0.008528136645531648,
        -0.029829614562762174,
        0.240641383173168,
        0.032053814519132674
      ],
      [
        -0.064611350184084,
        -0.06234672635240473,
        -0.08465515538198788,
        0.08414017377845942,
        -0.035833681770838774,
        0.009785152792314256,
        -0.005703247326902686,
        0.0656899574292622,
        -0.07468853624771722,
        -0.09754025636480443,
        0.01901744243006597,
        0.05396773691715981,
        0.029862283263781923,
        -0.07269109074561238,
        0.05865628707995371,
        -0.07015045476851228
      ],
      [
        -0.04683555290774663,
        -0.08476952895346697,
        0.11684746909715385,
        0.0569166963578604,
        0.05121837408155696,
        0.11035055683150027,
        0.25258335886264865,
        -0.15349303531241562,
        -0.06495684638577141,
        -0.05628516975990125,
        -0.07753090799418033,
        -0.09676983232242889,
        -0.026909639536456236,
        -0.10925423886572502,
        0.027904045045421738,
        0.0012928747871836532
      ],
      [
        0.04319764930920628,
        0.04559536095203756,
        0.05415161401695671,
        -0.03349934967425587,
        0.18737266583611623,
        0.019400200578854426,
        -0.16725606825771971,
        -0.09001599928132761,
        -0.15495045448822878,
        0.000605681939489476,
        -0.01206348239727428,
        -0.04206586947416747,
        0.18058649588561132,
        0.04930011745305525,
        0.06302190999311792,
        -0.0869626390355303
      ],
      [
        -0.08972585998800782,
        0.0033052313907773745,
        0.015536499785013223,
        -0.16666793706907473,
        -0.019303683548163687,
        -0.0003886248139453547,
        -0.019320965449566137,
        -0.0730446153376039,
        -0.0471003616283148,
        -0.016833438151558803,
        0.007029032462255171,
        0.054311887423622966,
        0.09706375256885748,
        -0.02643320589250267,
        -0.04314768344858144,
        0.035952868184382133
      ],
      [
        0.05485549285174578,
        -0.038992349977809336,
        0.07097942957525107,
        0.08800312329427915,
        0.11288523399431755,
        0.15804559661470488,
        -0.0778064661324003,
        0.001248096042398507,
        0.002364095076874237,
        -0.009758280161194184,
        -0.05943058175568739,
        -0.13340740613490867,
        0.008322859947856706,
        -0.06900037514854233,
        0.0055387947797657525,
        -0.07465698659466449
      ],
      [
        -0.09875223466581833,
        0.02104061388993543,
        0.013553153202211355,
        0.05205481947350014,
        0.19318472607846646,
        0.023248999839727304,
        0.043561628640617335,
        -0.09676786396179445,
        -0.11421637174582593,
        0.141191266709667,
        -0.08405598276527558,
        -0.09374894512759328,
        -0.003511186777010038,
        -0.008099517822584786,
        -0.08323112459667814,
        -0.03073717505857016
      ],
      [
        0.11040119853646507,
        -0.07238036277294264,
        -0.12515548374049598,
        0.08468116874972849,
        0.041097932877795736,
        -0.05737655229868646,
        -0.14208279239413818,
        -0.0668691514146695,
        -0.0035612754280651645,
        0.10372943017125072,
        -0.09421285970599304,
        -0.007590109423067708,
        0.06062978027609369,
        -0.21384411991454624,
        0.09065309070064446,
        -0.10953696760648318
      ],
      [
        0.029814075436930453,
        0.022152800795376893,
        0.0973987332064969,
        0.049508232676768425,
        -0.21659862328621596,
        -0.07212759201616463,
        0.012411186999572683,
        -0.017509710667845256,
        0.0442420377077904,
        0.06993619560781433,
        0.053515528575078776,
        -0.019242457887132285,
        -0.16580595826275338,
        -0.04090342363405104,
        0.035207315739173364,
        -0.1012748255993459
      ],
      [
        0.05669014428267827,
        0.08157612625739608,
        0.011392990797419249,
        -0.2751017913516757,
        -0.11788735810082399,
        0.16773245158978065,
        -0.049080542692954414,
        -0.17818132142723098,
        0.11227981815081946,
        0.00024835381384193334,
        0.09810153475042704,
        0.02487162325585478,
        0.041179826078261796,
        0.032599192787139054,
        0.06045265170011867,
        0.20116952024889745
      ],
      [
        0.08719894311993102,
        -0.14191866024321736,
        0.04011138817770219,
        0.10254176182108593,
        0.10489408590294098,
        -0.03996259357549453,
        0.1046150994612137,
        0.08331372693721954,
        0.2323702136412405,
        -0.06830315789239164,
        -0.04669096725648433,
        -0.027490302077399484,
        -0.0440232486589646,
        -0.07992622278569429,
        -0.2502792320604926,
        -0.04238693666451
      ],
      [
        0.033169332934212446,
        -0.044292629264146205,
        0.17380236100234142,
        0.0012349462059622776,
        0.1128261967909001,
        0.021823910930898877,
        0.07421356724525659,
        0.025076631816331702,
        0.12427181663451743,
        0.004072488225223804,
        0.0434279044390066,
        0.0328976685952853,
        -0.025888798388442134,
        0.036368485852985126,
        0.19847016053516345,
        -0.02763213375613227
      ],
      [
        0.03766905938526822,
        0.11295188417691318,
        0.10239776745550924,
        0.001085928136198467,
        -0.21714625882087435,
        0.044748947739455695,
        -0.19931467228032285,
        0.1320042601618005,
        0.016570530933849997,
        0.08882236342108249,
        -0.08213702208736795,
        -0.13941928682044072,
        0.02341643495924001,
        -0.003017677991230738,
        -0.04632531703146374,
        0.004253035917942652
      ],
      [
        0.24852307961409564,
        0.07494260649213963,
        0.09424775704138029,
        0.07582153291410822,
        0.1297479876919323,
        -0.01872127527030251,
        -0.18452301262897605,
        -0.016935534688302965,
        0.0742473467031139,
        -0.08804166014779612,
        -0.016963180272443007,
        -0.06212275681245745,
        0.1348862087151681,
        0.0673032268040906,
        0.05632642721549568,
        0.052471674261617765
      ],
      [
        -0.003345081627448188,
        0.017741077895319573,
        -0.10643271727199172,
        -0.19535677697895637,
        0.011381199149207991,
        0.027835193241133413,
        0.10859516402115878,
        0.14111012191648123,
        0.14212614990919128,
        -0.08943929499819982,
        -0.03324801037317054,
        0.04313529314279672,
        0.227371752174444,
        0.13291683225631346,
        0.09914386594482018,
        -0.037577295497422405
      ],
      [
        -0.07931366825177617,
        0.07084601933317522,
        -0.09884229939599207,
        -0.020770042093844504,
        -0.010301972024137874,
        0.14300082288101792,
        -0.03185275811307768,
        -0.21905108402726806,
        0.046236825814854776,
        -0.06264341036774275,
        0.00337448322722168,
        -0.007786311990945391,
        -0.024579344417392703,
        0.07097467944772937,
        -0.13805571846700695,
        -0.047084264972227376
      ],
      [
        0.06142841799160604,
        -0.05514644077288474,
        -0.14447510746056758,
        0.06019332822944977,
        0.10015871774274993,
        -0.004215493044395704,
        -0.1760891329704963,
        0.06339795478880333,
        -0.14602829570389836,
        0.026256109871111943,
        -0.07976529439169965,
        -0.10415664261134734,
        -0.03968469104312751,
        -0.01646060649144391,
        -0.05998659119650884,
        0.0509168773721335
      ],
      [
        -0.0400582127214973,
        0.08802373877525267,
        0.025250095668610768,
        -0.06260872362122248,
        -0.08087533208630819,
        -0.14960187035047065,
        0.026108610109987353,
        -0.03184290175950675,
        -0.21167811911901227,
        -0.04905962947462355,
        -0.08204029485037406,
        0.14150002491931646,
        -0.1529140334369152,
        -0.12943712285638415,
        0.09749456873403567,
        0.11849115680750974
      ],
      [
        -0.06690144285730659,
        -0.056762982556218484,
        0.055339572258773576,
        -0.20894596817378527,
        -0.1702517618179174,
        -0.026862938785664068,
        0.13918428161903543,
        -0.03912971704367026,
        0.010415719505796912,
        0.1008662686541565,
        0.18807878405800593,
        -0.051802522121743313,
        -0.0015119824256416782,
        0.16362538916937172,
        -0.13888117804408698,
        0.08892973273685974
      ],
      [
        -0.09144743437414994,
        0.00920229022148051,
        -0.02178783364288734,
        -0.08599821867992997,
        -0.09139679422002871,
        0.023170407526901093,
        0.08940207085709555,
        -0.011650654978739078,
        0.0076476755483591095,
        0.05034193163040049,
        -0.08837899196094381,
        0.06642634819022289,
        0.0735791822054845,
        0.23381254387596073,
        -0.03595880113073438,
        -0.044486731700834836
      ],
      [
        0.06905517380614239,
        0.07355772582442753,
        -0.048052244896435795,
        -0.03617131441335297,
        0.0454833489171324,
        -0.07597159391614022,
        -0.036867040454846574,
        0.008045668021311144,
        0.09078926216701909,
        -0.05524557224458014,
        -0.16657605924623337,
        -0.17211553350868009,
        -0.11309863211111096,
        -0.11792594231955529,
        -0.016068103760498442,
        -0.11011436106031638
      ],
      [
        -0.0631092584047507,
        -0.0695149645834322,
        -0.0395587736963862,
        0.11879815771208344,
        0.05633301346283766,
        -0.00020387091018519732,
        -0.04140138218300105,
        -0.038905441070319895,
        0.03078382988515844,
        0.0515089177144378,
        -0.08263150852399855,
        0.003276068565129505,
        -0.18244482311661456,
        0.01901245907459576,
        0.06625937463449397,
        -0.028500676689630036
      ],
      [
        0.1631289398907669,
        -0.07913754875467902,
        0.019526725731684805,
        -0.003183394457866575,
        -0.012118631326821313,
        -0.011918768917690378,
        0.009618315631718976,
        0.07614894311302117,
        0.12507569443787253,
        -0.001153091634533507,
        0.07209249432482973,
        -0.0630205321683265,
        0.0687848302129751,
        -0.06842885888939453,
        0.0957605058535663,
        0.19517163969842544
      ],
      [
        -0.010963456785852387,
        -0.196896217936652,
        -0.049218402354068436,
        0.11065941554127132,
        0.04655612678888957,
        0.020700765873033877,
        0.09058109235805968,
        0.04350520313706134,
        0.11070627806207999,
        0.08161566985474293,
        0.13552768433404547,
        0.03222083950800344,
        0.08129469410894961,
        -0.02758082536108593,
        -0.05619642311990184,
        0.1499224872434395
      ],
      [
        0.019415753095268745,
        0.07228040856359703,
        0.011112181330577606,
        -0.052636897548836055,
        -0.002125342030249209,
        0.12730373447364005,
        0.049862030619162445,
        -0.15369482688205394,
        -0.017978194793280812,
        0.15910369375695615,
        -0.020324575342474317,
        -0.16168775961084503,
        0.17000080840888276,
        0.06128065641286779,
        -0.00847098808765515,
        -0.036704068863608656
      ],
      [
        0.09719807262475366,
        -0.048671546145561864,
        0.10311647096468937,
        0.04872433678961854,
        0.01886145066388006,
        0.011415280119567304,
        -0.015712593539540902,
        0.0939012548007492,
        -0.07635875233498358,
        -0.1466041898472093,
        0.0540533015547305,
        0.05668687528168825,
        0.04312692862128117,
        0.036615088485066186,
        -0.03096902349278566,
        0.0673682629509637
      ],
      [
        -0.004091240557761704,
        -0.043744089105773924,
        -0.02800866666857913,
        0.1814925644575816,
        -0.1589170865124445,
        0.04322996154945197,
        -0.15078856774483246,
        -0.009719640709431859,
        -0.037589569695920526,
        -0.18819208219241257,
        0.033811556594807085,
        -0.0341284254708498,
        -0.18851429458611688,
        0.07539544025777616,
        0.1266837112427555,
        0.13046734474776425
      ],
      [
        0.03223523996883179,
        0.00413614294496694,
        0.1192719855174252,
        0.15111626874956763,
        0.0986858397240939,
        -0.08620490787029064,
        0.018081301586601355,
        0.03946971492055281,
        -0.16115707310438407,
        0.041198817802705866,
        0.20299564133470405,
        0.05746796416825372,
        0.13231640075127388,
        0.01642622767495605,
        -0.008758847357743925,
        0.030889410054782775
      ],
      [
        -0.0732633957563677,
        -0.08654956679457196,
        0.11371750622414269,
        0.12327374325195566,
        -0.09211560947579923,
        0.08527652366546074,
        -0.007809236341480182,
        0.030515710826320812,
        0.04268018189023683,
        0.08834429436133472,
        0.006303263444369595,
        0.12663628553644188,
        0.027786093268021696,
        0.05605340238862658,
        -0.07701283747156987,
        0.1905035302651821
      ],
      [
        0.04219152361596716,
        0.06402905896170973,
        -0.14441934916891147,
        -0.07384705990196114,
        0.10805360192138663,
        0.024111247813605057,
        -0.17186249364333522,
        0.09324118814324875,
        -0.04748180938317493,
        0.12578899303932042,
        -0.009012927162177397,
        0.01838320308480873,
        0.10587324658190107,
        -0.08059724804862956,
        -0.09134392315490675,
        -0.020995850601741285
      ],
      [
        0.07428231025215128,
        -0.1195163054581052,
        -0.14979392905209593,
        0.07400608570835687,
        -0.05726068587204001,
        -0.03687527091791872,
        -0.1667464965234604,
        -0.060974142412060145,
        0.0006717647247118385,
        0.08259938434605976,
        -0.07038356383937133,
        0.14883676932316098,
        -0.06147494573853066,
        -0.06134345466785955,
        0.1358751359546342,
        0.01563991073592643
      ],
      [
        -0.049573284090186395,
        -0.013931366440024889,
        0.1215095942794452,
        0.131702662890309,
        -0.07646182772806616,
        -0.005463003798968692,
        0.00809632213150518,
        -0.08856697646012668,
        -0.003649337326595705,
        -0.0004730067330948464,
        0.10126878354910676,
        0.10842996844226024,
        -0.029563876711161247,
        -0.01921355951134955,
        0.057471562011142376,
        -0.055901245586106124
      ],
      [
        0.05286144611894141,
        -0.007894235607030344,
        -0.0870545621695355,
        -0.0858927106389085,
        0.12683807217562437,
        -0.01569939866376969,
        0.14730814623273142,
        -0.04612589786880236,
        0.027502327073688642,
        0.21391769903243085,
        -0.09608118318718356,
        -0.17042877322264607,
        0.11553920455725575,
        -0.07424964954630528,
        -0.004043134150827911,
        -0.05596678010562038
      ],
      [
        0.024081728632909714,
        -0.08536067128949015,
        -0.016159096915502807,
        0.040428371555848636,
        -0.09366044592772908,
        -0.06452173695560195,
        -0.031195899373690595,
        -0.12831141380236413,
        -0.036595768446955994,
        0.009717230501866384,
        -0.03700560453423927,
        -0.024370328487984667,
        -0.001787222807007371,
        -0.05888750131111944,
        0.05987560266971962,
        0.1256048708743841
      ],
      [
        -0.041702590297787855,
        0.04357208745370531,
        -0.021518255786318215,
        0.032855495260921644,
        0.13749951790460704,
        0.044026640265017326,
        -0.15925732693079322,
        0.04077001125243372,
        0.11206576051063123,
        -0.020850937232874765,
        0.08828559466057612,
        -0.06197420510098323,
        -0.13340535470929968,
        0.012677352132129905,
        -0.15991991372756026,
        -0.024881844124057802
      ],
      [
        0.11556184662163198,
        -0.171501771743046,
        -0.1149022042362032,
        -0.09264546878218867,
        -0.008797926163784107,
        -0.0344946720323905,
        0.1256461562055874,
        0.08570300994263115,
        0.04582815155536441,
        0.012126974583361934,
        0.034188026060635326,
        -0.07740830063390476,
        0.07697976222550693,
        -0.099864522085662,
        0.07283542088677503,
        0.10316896963987539
      ],
      [
        0.018936200272393306,
        -0.015824399837963785,
        0.03594889099313472,
        -0.2569381727939287,
        0.024031954410633993,
        -0.011831824670246642,
        -0.004546538768323289,
        0.06344849268537527,
        -0.00536311934673075,
        -0.10334461214354734,
        -0.013823385070497622,
        0.006066661560950732,
        0.010321369951313218,
        0.014540788432609473,
        0.09115444785369897,
        -0.10087855348465397
      ],
      [
        0.015778366747864998,
        0.11583910655681795,
        -0.15577271090326056,
        0.016166510944423795,
        -0.05568017622336887,
        -0.034943110445143075,
        -0.08125411244545919,
        -0.015226103751117053,
        0.16670096339201346,
        -0.11450021216816067,
        -0.10615912924437863,
        -0.1169171758466578,
        0.15512674154820705,
        -0.04151933122456046,
        -0.004486103349953036,
        -0.039520747424357634
      ],
      [
        -0.08481167815829167,
        -0.021117151453488543,
        0.22075679263185152,
        0.1250454218667551,
        -0.07970771208726384,
        0.05650153602128982,
        -0.07467294936344292,
        -0.15952252314278226,
        0.0929061111665689,
        0.1032283993376261,
        0.0928132148726176,
        -0.042195144998983615,
        -0.014976903038081905,
        0.06733093435701967,
        0.03297373425385653,
        -0.03869945999072899
      ],
      [
        -0.14539694162768158,
        0.010226294318616871,
        0.09689792607240177,
        -0.10658552201959691,
        0.05527591257259366,
        0.02851745748510279,
        0.06736530269135196,
        0.07830571149349014,
        -0.06130393528193181,
        -0.1450150509820602,
        -0.04950000534803421,
        0.07984599020234717,
        -0.0486733873962365,
        -0.06232693040055926,
        -0.16489944605885853,
        0.1546906741950427
      ],
      [
        0.07415127397791045,
        0.06913870012302716,
        0.08690430518575247,
        0.05297066794839398,
        -0.021845172287760777,
        -0.014794980767338007,
        -0.038396413419227345,
        0.23660670447947943,
        0.05112289200962398,
        -0.041360463064955964,
        0.04122878046881277,
        -0.09077870865053152,
        0.13510869179676507,
        -0.0593657573065042,
        0.04460384759998584,
        0.09481358861963413
      ],
      [
        0.03455323529617011,
        0.008483655706616538,
        0.0009700558565417269,
        -0.0025016796714932166,
        -0.05213206428175713,
        -0.04069153209364762,
        0.13287113796774247,
        -0.009746877347193346,
        -0.06631056952712838,
        -0.046755896249822716,
        0.09791306709570619,
        0.06067126670039934,
        0.050319045645409545,
        -0.023126086354245137,
        0.04935448730600505,
        -0.06084839563873794
      ],
      [
        -0.02331402825512322,
        0.08709101393245802,
        0.07851245328876315,
        -0.0881443444579098,
        -0.07994017838321424,
        0.008109406332240365,
        0.15501126324535575,
        -0.17202282995821122,
        0.026346363860974092,
        -0.12452335279719433,
        -0.058089655208555205,
        -0.03272663804678394,
        -0.03776276401388079,
        -0.04793629048157912,
        -0.001536434633428087,
        -0.051417140383146986
      ],
      [
        -0.13133255015400874,
        0.0700343586493286,
        0.06760991648416362,
        0.0757530510710387,
        -0.14147367717223486,
        0.025191307376814815,
        0.060704693280458105,
        -0.09260467947636335,
        0.002175110028352776,
        -0.011392066685935945,
        0.1643049623354823,
        0.17282484598848727,
        -0.14946361635213223,
        0.22396125654825297,
        -0.08437334379644751,
        0.08471729007858662
      ],
      [
        0.0871532914847028,
        -0.08941562195851536,
        0.04429675554627616,
        -0.009623052543868955,
        0.04666866905230792,
        0.01906264910787573,
        0.10743445729823983,
        0.0067710788597146795,
        -0.013724208447694354,
        0.09747846009685825,
        0.05099604591177014,
        0.0657187828571212,
        -0.059681644996987276,
        -0.09386736877520986,
        -0.053166601264334354,
        -0.05910117776996972
      ],
      [
        0.07060277854981811,
        0.08764595506318912,
        -0.013931111252483905,
        0.12853408404052133,
        0.1197805444908477,
        0.02020553278528811,
        -0.0738080599306544,
        0.14147299946389943,
        -0.004128191856971662,
        0.010378955392494421,
        -0.03162248196694449,
        -0.07990553014755539,
        -0.1318877142251043,
        0.056833253197842715,
        -0.07253513920783784,
        0.27140424369211413
      ],
      [
        -0.09753228691420789,
        -0.11291627959110136,
        0.045811809046651567,
        0.1373701674063887,
        0.0026886875216024365,
        0.04973655119386788,
        -0.1655554453566762,
        -0.06084233289529844,
        -0.09506221062303068,
        -0.1711311548298696,
        0.00938008476150622,
        -0.20141186618666757,
        -0.11873670291385983,
        -0.048241426810344525,
        -0.07683531957952627,
        0.032248762852392726
      ],
      [
        0.027441911330022377,
        0.08026549685744519,
        0.06756605377694642,
        0.10248177555924838,
        -0.0032839123064612847,
        0.025599797026887472,
        0.045935286462015036,
        0.012721146959515315,
        -0.0343177739747924,
        -0.030805234605952327,
        -0.07454396189829517,
        0.037862309037763164,
        -0.008442811868332092,
        -0.05955476088967263,
        -0.06165498815646986,
        -0.11204678606817411
      ],
      [
        0.08790254736460035,
        0.007060075140448942,
        -0.07748172905208224,
        0.07264349414978905,
        -0.053441423776776555,
        -0.12795982011895626,
        0.09170846884583843,
        -0.048232733514346655,
        -0.03536889427451772,
        0.0027470612835095135,
        0.10148249085587303,
        0.0017994018389211252,
        -0.10768389680339621,
        0.04884159679449281,
        -0.045737010714194254,
        0.1661908060250208
      ],
      [
        -0.00010055400380854393,
        -0.20071211282032658,
        0.032092321878904914,
        0.17466379966436824,
        0.1384101847972143,
        0.1627722138534048,
        -0.09157716804515886,
        0.08191370328692786,
        -0.06348569566235344,
        0.01919076894920847,
        -0.11543955308476342,
        -0.057873836147328245,
        -0.06072874616230059,
        0.08069264623888396,
        0.06972305208180649,
        0.02150937401666792
      ],
      [
        -0.12127142332663159,
        -0.027986047328996316,
        -0.06700323813304168,
        0.07813295123785824,
        0.10269248826685674,
        0.09321389095663798,
        -0.06782070596043978,
        -0.2460173369205778,
        -0.15732653466853208,
        0.12671485767130136,
        -0.037158807653141404,
        -0.06741706090122042,
        0.14751524906500274,
        0.11361471706080452,
        1.1912281046287128e-05,
        -0.029698146923115343
      ],
      [
        -0.011863039112702312,
        0.02039982150681411,
        0.14368848760926414,
        0.03797245742791965,
        0.062087696979657006,
        0.10335122038394788,
        -0.10504000571873053,
        0.06778859909315169,
        -0.025101727051130996,
        -0.2269030324950743,
        -0.19224031704627784,
        -0.09142966055779611,
        0.04770525420750454,
        0.010219502651729823,
        0.014372971301743883,
        0.1718501251925074
      ],
      [
        -0.11396761178797002,
        -0.002463587931887583,
        0.027339117011327237,
        -0.06608551497041208,
        -0.0005678180969155794,
        -0.14533202684914417,
        0.12661331599155456,
        -0.061210793786536793,
        0.18377644808933555,
        -0.003867294090286783,
        0.09119688518660628,
        -0.004786738942024948,
        -0.002760877639306482,
        -0.05244738239291734,
        0.00851399689498358,
        0.025207354247129388
      ],
      [
        -0.07042849318038952,
        -0.011229320038638073,
        -0.054788495552190404,
        0.20654969265626694,
        -0.011169695915479767,
        0.1371136084922058,
        -0.017567403903948266,
        0.023284717584843646,
        -0.11731066856439505,
        -0.0410993176577923,
        0.01778152119709984,
        0.14242734853758446,
        0.019934641914644554,
        0.12426175669633334,
        0.055355524916431476,
        0.14279518301661814
      ],
      [
        -0.005302147635702478,
        0.21464833592893695,
        -0.04358986581352039,
        -0.0687965418469149,
        -0.11177758866832346,
        0.2076798599222594,
        0.07358856438757252,
        -0.030004927616088917,
        0.11351687737832426,
        0.060805567592134166,
        0.1754384087897707,
        -0.1389994917056052,
        -0.023830041199819695,
        -0.04153564642844654,
        -0.17942558436192996,
        0.0918704224007833
      ],
      [
        -0.02428232753603094,
        0.06642084298001949,
        0.21191377548978838,
        -0.03168845721525602,
        -0.04093228922475184,
        0.009004021860251215,
        0.08865742950385967,
        -0.0508923320366684,
        -0.05531069608691245,
        0.09398738537795125,
        0.032877764688566805,
        -0.18362201861983182,
        -0.11004343212239118,
        0.1348149603680562,
        0.033910577576496966,
        -0.0717969867288102
      ],
      [
        -0.015303238977984078,
        0.0011886883081867869,
        0.0660708061921464,
        -0.12194189086814354,
        -0.07863109691997607,
        0.022859815234826462,
        -0.008965409991300863,
        0.05135447060712545,
        -0.10906169570026848,
        0.031120088169434613,
        0.09690205245288024,
        0.0437175960964914,
        0.012492603017675411,
        -0.008610601699138225,
        -0.0771554944817031,
        -0.009815436000373594
      ],
      [
        0.1131249250857407,
        -0.010689075438855732,
        -0.0799067571257752,
        -0.044171330760134665,
        0.014925254252261367,
        -0.03519488229871313,
        0.043581521364570414,
        0.04695275578107222,
        0.08118437432984364,
        0.12688840077198696,
        0.08830570311344306,
        -0.08389714464075293,
        -0.08113978858446315,
        -0.006804479457290715,
        -0.04270039091325119,
        -0.10557452933053331
      ],
      [
        -0.039665094047594364,
        -0.04261251937912925,
        -0.06033370810790872,
        -0.028324970254255694,
        0.10271637554762264,
        0.016239769125630143,
        0.221975007828733,
        0.01531208712404832,
        -0.02469734744462132,
        -0.0005798698938976452,
        0.021908609257893216,
        0.03908695921802892,
        0.18649418245166707,
        -0.07591201871085501,
        0.07496096560572162,
        0.015306782885315697
      ],
      [
        -0.14108874228399002,
        0.06921079376489878,
        0.1138359562472206,
        -0.07694295068071581,
        -0.0039139199204464665,
        -0.15659372182680456,
        -0.11304415719243026,
        0.09411583441046999,
        -0.040534110692675325,
        -0.10052446031359843,
        0.01948109866085975,
        -0.04691402126485538,
        -0.042281033022761004,
        0.06639343706879806,
        -0.10651038316423123,
        -0.08465396776417608
      ],
      [
        0.01383679176309033,
        0.08705556912752205,
        0.11119007745332357,
        -0.05969054281137863,
        0.08106730172832863,
        -0.07207039188662658,
        0.1639984406576576,
        -0.10181564372485831,
        0.12065224704740356,
        -0.05990520645841111,
        0.17966981841385365,
        0.05310216905012156,
        -0.09124097781427967,
        -0.046898399924117824,
        0.06796849538968537,
        0.09118048774627255
      ],
      [
        -0.006350447604837105,
        0.004010432020219978,
        0.06810211273547905,
        0.011869610909585323,
        -0.11927180036722913,
        -0.0746595577789774,
        0.021114394201136477,
        0.10915354326165123,
        0.14647083370398611,
        0.06905279481557472,
        0.02467442158271376,
        0.06724547207686289,
        -0.05987599391400563,
        -0.01376054644851465,
        -0.07619277131909999,
        -0.11549016840497915
      ],
      [
        0.029953585487826423,
        0.016659586729569284,
        0.0617530160848517,
        0.04907605292853578,
        0.018678463918150378,
        0.048333317014810626,
        -0.0038330551946869186,
        0.03707874187158787,
        -0.06385836435657406,
        0.03224955850512032,
        0.05890062975291045,
        -0.06013916757531499,
        0.004654659897145966,
        -0.05600115854331797,
        -0.049465344884687804,
        -0.10437140982100199
      ],
      [
        0.1136699438662288,
        0.09570135383552528,
        0.0482629848539573,
        0.177142187567045,
        -0.020106400144660794,
        0.2706079669584189,
        -0.020432744683143357,
        0.02291703950868217,
        -0.034370183163211936,
        0.03248480862082775,
        0.07391538538054007,
        -0.010229994090049972,
        0.1595541523792628,
        0.021476239748039937,
        0.0221066569718359,
        -0.08498017426243734
      ],
      [
        0.0375823263412738,
        -0.01203599973663768,
        -0.05462154014615361,
        -0.06803137874346991,
        0.23803637113491694,
        -0.024909029700754724,
        -0.13084115327401366,
        -0.06270213807842218,
        -0.003656078260072027,
        0.05006455575053858,
        0.047528700672303206,
        0.06076178046376689,
        -0.05791016506933813,
        0.030572454338612134,
        -0.07980135806525736,
        -0.0585161309461509
      ],
      [
        -0.08241269876890049,
        -0.10672046957768765,
        0.0955688333330512,
        0.06252378032136864,
        0.08763796465282955,
        0.003414837439680834,
        0.06975939068569934,
        -0.15816845773869143,
        0.07878549275330958,
        0.015571760942231035,
        0.056478461443430196,
        0.034127099701418785,
        -0.08864016957384126,
        -0.1345279431536155,
        -0.06448643745025201,
        0.0499497684417905
      ],
      [
        0.061972038524330704,
        -0.12284484294218188,
        -0.08810532410620325,
        -0.06109602294260394,
        -0.03227846557421333,
        -0.12273827538141878,
        -0.1277040184776536,
        -0.0738029883137714,
        0.012592674339653422,
        -0.10584600097823531,
        -0.011469949914624206,
        0.09506084912722194,
        -0.11690327145524461,
