{"saved_at": "2026-04-15T02:39:48", "mode": "heading_drive", "model_mode": "heading", "input_dim": 68, "output_dim": 2, "memory_steps": 5, "whisker_dim": 11, "input_layout": ["t-4.whiskers", "t-4.heading_to_target", "t-4.action.drive_speed", "t-4.action.rotation_rate", "t-3.whiskers", "t-3.heading_to_target", "t-3.action.drive_speed", "t-3.action.rotation_rate", "t-2.whiskers", "t-2.heading_to_target", "t-2.action.drive_speed", "t-2.action.rotation_rate", "t-1.whiskers", "t-1.heading_to_target", "t-1.action.drive_speed", "t-1.action.rotation_rate", "t+0.whiskers", "t+0.heading_to_target"], "output_layout": ["drive_speed", "rotation_rate"], "history_includes_drive": true, "hidden_layers": 2, "hidden_width": 128, "activation": "relu", "weights": [[[0.05072975739787281, -0.16751738395427546, 0.1309205974920919, 0.15720975525364875, -0.3326831976037332, -0.21500679627487954, 0.02430467104346133, -0.05486394461923493, 0.0006593840829452937, -0.14261885541848046, 0.15705140793274677, 0.12125649648182756, 0.017814223550332936, 0.1854079679078098, 0.07618295921650929, -0.15723812806392587, 0.04436415347042921, -0.1739565339428088, 0.14586643209671976, -0.012964883056839183, -0.021250000526254163, -0.13621071870494272, 0.19496000578108133, -0.02150386327714063, -0.06312632333591692, -0.0655264347667645, 0.09176420662492331, 0.05966238034166237, 0.06785939676681016, 0.08917397199255153, 0.3739106652974366, -0.06168567236502985, -0.10136710245027065, -0.13635315426771288, 0.10831537988429667, 0.18461504097679912, -0.00760252855614228, -0.14110907471779174, -0.13447631394656379, 0.12272645189670069, 0.13395588269838302, 0.10509358197774926, -0.11361270240331342, 0.04106978114004691, 0.015469836982888448, 0.045544758329195134, 0.14877314626757834, 0.029089350432659845, 0.12361236036092128, 0.010664091941755915, 0.05256224637038385, 0.11072838404339534, -0.25607905172211237, -0.049315336316775274, -0.09209116936774094, -0.10698150826407148, -0.06464202361557805, 0.26185800446268664, -0.15327259680228017, 0.1806917599756243, -0.2771029105297911, -0.058995987634901007, 0.02198950493353417, 0.10499747261242127, 0.11261644039750861, 0.14399920693662954, -0.05915189368970096, -0.0808202924256503, 0.1493677903572403, -0.029179261743156684, -0.2210271847317932, -0.17643770079587506, -0.16282201180944822, 0.0806895197111139, 0.025299601419007528, 0.12222571784090729, -0.06306968045528641, 0.0248439750579589, 0.10954898613503428, -0.03963994317101081, 0.09165509625058514, -0.10787670171479531, -0.05983852871242014, -0.06520036053719572, -0.2010551117801803, 0.08685727838151945, -0.0793545861575825, 0.007076841865755998, 0.0905212915588785, 0.09111001776638974, 0.10813160910389828, -0.014954339261089774, -0.0771829579351531, -0.0136673968972583, -0.29127211013551335, -0.2640457125692574, -0.21812058919945726, -0.16986024229420524, 0.06616104707595788, -0.15651307261707015, -0.05434991197834359, 0.21662553931930725, -0.062363128260342154, 0.12599398758197058, -0.16106136579644034, -0.020803363468026633, -0.15899632715154463, -0.040443407963882544, 0.1490382607678448, -0.2916536334466027, 0.07560613202979387, 0.04542941166246484, -0.09630670725412477, -0.2448142028431347, 0.03287225783620275, -0.10847736967156225, 0.04396599454305529, 0.006642529850616665, 0.2743289634268387, -0.047075361477911117, -0.17027136276054422, 0.031351461293915785, 0.043691137933638, 0.23173248784693157, 0.13987714446749575, 0.06281138811677071, 0.24741986892986742, -0.203623663888859], [-0.11050649457838285, -0.15411104650241386, -0.06164252383699302, -0.24116449736828532, 0.11062330893927888, -0.03977177700770641, -0.23827020732697618, -0.1598742592045563, 0.03992930994290267, 0.14567505091811078, 0.34576769596127543, 0.4901827726999891, 0.07422656516415431, -0.19149033407899343, -0.3565028000581451, 0.04503453747890707, -0.15999421008058512, -0.06938888907512365, -0.08576054312161667, -0.029630121026799603, 0.17897651036606307, 0.01117672869770716, -0.042585382910497474, -0.18095059544669, -0.2757550108745005, -0.07336864654496955, -0.020283354936981794, 0.30679061172913585, 0.018790450956821476, 0.16677199259908357, -0.09144092347600935, -0.20565024648441166, -0.1714742299361358, -0.12235525390581448, 0.3566753994610398, -0.14770702471194913, 0.1359134948777262, -0.15833609565673523, 0.17361221340099972, 0.07513279600888349, -0.03397405205251765, 0.0013696096759234077, -0.12391698741328552, 0.07984773009885374, -0.08547768778071173, -0.21380287388040567, -0.20773405517033988, 0.02652289420292192, 0.28571936608099785, 0.028546623948015354, -0.013940996812728257, 0.05571789339568565, 0.209451868420031, 0.04355450186118793, -0.07144707699115488, 0.19015058870992727, 0.05406554234120437, 0.2703760223284329, 0.036823431438074865, -0.20294854164874604, -0.24045715584436592, 0.2808244064015207, 0.29037801052749, -0.02733044173151823, -0.07082296774239508, 0.2443952526234497, -0.18955087618970748, -0.15949375044594935, 0.11636788738092732, -0.06735264938493685, 0.01490644733044093, -0.03759646264034039, 0.022988862994904942, 0.24013474700094745, 0.017737211712723053, 0.10860089013033576, -0.3457867065473635, -0.01985332230686805, -0.14445412748762526, -0.1836133223160014, -0.15720970688945873, -0.05302889547689765, 0.16206384591073675, -0.21576032425135996, 0.0007648189142140179, -0.08136697146160382, -0.05421521403875607, 0.18110654366338977, 0.09840678830256133, 0.23864094650568538, -0.018412865564977576, -0.10610350797179234, -0.03558521069795885, 0.03450712740074376, 0.03038826027427453, -0.20133349172473736, 0.03246295759690756, 0.038586356533796023, 0.42069324737823666, 0.3137283945569301, -0.1342191745207066, -0.06660060807676228, -0.24629424270200173, -0.08195659315296223, 0.06886700505815833, 0.21134115396686556, -0.1353808457173764, -0.1101730059080319, -0.3664243306567417, -0.038508986398646, -0.1748379445304093, -0.0991853184928598, -0.14985359183604907, -0.01040385305570972, -0.28408206805595054, -0.2407850084645013, 0.36023338809536587, -0.21778413134548671, -0.18497340787821925, 0.31361184644603346, 0.49902002194096545, -0.20500509731821545, -0.06180880314124447, 0.06335822521340702, 0.29975369654516276, -0.1730466230663559, -0.053572457977827316, 0.14330807673053175], [0.07117125038329412, -0.06416829331851873, -0.021687573935870664, -0.23971130239634006, -0.03771505530770801, -0.04775791303609109, 0.058103410040140684, -0.08726954386330146, 0.07594152998011344, 0.17395597524267467, 0.03897065794789154, 0.05095127058885974, 0.019800557796200623, -0.022410667175741243, -0.12542687864302882, 0.05450094413947109, -0.029310042059343146, 0.36003699982855925, 0.2796903953031074, 0.06418567291029763, -0.1349926653877792, -0.19658214095689688, 0.192767200233103, 0.05446587618770671, 0.08171729057789318, -0.29282816980905635, 0.16810710458455688, 0.07738415885555534, -0.1752361591481333, -0.08121534596814231, 0.04432920818848854, 0.008934550030980233, -0.05896984302698362, -0.015606084639641606, -0.039562957616257916, 0.017431768941133775, 0.2416344774317519, -0.43929271881384724, -0.02936107033362218, 0.01998799394505508, 0.0562732492191522, -0.05807536013293753, -0.30880744178606917, 0.0583841679183304, 0.29501617997768126, -0.2612826348378947, 0.15523399416355768, -0.056937951082719575, -0.0028801028050677527, -0.18691719328452425, -0.0624794395734907, 0.2214180399342779, 0.08736822619286705, 0.29965168906580136, 0.19278112155253918, 0.07453135390700433, 0.27720140220862616, 0.07330062471336476, 0.15040020631825574, -0.05140961002609865, 0.01503913620074013, -0.13031738364577147, 0.16644167279630498, -0.20156897037506888, 0.12572373819225427, -0.02601783031123294, 0.20020967901749118, 0.12875115639006596, 0.3131324751349463, 0.13370695868199456, -0.2563038504611042, -0.015964921612072764, -0.21875242190089836, -0.08886907776580069, 0.25450846987166337, 0.1119642732469593, -0.11161694743461731, -0.1696934562359078, 0.004362604460660839, -0.19496166605243345, -0.10700788414232833, 0.056325881150446684, 0.19952768100824514, 0.10128651927357264, -0.38984216319256604, 0.05546390310672554, 0.010998597811659804, 0.07354457308527147, 0.2845917580468259, -0.3481505559006835, -0.1001178038929683, 0.10469546263792405, -0.2686237165844564, 0.2488927344342812, 0.052793753564746616, 0.1356079535883141, -0.08119528019016503, 0.13710177740525753, 0.1812264500283426, 0.03543340252766311, 0.05425237525789105, 0.029552792011873545, -0.14357792143579243, -0.01274573054212808, -0.014515663024946413, 0.06974873276912358, 0.16158672460559473, -0.1663835745368109, -0.022040900049460913, 0.23585448882498827, -0.13396734902490662, -0.14193238431934482, 0.03469019179358403, 0.13860351947217225, 0.015124302204264597, 0.22074578081867172, 0.14057398266772425, 0.14988693838189485, 0.09125424648873005, 0.39096951949929504, -0.036209345183192264, -0.3430064821735307, 0.27363919650974816, -0.07551292806910097, 0.009479825379213803, 0.22384250957316465, -0.29513587553225284, -0.2074452785274018], [-0.277962442183035, -0.12797411902678824, 0.08016761665244647, 0.08722682771515299, 0.05129647107928228, -0.2425149031783614, -0.3880391923527018, 0.010871221951150931, -0.08692439298999487, 0.06771235001640365, 0.12667651416586595, 0.013901246754206804, 0.14060768894103318, 0.021483963218583677, 0.09180125097595786, -0.11622354324103334, -0.04531313037788085, 0.02820300639241653, 0.15178694100871074, -0.06984377416287488, 0.09512539633181928, -0.05148062611149921, -0.03633892763653999, 0.14836317768176804, -0.34010817194994286, -0.21135786887663188, -0.25522834920157866, -0.4013612259076528, -0.11370845220266856, 0.13471753374363088, -0.04858319743218037, 0.03126608298998507, 0.17239958824731985, 0.2391898230922042, -0.005138312847954177, 0.225432701563634, 0.0239863220532668, -0.14457436947212454, -0.09147850316527374, -0.2557257559964819, -0.1519605706143452, -0.04680861597364489, 0.1319938365893142, 0.29770518880187447, -0.23244775006200782, 0.06314478513554561, -0.1758231757703219, 0.08095252494741742, -0.018306465594218613, -0.31468702351412653, 0.155090833103257, -0.10729013802854734, -0.09618158806746296, -0.17650933284932088, -0.11633078552837024, 0.0722682533052405, -0.04076042834044504, 0.0518819249791947, 0.06642219061661582, 0.2200351702632945, -0.060453401180567606, -0.2581692546495638, 0.182221403116837, -0.056344884694112154, 0.1917684411555623, 0.05390804744512463, -0.023950639164210644, 0.048381415893362395, 0.34443840076431187, 0.3742358674254011, 0.019589996812810893, 0.02388898941865919, 0.1694913512266058, -0.1431826265747356, 0.04911626502965675, -0.001559253007768552, 0.06326419275588294, -0.13726408830046372, -0.27756308929389856, -0.3341290302795712, -0.18162890211019864, -0.07691756363585157, -0.05253664362307222, 0.33104219864657575, 0.1871931246590773, -0.1596851255405628, 0.052388764424901604, -0.06806239145137254, -0.053487003248564646, 0.04053093940419428, 0.10339966575530526, -0.05409086724940082, 0.18615790255027073, -0.1966469072782209, -0.0018352268903889832, 0.434933526379014, 0.04841030362719124, 0.2483939782016365, 0.006128297334479439, 0.0991740748886425, -0.002703765310115949, -0.04022616506778502, -0.13386027544033494, 0.08253541676582929, -0.14516818526927977, 0.12567075175092113, 0.18309770521510332, 0.07096080481949521, -0.05291865861623997, 0.0679224632061061, -0.0433164199680639, 0.15493685727822118, -0.31446572407889306, -0.053461517444958466, -0.3202563306895598, -0.2658480867069767, 0.22746740796592924, 0.15640018531904654, -0.12332023967701512, -0.2539674577452587, -0.505198683736931, -0.09258506550028135, 0.4148356872990067, 0.07511640488567393, -0.10070152939513921, 0.0788201915456404, -0.2652957748148492, -0.047545124622167804], [0.01536298301797438, -0.0001098345043211061, 0.14053895058344562, 0.05877699702564309, 0.11711507751745621, -0.12088425302053651, 0.15694928535264455, 0.280851985256462, -0.1671495953084776, -0.15545150824594853, 0.22957421591857533, -0.04583648212277543, 0.24908974825508814, -0.09651039026751071, 0.2427234648836445, 0.019906829852275425, 0.030794756937448042, 0.2676011873313656, -0.061680695797476696, -0.16847106191587902, -0.07033555982940835, 0.06416600853556403, -0.28236638096256267, 0.11311522111172113, -0.0897950136895634, 0.20224204442025476, -0.4130182594912932, -0.134935603028545, -0.28707340787808755, -0.14614017190178574, 0.041071125857885325, -0.029664129357589997, -0.0556201501671196, -0.025122941897524405, 0.03766056008913026, -0.17789472262349712, 0.12843112696541512, 0.11122132590599366, 0.07820693340346706, 0.09718336374883753, 0.050410082763443095, 0.34905372435949183, -0.016942268538556644, -0.04587317431155052, -0.13514789474345287, -0.17747067315710446, -0.2168755283976229, -0.15610096256350328, -0.0024701226564056602, 0.05637514194694092, 0.01592035731385454, -0.12774424564409675, 0.14893095329067316, 0.12693719296385383, -0.034619832046389465, -0.11058373273603588, 0.08001871530575617, 0.033898213887474646, -0.23817933250938111, -0.0007723123183722178, 0.04358830994427939, -0.1654080577521622, 0.024177099042005813, -0.24619234363032513, 0.20741145315400117, 0.2171854411002718, -0.05624598740191275, 0.0625463675943753, -0.40663679713317163, -0.19987295772578262, -0.04684578079539346, -0.17466209792666848, 0.10713610465596238, 0.33603842553735935, -0.19845011031269313, -0.14490085466400926, 0.04728828010984823, 0.2664525705126758, -0.2156144447130777, 0.05071681165456596, 0.3169919529392582, -0.2681997295602718, -0.2169087284773609, -0.07465319962506331, -0.08891401529781456, 0.14539330953911356, 0.03759821906711119, -0.30473756878233593, 0.08979933397156599, -0.08398610490665676, 0.2175836592141751, -0.10176055856976973, -0.11584995029936007, 0.097974844422652, 0.1233440678100746, 0.06990135882907086, -0.28147230258514716, 0.09771610190190999, -0.18579997642405563, 0.040044711719912675, -0.24092211055413085, 0.06838614046095973, -0.13715661196555562, -0.21567505624324548, 0.12450843804281704, 0.045168665372718554, -0.10964440638991112, 0.26016406898092537, -0.08343721032419703, -0.00581461784623527, 0.04711993276180471, -0.10509185003165078, 0.0828438744792442, -0.09204744531451776, -0.06436937401761691, 0.22619568819953065, -0.18333189513208806, -0.4066002898599617, 0.2755259764981174, 0.435504583028922, -0.0637966301616806, -0.3319566410620588, -0.057649995664085414, -0.04899564158668779, -0.035972567471320466, -0.1904769342272226, 0.09844144917966677, 0.10013229390773333], [-0.25856337770135274, 0.13307396235982102, 0.3473943134036029, 0.026147074189993926, -0.056545215849614784, -0.02007428311055934, 0.11125177075321163, -0.2906750110831412, 0.02497230601528846, -0.07454272381640212, 0.31836826940642005, -0.04227346743494024, 0.29611900376256595, -0.20913145535643501, 0.09097320513341604, 0.050499651016172244, -0.16235071322717903, 0.02076220852220577, 0.20252478292029455, -0.060776397877607816, -0.2936849248804421, -0.02082837447235664, -0.16900945529812236, -0.052482032489866236, -0.005604856847777198, -0.2842155909959537, -0.2829987492371179, 0.08303714843427343, -0.08805956457562647, -0.44064182209205155, 0.1294428319301203, 0.04114836552881368, -0.1314414032096832, -0.217801459514317, 0.1488042864291862, 0.052977089707849874, 0.4198649368779377, 0.0740937376201728, 0.07362024441535318, -0.02883485429359006, 0.13944465626347308, 0.11303887499506955, 0.21195453297590633, -0.08495829404828782, -0.08413639655989213, -0.08113096184493218, 0.13925954621508294, 0.25657778700468253, -0.06656566069017415, -0.06918208616946768, 0.05229683745525954, -0.04056556864385792, 0.15706164485334273, -0.38454765133405, -0.14576115792742386, -0.1298774631882197, -0.41092154105565437, -0.1655483272944644, -0.1474271834970357, -0.027100484375472807, 0.19756690915041947, -0.04988334700049567, -0.17756376627538098, -0.005777675859832109, 0.16355379029092448, -0.176893140472618, -0.16633405854885833, 0.09365903478239332, -0.03187997602013332, 0.11105327040683251, -0.0034439479393993336, 0.129412731947494, -0.1887861134849503, -0.008170811790987838, -0.027894403979332884, -0.20808404088864021, -0.25715107455088065, 0.11767496709930474, -0.06144155779145569, -0.16781938487522038, -0.01436657235337944, 0.19524679071612355, -0.38415619631921316, -0.25310488267348874, -0.15471360040934465, 0.25976729625017886, 0.04837878887182425, 0.1340137667299005, -0.19502390529963032, -0.18662275814993562, 0.07504845923220838, 0.010898284913970319, 0.08689012498279107, -0.03465930329475327, 0.042098613536227986, 0.01907536505799783, 0.13705225276087027, 0.1434799722346286, -0.28439369060002656, -0.39277299110087915, 0.17841464058182752, 0.1925760998262931, -0.16911895415517753, -0.3090770415234484, 0.012729826206769223, 0.16820268361242702, 0.3087068140761985, 0.10350465611373531, -0.07174268278789506, -0.16236093006807692, 0.008120375885964728, -0.04893463748869157, -0.1668441722467813, 0.35038654635490163, 0.32447598808398137, 0.18225295384419535, -0.16329963369284992, 0.1446131940192281, 0.11129507995359739, 0.07797811244575274, 0.2195412417395075, 0.10678224794578293, 0.12564565360035954, 0.1104661293573172, 0.05597081179234518, -0.3056667269501426, 0.012597681137498403, -0.08007644849697833], [-0.21908061480488655, 0.2992969022289621, 0.30285958012181186, 0.2340162612216216, 0.049076858062023346, 0.23084709364341363, 0.007389995039820949, 0.050043336593863244, -0.1993222589464717, 0.06181683130634213, 0.015335164346142533, -0.23096475247342257, -0.00040585646245286757, -0.039814584022211746, 0.31322280814502, 0.15371964176665465, -0.015411942279158496, 0.041715204850782416, 0.025618812631004264, -0.0396891030516062, -0.19178000478755933, -0.04035813681112477, -0.1488694389603729, -0.20883609661643895, 0.08600680052876383, 0.07465858865587177, -0.3026416718503198, -0.02293965761521816, 0.17756040356419706, 0.19167712648511154, 0.16411519174942973, 0.006437441167523985, -0.15677331985965604, -0.17549845937790312, 0.05750041069373807, 0.05342240412483264, 0.20628581013280722, 0.1870086529381049, -0.013551059241255997, -0.21681121814477683, -0.06294117876447725, 0.03926638931022732, -0.046659445960810425, -0.092665469969047, 0.0384557520823004, -0.08999532025928043, -0.09402784174549324, 0.05825360289790052, -0.05998597155552868, 0.040883206587090576, 0.052527048783778445, -0.19064703355534807, -0.09688582050079919, 0.25491401071496195, -0.20188436769085003, -0.35786262406173, -0.3369169745685479, 0.005625713423326586, 0.003758090920593955, -0.02023056936163492, 0.20525730303123538, -0.47035508425466005, 0.06352423480097578, 0.26893836778547614, -0.1894920259823548, -0.06475354017316741, -0.12956294590723363, -0.16364037755478963, -0.04458481715146641, 0.250731650708871, 0.3263413904357189, -0.04922133723787302, 0.29839009513452447, 0.013531048098395913, 0.29454430502676904, -0.013725770554698884, 0.03180589986544629, 0.07228050944588216, 0.5408106750590745, 0.16688933593619218, -0.1194555819068233, 0.1634847415023073, -0.0605712155592109, -0.08253927639291858, 0.1550923514321072, 0.02499189989635419, 0.04480656573986992, 0.005786911000843761, 0.07178204498724865, 0.08497176831544317, -0.33315875927724886, 0.12362583733450304, -0.1611697044898799, -0.24625983355136932, -0.01686324955662685, 0.012737368767345656, -0.10015976632399545, 0.14413011405430504, -0.23820631954356478, -0.07636784958978517, -0.09609742731977802, -0.02670294129376768, 0.053220291766237916, -0.15950332184169017, 0.1237891865033459, 0.013455024353286656, -0.3393207744964316, -0.32738807774997813, -0.0033369885782823052, -0.048975666816343764, -0.008201478358593337, -0.016599808996456685, 0.04197262056069756, 0.16697694549949024, -0.18763319392595396, -0.20768240182019204, -0.19326493419310936, 0.058496715342412985, 0.20839163604922636, -0.07309311137538443, -0.4317853114929896, -0.30628079390176466, -0.13729465436355148, -0.09217458835170844, -0.06730428523724417, 0.00023978035580791377, -0.053128527510502906, 0.18853034639066152], [-0.114797165925223, -0.124366901353808, 0.07870993167154935, -0.27196465922606616, 0.06404879637118566, 0.015494287760497383, -0.018411691907161524, 0.279183112118128, -0.12112844449697974, 0.34421430376939943, -0.03858265367825577, -0.2291331766253101, 0.017667027343264807, -0.2055647259696952, -0.13136610426754702, 0.062138661502674435, 0.07458886348652304, -0.10217143852845785, 0.17050544487510305, 0.19606683542687767, 0.2404854525381157, 0.0706647976194539, 0.21692416225764516, -0.31906287134755673, -0.046764703404915155, -0.1420346733611043, 0.020764602979771788, -0.09081062566324195, -0.02399313762513945, 0.31909348842496693, -0.029126886048256615, 0.06688039324598667, -0.04566447361982166, 0.01813801836533271, 0.004781726794218976, 0.07033991242577327, 0.2190256431378644, 0.28103440042425465, 0.06043506498906525, 0.10870339595848993, -0.19697008109699624, 0.009353074604655008, 0.15238652600177316, 0.15145556482668063, 0.02733538796392167, 0.14638965302679047, 0.10355398786169122, 0.20592462127486938, 0.05965865113196309, -0.05876620022783531, 0.06851720606021203, -0.4999319149053021, 0.06072696353941676, -0.6230599465835511, -0.29575686296402653, 0.0856025466291279, 0.06938640048081941, -0.20291825756294693, -0.10922611533027705, 0.24220028224329335, -0.08331909504614732, 0.38407434619923037, -0.0029683563489761138, 0.07490330968076271, 0.2711999641583996, 0.008306773605322886, -0.1799957105283662, -0.02790109316476012, -0.0004448012092724375, -0.22693040608909612, -0.038378298326039284, -0.1372743075728192, 0.1441982938478404, 0.00556429278790275, -0.04901512857232776, -0.02168335634517454, 0.04131937532508317, 0.10606720701645392, -0.17283505077826403, -0.1640845234464126, 0.19130615282267088, -0.0706282019841219, -0.23861538385115877, 0.0768962499624761, 0.07836764626697336, -0.265380810741885, 0.038977361917156166, 0.12972394437932494, 0.06037473679145249, 0.11520659627735233, -0.2460168563278269, 0.0598700795560955, -0.0546969065313561, -0.09143251629960075, 0.13767017207211354, 0.2319934336390639, 0.31766026432348776, 0.23615739176315734, -0.02399019550407539, 0.05498707067783378, 0.13816726138939098, 0.009543382990888097, 0.024844203006448504, 0.15118909422603719, -0.010264789524097208, -0.11671849237148299, -0.07661685501835526, 0.10686322852931643, -0.004605255870152215, 0.05950174668658757, 0.1163454889796185, -0.06657558481803011, 0.1293996913581234, 0.0663652181530351, -0.1965761074223283, 0.2409324670720742, -0.08883496305041962, -0.28902341834474915, -0.18158466012866184, -0.17853464863387447, 0.014172764710520744, -0.05210532005591834, -0.061612535654920475, 0.11032928196527222, 0.056417902563624285, 0.056340862143341684, 0.07461283836664749, 0.11723272331158151], [-0.36967845542821254, -0.05456692377600163, -0.37683652766463804, 0.005054569289389752, -4.686480050214443e-05, 0.1786020793866986, 0.21341770414280573, 0.02825078272234159, -0.08769153468729249, 0.07572022958020816, -0.08949460867193208, -0.013642358174966208, 0.17858677575146634, -0.11390907870306632, 0.13528236647746109, 0.11158191095315999, -0.1766273906870903, 0.15527196410208102, 0.1289896453934373, 0.019150831005840512, -0.13010187510723364, -0.16111585559488953, -0.10730311787685957, 0.09905127922254862, -0.158544253339933, 0.08111852362115136, -0.208663025778392, -0.02935644681422419, 0.02525559431442482, 0.431251246471523, -0.23734020605455305, 0.2559565508804829, 0.014362209141672366, 0.06560404691770531, 0.02563301890587295, 0.0713612576017735, -0.027996587108933987, 0.24784621863139047, -0.06989764199874597, 0.19735405313315166, -0.10356503761857286, -0.009965842788408518, -0.1825695413363657, 0.07728725297525366, 0.2485235269441452, -0.014262862624267488, -0.02303417434095247, -0.19461665652220053, -0.033771713179841234, -0.2746099822213148, -0.15224075128449485, 0.03778054711775757, 0.22218134936845763, 0.4861121816947247, -0.1080754565991919, 0.24993723426568307, 0.02481485004206109, -0.021865934190116395, 0.0837015847987807, 0.02479754260965053, 0.020343333878328217, -0.07603612855543043, -0.24435797038293613, -0.25983239359759464, 0.10917443918198676, -0.04669162937828944, -0.10633491970501575, 0.001825570548052603, 0.13258581727061453, 0.03150698188190495, -0.10525166572052017, 0.2094706381080308, 0.24387045194060006, 0.0742788261315519, 0.16323455174808074, 0.21212378413471514, 0.2030884745833932, 0.10094509851326458, 0.09745972406352059, 0.10661150182287853, -0.18092767808380714, 0.12146864771836412, -0.2287824784034597, -0.1370523209995759, 0.22987368655165433, 0.15454012991303037, 0.25477002628964146, -0.04504165633625396, -0.18945639200551767, -0.03638134925076844, 0.00945503967964284, 0.01671820203890231, 0.1941081300714288, -0.06724222220686427, 0.05299797558595418, -0.17525082502687844, 0.0861589530232142, 0.004562319462229019, -0.1315141240407823, -0.04214246868002154, -0.025156988646908532, -0.0568103346503054, 0.30701177193232587, -0.011654421049190034, -0.04099841925128978, -0.3577318863985279, -0.15722995144468657, -0.04072755535605546, -0.1234459791753326, 0.23098138462663265, -0.037432831261621564, 0.22027702352339684, 0.012215440717097268, -1.0436232315446631e-05, -0.0035563392347539666, -0.005357101846983943, 0.28769538153657986, -0.3874588386128509, -0.345633215882013, -0.09520204929345107, 0.006240765067035439, 0.11707659720536354, 0.08360950566199382, -0.06590940966786772, 0.16956562382407264, 0.18113910347636233, 0.02475973347787472, 0.1756736609611883], [0.04988821118544844, -0.09412876369447004, 0.11728266982873937, 0.014528418990355306, 0.0040067561716740155, 0.25431274809402515, -0.40040775766045356, -0.24269298929169925, -0.20123701808802955, -0.0665262975975316, -0.03774590480378055, -0.270811451180981, -0.16413100754320434, -0.16232621907048916, 0.4255760774557674, 0.3015466468547369, -0.08355087978808864, -0.06523588646850831, -0.19245590061795195, -0.3184540829319896, -0.020914491783749108, -0.1864539025726495, -0.026945602771617335, -0.263354313074076, -0.12340403496337657, 0.029363151069343903, 0.061219271283221854, 0.07382848019646612, -0.22375160387705043, 0.16161601415532056, -0.13776695835889238, 0.10844695135982432, -0.016408410555055392, -0.23490578578080154, -0.05353650860075732, 0.05610164120740811, 0.09716401605882678, -0.023831578445626618, 0.27357374203589746, 0.17260640023789392, -0.04502259460182797, 0.12391668660929482, 0.32616590041983795, 0.3340766055070016, -0.21699058959515993, -0.15103919343138447, 0.265962265111075, -0.18677958013577547, -0.22075512688639717, -0.08921088834830296, 0.06934892878167428, -0.02314748004325177, -0.12054125659332085, -0.10987209816488404, -0.13811874686806758, -0.1509572275065689, 0.36294801018004696, 0.05598515364384929, 0.15596085134257465, -0.07568811056230466, -0.034994884378221354, -0.1307698310216381, -0.4565682459978137, -0.2288849603596156, -0.3150980433378331, -0.3788775057671934, -0.20308097650270027, 0.2225510564225193, -0.012146348373262231, 0.22095784045493658, 0.08307958468416193, 0.12662873622481902, -0.17168904119862682, 0.0898854376087551, 0.11160202290311966, -0.0942900665563017, 0.10143145140695446, 0.09642110016424563, -0.09492966707837043, -0.18197298477851095, -0.19147976942635353, 0.01755084806733426, 0.05965091098299937, -0.13909523930984413, 0.0008098379594951463, 0.10609844251792931, 0.10580505909285491, 0.26742599134357575, 0.22326535507996478, -0.16933388788071554, 0.29151215947023773, -0.0854871212718386, 0.17933747923172283, 0.018290563551067018, -0.07486742300099397, -0.315242416228839, -0.01796126385297126, -0.26682195683126797, 0.15976268392480053, 0.25332927389087045, -0.12813332130958524, 0.03181600786480946, -0.12022094999932964, -0.10929828141601887, 0.14129615878390897, -0.009548270134148567, 0.29167589898845137, -0.06712959439563472, 0.16786384558659043, 0.009690889312294537, 0.13997522888762545, -0.0807343499558392, -0.005465243513054515, -0.020236355258634996, -0.14035832716802693, 0.10137085978922711, 0.11021701039755771, 0.10632076829770071, 0.26096119855738087, 0.249856293881082, -0.06469788441844568, 0.061002485742634574, -0.09991466127320521, 0.005006980241523853, -0.10894724876618725, 0.2742052871445503, 0.058339868284854865, -0.03704556932888262], [0.2079909054814656, -0.35878891184205536, -0.3546586554072286, 0.13312526035344519, 0.0036576043739213722, 0.053389888989407996, -0.2307422180504118, -0.017727158581130126, 0.33321207815269843, 0.13699598237771216, 0.02736364469082915, -0.09293500469569119, -0.05797575601190426, -0.3725523314616151, 0.028786904780678038, 0.13529066957276992, -0.2806700445663413, -0.12221758158624879, -0.20610172502217103, -0.17866853867749705, 0.016530612844850603, -0.3742386891553083, 0.09349239569271486, 0.13102276732881044, -0.03719886449151636, -0.4247215549119013, -0.17175397438398632, 0.21661351572095114, -0.4813122647010193, -0.06328622290582038, -0.1993906134563674, 0.14223234144128538, -0.12256165142982389, 0.0624410362166619, 0.09850852843229076, 0.3152980103088748, -0.0032639830771967293, 0.06769194993597243, -0.24460377332393013, 0.21014305325628577, -0.1306867594127199, -0.09033760194872378, -0.0038661914968572512, -0.2552558680168366, 0.027886481048734684, 0.16491781465911812, 0.060223110817763055, -0.2807424137646905, -0.009160539425985112, 0.12668026595371917, -0.31498357079996625, -0.1916348577272038, 0.1491222720007031, 0.052712409821055406, 0.06575419225773065, 0.31936424817118636, 0.06455764597559983, 0.10953655797611817, 0.47279306218062683, -0.02493209316282147, -0.13740932089122854, 0.08039716117079512, 0.0671268359281193, -0.0894882608960474, -0.19306917418933617, 0.39169599540491645, 0.048763023962124105, -0.12368953550214319, 0.16041675757513432, -0.01694693416921606, -0.04520558580234116, 0.10876426813740726, -0.21027186209064586, 0.05877606272887599, 0.3256728146652105, 0.07879828519596245, -0.057453567311928064, -0.09008767042154031, -0.06844286888574154, -0.03114591833653741, -0.05391159109066254, 0.16183082532200868, -0.2955057593809239, 0.15134410817344815, -0.06158315113341446, 0.07018650024492028, -0.19286158478182294, 0.23902919175240794, 0.19647361991015397, 0.1681078216957902, -0.2625676411170561, 0.1457206304280779, 0.07669693204586983, -0.28127969101904615, -0.011814513212826906, 0.04227875569429557, 0.09015801839593356, 0.03311995448229471, 0.04248956495342011, 0.25152380013033576, 0.2157302879237243, -0.5008900227888113, -0.049520749425417766, -0.025589822762930474, -0.2981692574236256, 0.02920222343357239, 0.21155659436486188, -0.18299757164969815, 0.052964184913840494, -0.1399969441458145, -0.11924395181272121, 0.26084661526207303, -0.09142095423773397, 0.07063224458917446, -0.29602703923208784, 0.3199160714440459, 0.1055600992895088, -0.027049552333762755, 0.10267262756091271, -0.23702322343381813, 0.204267920569701, -0.04637222975155885, -0.03268208448921503, -0.08122122814820122, -0.0909066186462017, 0.12056625606110614, 0.04132891603889248, 0.10840067501029449], [0.013851595729789142, 0.10311769330148353, -0.08015265920635, 0.3782881622307908, -0.26062936943529236, 0.21385807541878493, 0.24043815231452878, -0.17562834729494003, 0.38145210312924616, 0.1723704288157265, 0.17245180894190137, 0.007232426277301756, -0.03224205405018173, -0.03581046420564926, 0.06975297872993284, 0.2500246391899531, 0.049274457479621926, -0.16078624459466684, 0.12839120178757077, 0.15376437453849612, 0.14570133269954935, 0.13481691094810402, -0.04714504829177921, -0.16011413527733523, -0.15103716048928692, -0.2687482714691047, 0.04805275177258885, -0.008791066138085297, -0.07291381480163621, -0.5104595243670119, -0.1908115413800232, 0.19669613788589804, -0.11633496120242855, 0.039581431255530194, -0.24605960219154993, 0.266289184036399, -0.017624175678213037, 0.05191878137586107, 0.39811203647062804, 0.2542967592775086, -0.05127660015505294, -0.10268484555792852, -0.04635186512883764, 0.09959388076798902, -0.017498848978510884, -0.060739437880808565, 0.2438399591750522, -0.02433610509726021, 0.3821000114043313, 0.017206324962763423, 0.3039539832606608, 0.06568294814143913, 0.1529217051588199, -0.12657275149510153, -0.13497211644489135, 0.0901749143569708, 0.1888372849597706, 0.00845841922123751, -0.21578539364010246, -0.24668167134608684, -0.25842894298313934, -0.30065610649929164, -0.005098664907973389, 0.19152913235594896, -0.006093801336193795, -0.3881360533870828, -0.00876521008574189, -0.015241349975861495, 0.35928915666400096, -0.24463255679659698, -0.07017319323412359, 0.32531789303736713, 0.1266063400917237, 0.10073632952703217, 0.00924478992783303, 0.05891523769993807, 0.13045593899089722, -0.14522202306864804, 0.15298007213529702, -0.25356486724801436, 0.08516231733975174, 0.038159503314190754, -0.11077377921103118, -0.004136001096879912, -0.11659873585835281, -0.18613696755969109, -0.0738580506184918, -0.19326839958296918, 0.05847684867730785, -0.22234197920561938, 0.11863304832201416, -0.20021479019738497, -0.0960220346565202, -0.13012411787612274, 0.23446555803815045, 0.04238532749015662, -0.04098313644680199, 0.0831323859852662, -0.36758837867385175, 0.01368912637184824, 0.328220721502199, 0.019249351259960842, 0.01053833645328251, 0.08447415631417332, 0.15020065482221467, -0.33063092728642596, -0.29621240445766167, 0.03955863020385147, -0.12200136877924404, 0.24659143457887786, -0.07083840397846244, -0.3188161874354598, -0.2398428589505684, -0.4809317261981274, -0.030062831171492832, -0.05458990273779268, -0.07631339799959315, 0.18817192441076683, 0.19730486607994768, -0.0264911322673865, -0.3774121008366646, 0.11252999576548627, 0.1027737574003926, 0.05177720203606153, 0.15647340076595073, -0.21336114193798944, 0.34619496506141934, -0.18158415509767434], [0.13372486668841357, -0.29455832332417997, -0.17110029573079902, 0.24892942879385346, -0.04028493475830641, 0.16093115500128094, 0.04020854254511419, -0.027219200464311026, 0.2212169283586243, -0.07532016627335525, -0.2801423268417328, -0.13650659450005784, 0.080839290041683, 0.06527051918264153, -0.24078406643623057, -0.1485137401538221, -0.10145161540751937, -0.06146431177571297, -0.22722861769424024, -0.09330078284371639, -0.14021689266357906, 0.12083412247762179, 0.11008509628499269, -0.006489225085046512, -0.06670052728514077, 0.03537800856978415, -0.12511966701070165, -0.18736955295954427, -0.16088761869761226, -0.11447252410012544, -0.2011699842561563, 0.03257736111821162, 0.11667931551762367, -0.26188693070312197, 0.004833339849323438, -0.029618980483157892, 0.053536976385613555, -0.008926067243535991, -0.23515343432882732, -0.20463986406545046, -0.005036272155970318, 0.1969093819479276, -0.37482728797310616, 0.07255295747161128, 0.18746468184915646, -0.02547496930329004, 0.1091239039936095, -0.12394306975275868, -0.020990672181542578, -0.29817802801128684, -0.40214191250775017, 0.16492684731889523, -0.17399782656074556, -0.07913599285051943, -0.25455279524095903, -0.2284218161631524, -0.02421519719839608, -0.11253496995499124, 0.06122253045744652, 0.07605948895676364, 0.06151281768198172, 0.03485817563032042, 0.2497454378173218, -0.18530570393820864, 0.009005508104881819, 0.17391999657864948, 0.20677785947453126, -0.24127097147251972, -0.04397360198478775, 0.23115252743032483, 0.10287322511789666, 0.03650619583482056, -0.04856894502402893, -0.05611250556406912, 0.07129025694472091, -0.03640920797518909, -0.0004438331429585317, 0.01652915623820181, -0.12344975020291175, 0.10663383707496234, 0.4928343488901917, -0.30942650524846366, 0.05199656646170265, -0.1418252415080064, 0.1023960577647515, 0.010464780028340318, 0.12974780016402784, 0.20651812305327222, 0.04706181638080867, 0.18230835699893866, -0.4109353603970949, 0.28876912781920666, 0.0651846778914005, 0.1831884330467546, -0.18437063977242607, -0.1399237170764913, 0.001419108386175297, -0.002695140855477034, 0.06316744620144288, 0.16263542608226206, -0.2880359520463246, 0.15973229820752835, 0.005431020283038853, -0.04280198107662243, -0.256285127901834, 0.07862490870799571, -0.4134562862507395, 0.09590399488454475, -0.24197134778467658, 0.05002547514120249, -0.005965763021453093, 0.18321283562853644, -0.027581321705784485, -0.15244909397010967, -0.07937629348786342, 0.2207560630795844, 0.08576038187999509, -0.05518292342319406, -0.05282999759972241, -0.2475975718837958, 0.060644094326056296, -0.3014633790624373, 0.10475234359858332, 0.02213593870117631, 0.416525729426565, -0.18568258331594964, -0.051848855521675286, 0.35353452215593395], [0.20526998674835353, -0.10258377066811586, 0.020765936787216784, -0.003910816691389681, 0.04582463860753548, -0.11755867119977106, -0.03889004082152689, -0.25219037416261386, 0.023516291679933167, 0.08113182245002365, -0.03901699618923584, -0.2687288430492933, 0.17624533040213988, 0.036673027458422054, -0.09495951562414483, -0.03530266483047513, -0.2583862864892737, -0.18156629266352076, -0.08201029945052442, 0.21392162245296345, -0.07007692028472387, 0.1265102937760627, -0.07881112934816768, 0.026858775949648524, -0.019670859879150883, 0.1572078086575231, -0.097842741760772, -0.2810218140569998, -0.23145555388006864, -0.10874712007931431, -0.19994333157275265, 0.06944208019958882, -0.08623872993298021, 0.41461519905001104, -0.2797225719442697, 0.0393492854135421, -0.2090814412173148, -0.07584102261781252, 0.015578108357440869, -0.4040374107439772, 0.03689034192818303, 0.3189587648709099, -0.07713308731377111, 0.05719457461476669, 0.17971682874572967, -0.023063002314873543, -0.11285076760614905, -0.385116277583997, 0.10652673566862264, -0.0024542564642378102, -0.1832575023227258, 0.030036462148271287, -0.12228418881670049, -0.09930190782615156, 0.13201782187543243, -0.22261290576928944, 0.1859823314551153, -0.24267490879562847, -0.1130165704033004, 0.30247830703481265, 0.18804692351240573, -0.002968111248742256, -0.19777038060991287, -0.09255507077940622, 0.012359460134833545, -0.0028049941015126398, -0.02946799233698366, 0.00038118548472595396, -0.021214381485951003, -0.23739362421226204, -0.10574619545146217, 0.14734438507344147, -0.23748852041265311, -0.020207513159626576, -0.10302993976487129, 0.004215641630402974, -0.05982509660566269, 0.268169746072465, 0.09084534574934935, -0.22803497227324476, 0.10784928012409545, -0.13373950842480706, -0.09852659164884588, 0.060311349639434665, -0.09609189370558209, 0.16463671960689213, -0.12144850105222725, -0.08422945936531534, -0.07441849814810943, -0.10057322833440163, 0.1996374123690279, 0.10664622764499762, 0.30834651065526003, 0.36635601215705, -0.16951022583302267, -0.004528499008239621, -0.17605218516726823, -0.11849556229724012, -0.12045238106808479, -0.17113393546735312, -0.16749980499503792, -0.029437749489102893, -0.21429667122814572, 0.152744269588689, -0.14572670580853447, 0.48462017538159025, -0.10842262154230724, 0.01732875670608705, -0.20342186202386126, 0.2716216937121049, 0.20168987264820135, 0.025482899726613727, -0.24071329352672263, 0.04459826705091192, -0.18457207950674995, 0.2500867015690688, 0.11021885046949151, 0.004527186303476892, -0.4100260165287629, -0.1810100078946857, 0.11476260548166656, 0.2084838702390262, 0.20316172753511685, -0.270978051796984, 0.06364299411978712, 0.16790028366857795, -0.24332708391224256, -0.01994673653600664], [0.03951972360722417, -0.06409323319100198, -0.3126746228622442, -0.05720691779680775, -0.06275354374182501, -0.027512826822161135, -0.09573905277267349, -0.06867492478281872, 0.0026646719726041534, 0.0716792485086321, -0.04479764756178197, -0.07688024131332427, 0.022530783698091, -0.3405321963365748, 0.07919613812553435, -0.008876707112142824, -0.0066362192846908955, 0.16856624276061927, -0.33577822568566096, -0.3368960447070906, 0.05978662427867771, -0.0017273020215970505, 0.03623730385641098, -0.06609580738895562, 0.11828728037840164, 0.16303786438159557, 0.09468153038749635, -0.04985877039799867, -0.3625189544002871, 0.1308417855841478, 0.21347044752873365, 0.11677780011339983, -0.16404987248474984, 0.11543965495732421, 0.13697076918651072, 0.2519630337288157, -0.15632425617499643, -0.03457525176593789, 0.13682362979502738, 0.023361110295331465, -0.20082497487049217, 0.0628199459203271, 0.08697882201401742, 0.017305671924144617, 0.033622513822771614, -0.038673946240355146, 0.2517618628081019, -0.15204798782640083, -0.0953211474773185, -0.0007890146584178065, 0.14551763184423597, -0.2507700268868967, -0.23434800115256932, -0.35037648947754146, 0.0061941676364218115, -0.1942602729366803, -0.08909329635941704, 0.11937513805039483, -0.11692882963993782, 0.041179018231195685, -0.04457720187846494, 0.11795784298129872, 0.08702231224386997, -0.12290527425520034, -0.027029495547240014, 0.19011749972750322, 0.0740994530484171, -0.2391130786412732, 0.12264112555229711, -0.18772426806051296, 0.24200639754683465, 0.16882423821618975, 0.021165388102626605, 0.0282692622669289, -0.025771416107637186, 0.11216324137895393, -0.06106859468007748, 0.03777066248273569, 0.15468232907979207, -0.08105214768015355, -0.10155153663033184, -0.19232075869145127, -0.1780423912913814, -0.30463568677283986, 0.1227580149266334, 0.304187546422673, 0.251762740000895, -0.2629699693008456, 0.12163615017478463, 0.24929378062647609, -0.0731532522306814, 0.02196217492616283, -0.35563697733082583, 0.04839711678943144, -0.18167177425278264, 0.017623142415651296, -0.26179749910307926, 0.09548283368195175, 0.1723746722293632, -0.1488182586423427, -0.17781373003500667, -0.375694900874437, -0.04498602125443876, -0.09543566152447942, -0.2628028501538765, 0.08127629542908059, -0.06698449950470234, -0.17563557962982634, -0.08764926303683565, 0.18345642189498368, 0.10299659066395232, -0.018792950896315896, 0.11440957736099484, -0.18428546297069004, 0.014185802772973976, 0.0058843476977364015, -0.07292730895284846, 0.0792084189968322, -0.13364082581787964, 0.09076782019493582, 0.0992344061907296, -0.5048075187272782, 0.21139611310186995, -0.5164029596026641, -0.10706571439542419, 0.16849754900517158, -0.0676147130133194, -0.23766931888952766], [-0.19175387638706867, 0.180886864230427, -0.3287477606211101, 0.19537186673045642, -0.012928217234349537, -0.20862312358130217, -0.08924256582593708, -0.17509620209496563, 0.1550108394961092, 0.1227531045927089, -0.292685214112522, -0.0709497464186973, -0.14308275184927477, 0.19806796900895213, -0.23936989031957562, 0.26694912196175763, -0.013945665583638566, -0.19453233575997173, -0.1298945708983055, -0.1341062721416696, -0.23421010784068294, 0.02221174706378033, -0.20848918147456555, -0.35841929936947753, -0.06697707531614933, -0.3036695634363551, -0.11184951433658565, -0.1514732225759506, -0.14316861070600834, 0.345794955768688, 0.0017834103228057676, 0.04252047616004531, -0.3158078657350869, -0.1158130983392612, 0.03405821224827816, -0.17927294547726075, 0.14359032493971982, -0.21255394582733345, -0.038179697850400776, -0.0976984459463003, 0.03281324699746018, -0.11864316686237811, -0.05348483615132475, -0.039859298753588464, -0.12120319457052997, 0.08689909515514686, 0.04147993339966763, -0.017357244364585852, -0.05836961375999013, 0.12743190439354135, -0.03445743486842697, -0.05395648884384851, -0.0035992340781634134, 0.28978446305230315, -0.23739360926364078, 0.12654980649973718, -0.33681429545042413, 0.04365800182106386, 0.2751985341690864, 0.07315952395228985, 0.03322487117722091, -0.1074870567595174, 0.009253322912401994, -0.04979672089429683, -0.14664428261537368, -0.03432760077449423, 0.032401739081833074, -0.12694393401263418, -0.13873028618197378, -0.2327396533204107, 0.07098043642822785, 0.09956286299433957, 0.03165515874418925, 0.16755901105656587, 0.016911093578678753, 0.06937254209063413, 0.05897082504669937, -0.016080306800919833, -0.08854461451780399, 0.3857907093282841, -0.07458289366473073, -0.11219401514237722, 0.076507764847642, 0.05022338984968039, -0.23349833856414398, 0.19016292565166817, -0.01191483437198241, -0.18064099243135373, 0.20656818340286212, 0.10363451245521489, -0.21322583781761667, 0.30912810372225347, 0.10617946256456844, -0.0015555779894279066, 0.2746296048622187, 0.01468388800250594, 0.0014537399717747493, -0.11175897435970346, 0.10341581040269901, 0.0805052126199835, 0.01126777361241672, -0.13914083135510602, 0.02472953426206863, -7.701486217611232e-05, -0.21475512270201844, -0.2573318130726021, 0.10214838645455024, -0.42987887037162265, 0.0361414190361432, -0.09854965460440031, 0.2182839987418475, -0.0862590682484596, 0.1214411164906013, -0.06247757900508783, 0.030959384628663114, 0.12901049074204096, -0.08472879261704107, 0.18238746400609218, -0.1701072770626674, 0.048867813757308136, 0.15131087490544184, 0.10798088211807669, 0.32620576726932543, -0.12228185692624025, -0.23401308095045484, -0.16885296914256975, 0.08841700372538516, 0.09340796352894955], [0.013327902845857869, -0.1881491304879293, 0.13638788877635022, -0.21129743072492166, 0.1978721138017677, 0.48438746792003207, 0.06754806190465243, 0.09117064105469529, -0.07285375596114436, -0.31340482678512677, -0.09158656763956048, -0.1853772420640277, -0.23722726946290712, 0.27637657317350817, 0.042297682956782115, 0.06457250635311243, -0.0632867485095419, -0.033698575797786505, 0.17137473309677975, -0.007828437543654828, 0.09486894203325381, -0.01844171919558681, -0.05912844253323191, -0.22343617720798445, -0.340756300098819, -0.0375119267976177, 0.01951315312513113, -0.2253882529266742, 0.004431193971757641, 0.012656341196905146, -0.3738104320137626, -0.15316913953462633, 0.05534135998327009, 0.07087212150384684, -0.19011404589946673, 0.01358448422109367, 0.1898631607502068, 0.13585407716143877, -0.006125111110849888, -0.07947538114731269, -0.10157458231276864, 0.07002165341969017, 0.025449598985722736, 0.11361430845159837, 0.031005479930507073, 0.1422411480575464, 0.01658013564251302, 0.1328219917973519, 0.15274235638239136, -0.13679216994650598, -0.32474764682604645, 0.2584604379171064, 0.029399941735998008, -0.2859440718831681, -0.12374952907393749, 0.12557491619899128, -0.05642256674599357, -0.08581334012935231, 0.24173136823780042, -0.19379504978372786, -0.13110497121736434, 0.03265632329848249, 0.06536047335925467, 0.07853992785457108, 0.17536958926209764, 0.05077489344293558, 0.07720983574093442, -0.04840360528199601, 0.019644243263079994, 0.03291286987498408, 0.04068158320541813, 0.13808685990149544, 0.08896873425265511, 0.006043118399060223, -0.14701534939986438, 0.01576667666848994, 0.005471071450551273, 0.039862790569244, 0.37515378040564873, -0.07189723748138396, 0.08774861020181303, 0.18629637481044312, 0.014735446267928812, 0.3943705873004337, -0.059857839306091724, 0.05384417652224036, -0.13852439894230822, -0.0595833331081105, 0.03738787512476232, 0.13371792069239877, 0.05892123331037846, 0.21930569238350722, -0.02254631846558392, -0.059646585690327075, 0.4619558447154396, 0.05768602735659888, -0.12863371638460241, -0.12262595748998706, -0.16308362506680868, 0.16361949870448214, -0.0502885490877189, 0.010472345925099283, -0.012675989293334222, 0.12364842310630288, -0.13768338459718046, -0.18284388623671138, 0.04345640794424646, 0.11698329625674493, 0.05454703361924491, -0.17191248677834853, 0.12012372968094173, -0.1366778698928536, -0.08051028003705053, -0.1664348277753986, 0.24141137877441726, 0.1024539042088982, 0.09692850343645483, 0.21769235612469218, 0.4835565987995927, -0.29005470881145073, -0.12526641529012114, -0.11419036085835625, -0.14664722578810846, -0.179812424069715, -0.0632813197733862, -0.214814675840483, 0.04639888382312602, 0.005539116565810779], [0.07355536979554733, 0.09622738254470016, 0.11234109125858409, -0.06799220074446942, 0.3620933259424853, 0.03839573913703556, -0.3131986192706507, -0.17738953077457928, -0.2922559376917291, 0.0019979167495368633, -0.026112402438687895, -0.08178711491068213, 0.3514084034865698, 0.07292363895612411, 0.1250178246620753, -0.16314896989000988, -0.18426911488672357, 0.00478356670723234, 0.02921764715909791, -0.3161334908231201, -0.019804810122633208, 0.0063723550206194815, -0.0325172724938358, -0.1324497600107616, -0.09468916005945015, -0.02829892197545087, 0.019110509733527403, 0.10522794991514862, 0.19023434158075608, -0.040665157905670046, -0.08581192628485186, 0.07961649207635338, 0.09379392245656964, -0.07660110790392512, 0.1365398941755682, 0.16099039214903219, 0.2392440471124832, 0.30219252636285027, -0.14044731941789704, -0.007179157335123213, -0.004750223551712632, -0.02381811093949178, -0.11850483490014278, -0.24861133346671502, 0.014283902242393808, -0.13604409644558216, 0.016236303324196375, -0.13768363473285442, -0.18404978975346775, 0.04352189266276764, 0.028680177507630886, 0.09825398102900923, 0.36284245706868457, 0.05737869173163793, 0.08003919256274035, -0.18596428307367832, -0.2159677359250973, 0.2792566156425328, -0.15272520536878956, -0.18179541900984192, -0.008984056428823238, -0.019481210417615823, -0.16495793350843413, -0.05420021109318755, 0.2117361958509143, -0.12823850189642158, -0.24955906964966515, 0.16431803769336045, 0.09032583609612313, -0.09498701881205636, -0.2597802968687903, -0.12202054387192066, -0.016302780488588537, 0.19891824592958154, -0.17971621574208568, -0.012715559408439247, 0.1218083439191679, -0.4092431661721305, 0.1758675867524423, -0.19371731583461807, 0.07008281490817755, 0.05485938628337898, 0.18979157440145042, 0.08732315239916569, -0.4113300568020575, -0.13543269948234504, 0.024244361748236333, -0.03188542954545122, 0.08645903185769818, 0.13598742052225124, 0.11204585737826675, -0.033861942527556796, -0.32253994049159856, -0.07520878126754203, 0.07893415079470048, -0.19252481634119356, 0.10654690045544801, 0.16128308107687525, 0.019806602091422338, -0.5269045263840236, -0.21141958552685017, 0.31460164142313535, -0.10157506164416631, -0.33900466388750233, 0.21781389407569024, 0.004535650480598949, 0.19093901544254782, 0.054708357527629474, 0.07911556329676697, 0.0496615076631893, 0.11985798235595463, 0.3902642181984862, 0.17642544905435792, -0.2693426209628724, 0.08593040143499973, 0.1959703307290628, 0.19839193420838974, -0.06898855258320999, 0.19876478186688512, 0.15864747147963804, 0.4418958189804095, -0.13979741155955705, -0.0918079480641511, -0.04696990633448615, -0.08455972160075971, -0.15358077059825753, -0.48208041756562975, -0.074716987463142], [0.06012303356369365, -0.07146635303084828, 0.33225827282826187, 0.005365351723159203, 0.21110204839510377, 0.04190083527727929, 0.13306889975894534, 0.035563423868203645, 0.24028777397654183, -0.0038609260845999557, 0.08521570331232152, 0.055216498031200496, -0.041074791383620274, 0.05170997266087548, 0.3689035927792482, -0.04882857333199808, 0.06103530600670054, 0.20918826585785558, 0.18874906912874168, -0.010465835502314424, -0.41585967415728, 0.09254201719828516, -0.38098512309957144, 0.2608131722328065, 0.024753434506289355, 0.1786917323349302, -0.14949927031704552, -0.2674587079756149, 0.046955338088930376, -0.014705060153535524, -0.08529416420514717, 0.013223740100414239, 0.46473629861917665, 0.13291752604516352, 0.1822955257617367, 0.14514880576045308, 0.2673226916966496, -0.03800881664662343, -0.3441453224066738, -0.022635933537938156, 0.13786401732692558, -0.16613370371692585, -0.03525397337859817, -0.11369290265935691, 0.24813015619053838, 0.13047440400721994, 0.10300063371192898, 0.10630354983157426, 0.0040574011227766105, 0.03922063579569707, -0.2004769191382639, -0.3778347653163465, 0.0155602774496371, 0.05254674193793091, 0.20908364194064644, 0.2632077886205631, 0.26012778734970726, -0.1689747854907624, -0.05413250245094567, 0.08621797572355336, 0.4387028059067885, 0.2513337818672868, 0.19202270811739744, -0.0738073040931467, -0.15644845506487254, 0.14813537974817867, -0.20113981142957052, -0.03306432224804354, -0.015582200340994974, 0.2699081030762847, -0.07053921235342983, -0.4059719528328267, 0.08767487741060441, -0.12763064471721391, 0.015360567066738938, -0.011593542905506416, -0.03732568503718358, 0.12844900550370783, -0.2670929883610697, -0.08693116653474753, 0.12026903928842621, -0.09187693027624876, -0.2698035470376183, 0.12229084037142403, 0.19395164771983067, -0.009883658471165003, -0.33952479986703576, 0.1265324458970847, -0.2876637930033129, 0.043428294364029715, -0.15567654440385983, -0.1990721207097416, -0.09362313380608238, -0.03223409688004362, -0.11152480658257562, 0.08734929043878552, -0.08601590002585731, 0.172454971091229, 0.049585269315057835, -0.12124011357710078, -0.1376198674862323, -0.28012623509388773, 0.051851073516298196, -0.0616573182720338, -0.4083179066096596, -0.08994002094528662, -0.13360655582899358, 0.2714383145568302, -0.29874629757733284, -0.2558074577146761, 0.18972136273222903, 0.23648319937282825, -0.11655516913207362, -0.11075432943377508, 0.12688896414628487, -0.41261775511839366, -0.3256295032761494, -0.047266645793407, 0.2672025010551892, -0.06790142497475454, 0.022542369280780367, 0.18607312869087433, 0.3578579275224218, -0.0934549809679619, -0.0051652037713107585, 0.3097341253919813, -0.27114742339273357, 0.19152777778240607], [-0.17918017096853533, 0.014116878638580996, -0.04351722466825582, -0.1575449277072953, -0.17164385982924737, 0.04574946077554603, 0.17538529006513606, -0.029483789333224455, 0.027603619894352005, 0.09400780343052809, -0.16267691260362271, 0.12465237738424359, 0.15254184742693347, 0.4244764959461514, -0.06709467476742127, -0.07848867101346638, 0.11960957755014627, 0.13848373218828916, -0.08160083141710855, -0.062302959860381806, 0.10231517160321921, -0.14146779496355882, -0.06920959543301636, 0.02819456656014918, 0.16611045676810388, -0.10123551957799715, -0.31259600880099514, -0.3281899698240533, -0.21174436128644522, -0.22541014872454906, -0.03309543629248423, -0.20643009751235808, -0.14156163417859313, -0.1395403753288128, -0.07735498167253126, 0.2179600800020735, 0.1062287644708314, -0.0008228205259208204, -0.07250048644840724, -0.06654481232802492, 0.053166712956246254, 0.08024314951247874, -0.1660474622796046, 0.009917846532728643, -0.345217432019145, 0.04193183072913873, 0.12901950069960338, -0.04640291463357466, 0.3189338518416087, -0.1455338890302342, 0.032683810211335464, -0.009937915633866366, -0.03890547561622154, -0.017879506250327963, 0.021149723411322128, 0.14418807064396652, 0.22584370211807303, 0.0024027643222233877, 0.14416560780269289, -0.13321911424381822, 0.13868272409847832, -0.1451270979209378, 0.18623803607001355, 0.38003459859646654, -0.018037407814132683, -0.36030768369738486, -0.0999945429706601, 0.2076746970962009, 0.09678023912346911, 0.04777692086386745, 0.16688871830926352, 0.08712004517529238, 0.19704023269685958, 0.1584075920351397, 0.2613022770365405, 0.057012259030379785, 0.16196320318418833, -0.047318431012729215, -0.10178298249958243, 0.29963431040780764, 0.04106526139425643, 0.14169324901032906, 0.02702696862943787, -0.10253232938090046, 0.0014281598404602323, 0.25549225590372293, 0.0960874569066907, -0.29282620582424224, -0.028307510113219234, 0.2981637242678225, -0.03300679621584015, -0.30564968162645384, 0.31694336666459455, 0.12184957213250702, -0.005548896519513435, -0.06687671927394966, 0.18401379225678785, -0.08643428947770267, 0.2002235199427542, 0.08871453477767657, 0.062443506995460404, 0.005018368344553184, -0.026639629873436873, 0.1798288943545592, -0.14379806379387902, -0.2801924890990528, 0.10554370325826472, 0.12035401208511626, 0.07927725449605319, 0.045530253777098045, -0.05525686297771219, 0.12815116802958473, -0.0022519783799177066, -0.08362252526446542, -0.05105792124273787, 0.3362574850482478, -0.30407739787864546, 0.09363703383515813, -0.2867787154364885, -0.011455253765200249, -0.071543665904799, -0.371269914402346, 0.06318153883240568, -0.057810829286332036, -0.3656814612502819, 0.13965550877833938, 0.24093135916300562, 0.2644680235268994], [0.053804354210609424, 0.02163105385748339, 0.2279164612752995, 0.2870090519361982, 0.18916843042630305, -0.16272210545300222, 0.028209152534191543, 0.08005832262596552, -0.30151479558695543, 0.07347441302873173, 0.3943660211616412, 0.10614113311542824, 0.2585469441839513, 0.014346057760101923, -0.021601224659263646, 0.059102328720967046, -0.15649339714133662, -0.16266450220307954, 0.21225856793626233, 0.23253434673297763, -0.17609373847746457, 0.16264780359964584, -0.011842103177476122, 0.06829285982460853, 0.07804815537413659, 0.17498528596361115, 0.02154583350415017, 0.24270141452347196, 0.05567451263652413, 0.1169479588349438, -0.15806032696404076, 0.3709723083841716, 0.07174026247666973, 0.11853497893334064, -0.27487800090491266, -0.15427775837380983, 0.23140900978003026, 0.04686963555845789, -0.32304416465602975, 0.17387845280838632, -0.09705261917275029, 0.24174474490662662, -0.024082713789313783, 0.04244687965522147, 0.19914927493884238, -0.15587675506935517, -0.16697243799003328, -0.0311602558751525, 0.15417305107644647, -0.22416742607293422, -0.2814806419439334, 0.14107079984552726, -0.11774715298559871, -0.0644365627053856, -0.31817892579088675, -0.1082251944214186, -0.009499608565414777, 0.1617733257608993, -0.13112768658510016, 0.2788379513355035, -0.10025429583506044, -0.12019145073068715, 0.26295241705037803, 0.034504352858521374, -0.09044379671299958, -0.03184532363727302, 0.2254013449228037, 0.25249931410719834, -0.133014260683971, -0.001693008499132264, 0.015839250674085682, -0.14899367978847375, -0.006549383017510477, -0.003007422175440055, 0.19577555096285032, 0.20659463286686006, -0.05136355177765364, -0.0325388494571143, 0.11799307133487875, -0.0865318048988661, 0.10967099654097831, -0.014476818524689237, -0.16412498229455524, -0.1588214277597107, 0.2526133989196595, -0.030105482682545218, 0.2890433048757678, -0.08340976334031501, 0.05526309281678985, 0.4092302744513655, -0.18120569388189336, -0.3257647202282638, 0.2158591872756373, -0.14823992841481415, 0.002592177837529397, -0.10417630898128298, 0.04799674337307861, -0.15748649107065274, -0.032321578060661944, 0.07285923811178344, -0.16213214042011362, -0.1255930960212866, -0.059346564225479105, -0.24553006895390336, -0.07568873949523792, 0.022722536855387557, -0.060257744724250654, -0.04048550248530286, -0.006219792081176405, -0.12212577050373334, 0.11890967655638655, 0.24864497404880714, -0.06644249632286497, 0.08408129289039228, -0.022851008472685955, 0.05908980124144299, 0.26513840784358944, 0.08784843912437765, -0.303243258419992, 0.08114984001956342, 0.2167840893218957, -0.052090960772179826, 0.16721729183418357, -0.11027554546385793, -0.25454716554227347, 0.022075057619076414, -0.3062487705004247, -0.03381102982200901], [0.22094869072294723, -0.3033620186502057, -0.22203680142181945, -0.18105412677234953, -0.014888057596567724, -0.06485559573690729, 0.2432618484895459, 0.15477763284922053, 0.07382368099681816, 0.01548984342773234, 0.06154075184752821, -0.15055373210808579, 0.15337993933511154, -0.2159705010793877, 0.1450929468959439, 0.20120909746560292, 0.024067173941161868, -0.027666282791194638, 0.06762599807971813, -0.4919133649513769, 0.04459913967917948, -0.0196528296643439, -0.016427697022997945, 0.12247175645968839, -0.012363305837635157, -0.19105235142524596, -0.017799334173196634, 0.012095208441664498, 0.02576656511211568, 0.023074217636347896, 0.17196156255232448, -0.18823279895839856, 0.019093833301094442, 0.2203534499390821, -0.29564159084743175, 0.0314710003536808, -0.0900048094630021, -0.06942191289463726, -0.1481010673404188, -0.014594464826123052, 0.31518324716108015, -0.2116929629534585, -0.21190615406614438, -0.21847954896440036, 0.29544986324320016, -0.08070101053103759, 0.009199876140798941, -0.0688436261672498, -0.15622125676855644, -0.03784427949606, 0.4253606572369078, 0.23660742373479565, -0.15732950423400163, 0.11078216764649193, -0.14148512014720901, -0.3118957920282063, 0.17073757203699727, 0.20019843277867652, 0.1854517706016777, -0.08027014484327794, -0.02948389946520047, 0.1254028273033727, 0.06513510342144592, -0.07044757129899765, -0.2759516461880551, 0.024679468034428265, 0.18077883338062078, -0.21098942615922603, 0.11366673466663413, 0.06228565672356018, 0.12544345613617316, 0.13377752059329162, -0.12940233995885506, -0.27360910127340404, -0.09064201387443552, 0.15076488021655163, -0.08571140681859811, -0.11969231194110731, -0.31710018913886373, 0.3015535357797798, 0.13905804046838574, 0.13321804064459394, 0.1675369123923685, 0.0994961395493162, -0.04699196647285776, -0.027077680731023887, -0.07472012879726082, 0.4534848168740099, 0.09143827319981629, -0.07996851676743957, 0.08152113832521828, -0.1664637761818703, 0.25696459492710694, -0.11493058151691476, 0.0855854868082722, 0.1764062752204241, 0.07112946391210966, 0.022005516632110658, 0.004573400365915669, -0.016078113139169292, -0.09813484392568501, -0.08075320014810654, 0.2521996530613848, -0.012898652392228725, -0.13390159472092383, -0.092470810631404, 0.1929481624240212, 0.12035838611117786, 0.09460674531695752, -0.06328795154534339, 0.10210950267089984, -0.11772531744382853, -0.03918066119470374, 0.17307985284111102, 0.15461041031760372, -0.17237560862681667, -0.15157772692021249, 0.020409428813649905, 0.2961812635819839, -0.3276349373450587, 0.049007207729361846, -0.2534921372033915, -0.1071480094256618, -0.057706763978086995, -0.06576332703130108, -0.09307280111678842, 0.0016669030303935553, -0.08240781901618939], [-0.256724927897553, 0.14710940850663384, 0.12537573552311718, 0.14103483211422882, -0.26523601270408376, 0.04704888316284478, 0.1211093305503276, -0.18088300010597796, -0.005392142353359208, -0.030360715541337662, 0.31832850542624735, 0.3271446575445038, -0.2812777715776925, 0.400968642867866, -0.13598353652977158, 0.1645050959287309, 0.15446281590881183, -0.16986096625692335, 0.08558614010120276, -0.011762076659747964, 0.09071940074619787, 0.03702102964422461, 0.2096938102207707, 0.020903105442676723, -0.027010483255203287, 0.19225997522252872, 0.10784644305961028, 0.1280527031974914, -0.11254773076197272, -0.1824167344150664, -0.10604833514481561, -0.1093606789535993, 0.1232525858343794, 0.16192494854391884, -0.028178442068150625, 0.23125470542644833, 0.2313430640759882, 0.038333417543331756, -0.13586401873761658, 0.26925956932672807, -0.014339639020836417, 0.01632643024881973, -0.07326287154229161, -0.14442027537297578, -0.2534084896268873, 0.10788917230927234, -0.12130856939555333, 0.5232294866392159, -0.1831527327940051, -0.21217347118589597, 0.09245647130739398, 0.2625987295686133, -0.0025821244375429727, 0.09862426296282671, -0.31201236285038864, -0.11559736634574296, -0.19333574118000216, -0.3186979456707571, 0.027686768387283785, -0.3901293537693957, -0.23120389887170523, -0.09640569997453895, -0.14025701379078678, 0.062179073391731045, 0.06804580263293562, 0.16180985675250986, 0.125404097045662, 0.18987601337941118, -0.0021784164851521843, 0.060899877954772405, 0.08688877567346795, 0.015868060462151293, -0.09115403011508083, -0.05718361882457849, -0.13656759209312866, 0.06816804573556713, -0.015095139715592835, -0.10736966149925431, -0.12268360226958616, -0.19488224603401053, 0.16290268160421784, 0.009568340248560642, -0.14365519867851223, 0.14172411804546614, -0.08776839213177831, -0.24210203096518682, 0.17995969796903485, -0.08462978749708912, -0.06622827682285587, 0.010241831884344096, 0.19488483740866577, 0.007415404141271533, -0.20570021228310478, 0.09184340983624663, -0.08379970533541325, 0.3135704093948968, 0.0028462077389409305, -0.3765141481088941, 0.06251007330529179, 0.32881367215571156, 0.2899073003584683, 0.311747731293807, -0.17364216394912793, 0.15502406228111756, -0.12184101523702, 0.043189920393902896, -0.22047819525639137, -0.09971569207413344, -0.11739401127137745, 0.14622018320778857, 0.13305712517065343, 0.03484525137009319, -0.2289086418644809, -0.05126003699376617, -0.1279253918228393, 0.145522902275376, 0.19474141512005302, 0.1763194526822454, -0.13286777579495923, -0.45665250922925443, -0.29710699366461246, 0.2281599785837603, -0.07022605797742777, -0.1246572910851827, 0.279213559830058, 0.21715952625477666, 0.0018444600270743747, -0.04456081107238614], [-0.03455861681568827, 0.037197416769142115, 0.276617900291705, 0.07541515381880537, 0.1160385038199686, 0.19493122781966102, -0.19781084315089395, 0.1221003713654802, -0.03601869711524002, -0.43721735404442175, -0.3616964064625319, -0.1787395706944871, 0.10063212369205997, 0.01011683272823799, 0.02671871310890361, 0.3253863647869745, -0.22664092586562914, -0.009729748101459755, 0.06023846029188628, -0.11977367388023445, 0.010578000748599915, -0.2689856266781452, 0.2441818974605941, -0.1052255496942373, 0.34750857574933797, -0.0037809137880606236, 0.1872978916913004, -0.008684727870376246, 0.0038619693753637586, -0.08349233335365773, 0.013446869860078961, 0.058092323941722736, -0.15149324815125811, -0.03181301017453813, -0.1057578898961819, 0.38753235055284674, -0.023528521804755273, 0.2631555418397939, -0.024432669890215537, 0.04753006825750786, -0.22160533601618837, -0.09444360212795365, 0.028920667258906782, 0.2675535495920498, 0.041772518314064075, 0.24331906573824977, 0.11486495980568415, 0.27717622608935494, -0.006299554241484094, 0.41054816327266813, -0.09137686603266576, -0.1376063486099599, -0.22103019646420372, 0.40391724556680886, 0.13085373596366237, -0.056329902170033315, 0.19802425866478873, 0.12392662279969838, 0.3387317136093996, -0.2574564316811499, -0.04149506591824689, -0.08186849116065995, -0.3400608078340734, 0.1835683388242462, -0.03665605721478256, 0.1456625674138138, 0.3962186503686997, -0.055640613704301636, -0.07965765210946284, 0.015962943002141704, 0.17152640660428436, -0.1094049522851772, -0.12153724396222601, 0.1780094030576681, 0.05978477007309114, -0.3489240337348556, -0.20674269782371088, 0.25590340567186615, 0.06522190936276089, -0.12198696802007368, -0.020322095994317082, 0.007254369143607745, 0.1285648407498356, -0.2321156103685039, -0.13914722450058556, 0.0518591886100244, -0.017038561591557817, 0.0995243667111171, -0.20489821556516163, 0.04852225548415692, 0.18350512506935251, 0.0853179122540315, 0.017172574163077714, -0.01775413265865445, -0.14001250451462036, -0.0070723636182318805, 0.21109906586005653, -0.0177129379698073, -0.1478977631560988, -0.08984487042454944, 0.0436445529702605, -0.07734135733923363, 0.08591475132890922, 0.08366240631191772, 0.15728774334689935, 0.24039255256474976, 0.1788735054381927, -0.15247589551910923, -0.15430664082867046, -0.027551338561437568, -0.09014141044745283, -0.1989890568602939, -0.068996611139479, -0.08579324871301598, -0.10166655640170502, -0.06565087431195621, 0.19681516250697795, 0.04134641753628764, 0.42379290710203504, 0.03409389601672675, -0.04656495548588266, -0.009679168429113377, 0.04826595942652111, 0.07658751507090988, 0.3449203178922102, -0.14582821250859895, 0.1341182132856291, 0.042391843510856515], [-0.2712495343341975, 0.1412908559914622, 0.21068517395745354, -0.14595059136052996, -0.010088527887655954, -0.29398268111304654, -0.2122008901660637, 0.1556544220019732, -0.07542585352661893, -0.1869340074609024, 0.0480132106243006, -0.09245987917638596, -0.07827398125313612, 0.11209829626623345, -0.21314124621514138, -0.17283615218824622, 0.02316076079170834, 0.1685337084876092, 0.21008434451094915, -0.12274352334632364, 0.1685941186919245, -0.12841657554242555, 0.31553281579597253, -0.18401759120333314, 0.22782107710531993, -0.10647758767360918, 0.349195111031111, 0.10147701245886126, -0.17544364315500977, -0.09868284819331603, 0.13022666497716937, 0.183592835851495, -0.02212781935118121, -0.006432746766354058, 0.13429801869660968, 0.02232676139206342, -0.1942419237230276, -0.142433857615313, 0.049233217657915135, 0.2246100797913208, 0.26540371251330547, 0.1310648806148994, 0.04319291395060137, 0.12737832617810002, -0.11279795724647738, -0.022639270528025588, -0.12542078669174625, -0.2117732997642113, 0.06020640990512862, 0.04066798609756209, 0.11504146746260287, 0.07615827129747331, 0.04459968607322579, 0.09673043592706665, -0.0017142560328305522, 0.0734409262590368, -0.11410977080885186, 0.06687922824215534, 0.1164866887297534, -0.10541214032190152, 0.008480488653004704, -0.09673833593173796, -0.09753998443224914, -0.20225274089001652, 0.21353188689891953, 0.18619298171756835, 0.08017854937469576, 0.33557407682309764, -0.024005162315029496, 0.5223298233215474, -0.04692938166901591, 0.028467896193387895, -0.06829209913833939, 0.06776080393597628, 0.15670439819070836, -0.016017808805600393, 0.30579983807420974, 0.03212412489817967, 0.04270593956791189, -0.14390062366362447, 0.08341044466842668, -0.018454390200306845, -0.10344969707203176, -0.12505054924743214, 0.45044573265449434, -0.05439771257105045, -0.24205221201790078, -0.10506610296534395, -0.028817774920766537, 0.08301885472988489, 0.10243356393948477, 0.11580259013566879, -0.11721170183829731, 0.05487450941767479, -0.15267887971482885, -0.12566517935797622, -0.1705642172873759, -0.20278737371894828, 0.1819040070270287, 0.12104204753481586, 0.17468922716481827, -0.0043332403612382836, 0.13655120070937482, -0.30960593151131793, 0.15188375496084744, 0.03293853217342785, 0.11367649573865665, 0.06303836455209999, -0.16331808455605362, -0.24798093913085734, -0.1282103323728498, 0.10799853953270082, 0.12369062945497863, -0.2218575497827764, -0.15252127652377626, -0.12759899827186832, -0.06748538390291527, -0.2287122208525625, -0.23803792972708648, -0.1349195724914281, 0.015153584847539618, -0.2083618338883187, -0.024765782848055667, 0.18837155097145797, -0.21192910519705208, -0.04102195626394523, 0.18017944436698263, -0.0732981532952503], [-0.0765643258779553, 0.21865047857233152, -0.05971518174157462, 0.1862509528286902, 0.08140096732896591, -0.06738817375788203, 0.08721152067640947, 0.03265655081603936, 0.16942855048014768, -0.095093623084322, 0.014896846951346835, -0.013840367527775179, 0.12561852176417662, -0.18481018880789563, 0.17957529841383948, 0.09588089452837467, -0.19828889168678723, 0.20036446265830019, 0.3728543483789621, 0.1663861846077049, 0.26148642550174017, 0.010031340079204613, -0.2938478286842613, -0.3262051298646016, 0.04191034645664393, -0.09474066462956017, -0.16264319790264534, -0.003441942916559434, 0.10719588030214722, -0.25222679913119694, -0.05650389518533454, 0.2624008177694862, -0.18069202854518282, 0.13803274531699355, -0.08849859555805786, 0.1058830161980989, 0.21010781608935053, 0.13004805854406098, 0.1508838697552779, -0.2074607763485671, 0.18945842180814088, -0.15314392854757808, 0.05542237427612572, 0.05778101178478447, 0.07690537353269025, 0.06443293752390918, -0.1434085537277671, -0.2374402887299395, 0.1453929749337838, 0.03872017784117573, 0.20005777844790826, 0.0014557869086301866, -0.24803630329078907, 0.16680290623681496, -0.059698843549138736, 0.07150696778839555, -0.08903941103064422, 0.28073809664627736, -0.1444075837357856, -0.05962365342819065, -0.01257220019052283, -0.1834008032385016, 0.045852095358085036, 0.2821712853313019, -0.0895636943800588, 0.08233803048391936, -0.4484016908559375, 0.003545636287232322, -0.059640771694870934, -0.12894802668417477, 0.19091498089477427, -0.029754918817070916, 0.013246036484735706, -0.06565715351288653, -0.3435248195117344, -0.19249411985811818, 0.15313080207156265, -0.3679614865400257, -0.12569159996720453, -0.08568059525820336, 0.3285071580166424, 0.1407693051903876, -0.09763711972598094, 0.21766319875893375, -0.14603204880781226, 0.16595650654107183, -0.2456634694185208, 0.1771419692082374, -0.0666275543958981, -0.19008535485210168, -0.04313024505141826, 0.052375119820083256, -0.08079086751141275, 0.07259444811668825, -0.10756258732153287, 0.0948626706987419, 0.07899951115853995, -0.012244080287107354, -0.07398066442091161, 0.044734768215287754, 0.07487106529058574, 0.3606744134653983, 0.16265290941833135, 0.1695681698493992, 0.5268448358754547, 0.10144324996616838, 0.0780126147484734, 0.11074614167111867, -0.18037815385383013, -0.040589533266189366, -0.09308801386520014, 0.12650910213730254, -0.05435504431059665, 0.006771683643901777, 0.19074867362567222, 0.1355476999604481, -0.03492898630151826, -0.11994228581197147, 0.1921706703966028, 0.13260569025748797, -0.2769586607772869, -0.04460383187936546, 0.03568559723660676, 0.13317655243759924, 0.1421735298661956, 0.037545709793773384, 0.08866753301862894, -0.005747357548832094], [-0.11378349051497004, -0.05174102365426459, 0.0062820626872184225, 0.00017667244631954353, -0.30871288278928255, -0.04623327803262174, 0.017618159842312377, -0.03637823998197968, -0.034114484608424825, 0.07228497508415402, -0.17343783319708608, -0.27514695825212787, -0.06210313309213951, 0.11520524698211237, 0.301460978228557, 0.10102195046757471, -0.2519980062200569, -0.05558129864416547, 0.05100371836835782, 0.030140824239438313, 0.08650241973304908, -0.14063817784165095, 0.0014092850719047165, 0.09162645976430783, 0.13826358982591674, -0.12308924016827323, -0.04428524085742496, -0.4762145863762927, -0.1046925555771227, -0.0623961799762296, -0.17004117804976365, 0.03453442685446275, -0.02142700883691992, -0.34094743425744023, 0.062202105188220974, -0.14991793259476394, 0.05645671521342594, -0.2208311414929174, 0.019264698925819862, -0.05685863882546586, 0.06440477777848742, -0.0027203434991586416, -0.03876292114673345, -0.24625232689807816, -0.23662559432639863, -0.08336474958627534, 0.002470814937761971, -0.11914474718203337, 0.09600142299685642, -0.06116383738016461, -0.15986313818958375, -0.049472096950688035, 0.037348846384175766, 0.0652627502003403, 0.3232954243106334, -0.1048464934852576, -0.00020452483716933286, 0.06698302354995309, -0.015061113109395893, -0.09623632008970961, -0.27235163844307564, -0.11768265727456295, -0.1843330419260007, -0.29831809617918253, -0.08052047520444705, -0.11481940844537013, 0.0994493339066021, 0.09083480268322514, -0.14357388706895538, -0.040338673866006355, -0.2918859099203118, -0.03642843541465763, 0.038117328481541396, 0.1316503798702711, -0.10383010654121123, 0.16892206918039937, -0.224477372198991, -0.1733295051778105, 0.11450822411727553, 0.3055753040452125, 0.07564735806149536, -0.007216943455726489, -0.389241907691719, -0.38795634841699866, 0.023005821150746716, -0.024006297521234708, -0.2037696254535049, 0.013253456652044762, 0.0386722497718452, 0.13593961471778757, 0.013375760789310354, 0.20476918261687937, 0.016303267579576588, 0.0022767594721278847, 0.1979570258235693, -0.14865721849262095, 0.46969958154765257, 0.07811230054200792, 0.08314159070767756, 0.07871005715565405, 0.3103178466973571, 0.1340820385066698, -0.28539287639040906, 0.249217544759693, -0.07231058650915687, 0.0025281819068190075, -0.23924887365055397, 0.09428448762867991, -0.10099645130769566, 0.04255854541550262, -0.02711509952345569, 0.31678003893997214, 0.3563623340522557, -0.0021757931736858874, -0.00425419700140322, -0.07743437505822948, 0.16065261860218383, -0.035859833619950716, -0.06650139784638844, 0.1809064252512981, -0.09492437343641737, -0.008315474802636471, -0.2650321744074596, 0.11486371411566311, 0.35024632449373827, 0.12148838854296395, 0.24707912172334623, -0.1290324078259086], [0.044843333979109376, -0.1628774106398669, -0.04637738368149695, 0.13483726754306688, 0.0005791382311305691, -0.24752315526700797, -0.21731730757258402, -0.2223850116593122, 0.08405796236433355, 0.3480322656140161, 0.24025822757845203, -0.3209093111461496, 0.2563009704971539, 0.14273401329269086, -0.24193695204701296, -0.01588432901870596, 0.18989986054370422, 0.10138248987936754, -0.1893238490161095, 0.10305279874725068, -0.3288163966490767, -0.01757387353871756, 0.19325822775567655, -0.003678926098771981, -0.08428991857958645, 0.16058295174987364, 0.15525957809512503, 0.2248790480484241, 0.16039901931729458, 0.1595151207332244, 0.14734062482025295, 0.040850076695861354, 0.011143015684736435, -0.033927904839090015, -0.2100122995817953, -0.15244141903350045, -0.09498810868484678, 0.04379171310692566, 0.241713194797767, -0.050862431790550486, 0.16709419797786043, 0.19225560038923276, -0.04053413483893422, 0.11888718482860994, -0.039355469395115555, 0.22638664792535645, 0.09547689917333976, -0.1984332495133124, 0.01085446308163674, 0.29400254572617024, -0.03655073224454358, 0.09887523390731012, 0.05658189672051932, -0.15305958829890326, 0.10043297431659769, -0.2334140820017305, -0.12137862596452269, 0.18314402396707127, 0.0683549722778235, -0.08723426142463307, 0.0697799290509812, -0.024833269276165654, -0.010200465732922605, 0.11816320781207389, -0.12236668668333997, -0.009286840430991105, -0.046581618568569544, -0.2545506582580088, -0.14713288851997416, 0.27325327234800334, 0.06222887710077632, -0.21348638916563453, -0.22176647025313012, 0.003169797376213895, 0.28823694651439113, -0.027154671043483923, 0.22200167897704073, 0.061267983942357995, 0.0765337335104867, -0.23917709731712863, 0.14755838740278882, -0.05265664484929615, 0.14949896941489638, -0.1412642041518959, 0.010717552675223679, 0.055766200460376995, -0.04198983867949822, 0.0664280524676645, -0.040550132118338036, -0.11675381598089668, 0.27267518105037075, 0.1836765342066266, -0.09825996287055766, 0.08540580599141784, -0.11411911006122133, -0.21824904239839374, 0.1943048803052258, -0.29709372740836404, 0.15625862193342252, -0.04746749721627566, -0.03138858147636854, 0.0846093650331913, 0.08932905744868254, -0.12486334005251297, 0.13019884142797, 0.016341139470566812, -0.2254076586716373, -0.029194842648093442, 0.2564755304437032, 0.2626342142379795, 0.14055389018919973, -0.23478413248425523, 0.06061611108274826, 0.15571202075753574, 0.1391025200187177, 0.14339175648534616, 0.047979342358513026, -0.026192965946791665, -0.1051355750460263, -0.32579066735792084, 0.053504540244892054, 0.02739890066922454, 0.10601728981677881, -0.22725339823646176, 0.1037336033744775, 0.34303237864008274, -0.005897305248896916, -0.02226935888106426], [0.047274033189022076, 0.3292654935491394, -0.16257623381746, 0.040416046978044545, -0.1425316142643002, -0.09097102502886431, -0.02902222308675935, 0.23675172382813553, 0.31222914689491826, 0.08411934978011065, -0.058465520341505456, 0.4199159049540224, -0.0668859393106675, -0.09433071785449983, -0.3008418213712123, 0.220731562316391, 0.16263845891252818, 0.4130065627154613, -0.23806546965795117, 0.2561160051950565, 0.02033718168240689, 0.14067510870355932, -0.26132044776466806, 0.26305413249852566, 0.13892205070196828, -0.007657442107905257, 0.11379037528958554, -0.14081842105309417, -0.09483424239898351, -0.07914012326651756, -0.3194626660725816, 0.1525570131575751, 0.19648371226799966, -0.12705494971193096, 0.05312542238440267, -0.0586996351162403, 0.07104936138746881, -0.1054218798140217, -0.14133458055540965, 0.1928316594247944, -0.02121170187692302, 0.35537544897019935, -0.0020081545710093148, -0.16843713052855167, 0.20033174016539662, 0.12247824826593375, 0.12425191974269056, 0.2028121382058614, -0.09725733862859992, -0.015836079719925088, -0.028822582061545466, -0.23005362855592554, -0.051773704690613286, 0.23074670666159908, 0.04217767863708118, -0.2313513139414297, -0.2693242798955648, 0.29164099768515644, -0.013893411642507092, -0.10510217439624805, -0.033344081455107255, -0.2537609441680629, 0.2437325113522162, -0.07889050128740131, 0.247502023745192, 0.006859669669674752, 0.24005578583226464, 0.0464006189301599, 0.15596623282984912, 0.11775872473406081, 0.10204730700061686, 0.06536169520273438, -0.05194483584143559, 0.3207934746539272, -0.15784723356510072, -0.006646234673107666, -0.0016820411515072768, 0.06128024730694981, -0.06116385142389378, 0.06354145395985647, -0.02833622167884264, -0.26606309715016696, 0.002607519111094151, -0.16651456515127872, -0.28529299475059267, 0.009878761418704337, 0.09980755873168105, 0.10049175143477262, 0.09811085219466792, -0.338886418786671, -0.23105590699951, 0.33534384943551176, -0.19973111299859267, 0.09432143420793314, -0.1127531728895571, -0.00652347054319136, -0.1279254982584532, 0.09997833015045868, 0.017610242597801525, -0.0847746818139061, -0.1585598361142814, 0.05165020004972637, -0.20339011612381122, 0.07775550143207688, 0.45973104354570943, 0.2369858688627761, 0.1335767171358382, -0.013455349888560396, -0.32759143859808904, -0.19997325381163625, 0.2176497248643988, -0.11714179341561622, -0.11576945436037182, -0.025779731680772563, -0.15905835062383697, -0.21939441096266216, 0.005582836510856803, -0.16040416263578605, -0.12223012532583735, -0.1331653118232829, 0.08760413891183035, -0.03855677845478032, -0.02994228460380267, 0.11032128386253083, -0.021473019072408436, -0.060643942925272844, 0.07379184100590162, 0.10750792169377972], [-0.02866610065994835, 0.005107273850385666, -0.1400803732987117, -0.14057194810631932, 0.12696160147480845, 0.07320033362138288, 0.07653209655912256, 0.03585738978558985, 0.025663605829296006, 0.13436406805273088, 0.16267484840090093, 0.15159834813981232, -0.006867103117944906, 0.22616366823045686, 0.024563777151629298, 0.09686673578821879, 0.0509557633912639, 0.03561321317717184, -0.1434170343024091, 0.12703264071354994, 0.497497780140666, -0.05190912757222965, 0.016564041260281808, -0.050190324153696765, -0.07621574323144928, 0.2682254454236403, -0.10240749033019635, -0.08915746510021459, -0.26631012086911826, -0.12576344408274437, -0.30414929261987417, 0.1128721406705479, 0.48198610933541414, -0.06027125527571344, -0.2767930974064529, 0.14883146259543925, -0.09632768900020143, 0.2277574197716484, -0.04246710023655551, -0.11616348933981534, -0.015656057001549376, 0.11081957136765921, -0.04249733768249018, -0.08478689311073967, -0.019885976644673807, -0.21761782243094327, 0.06607719337275027, -0.31891008467318005, -0.0701924094582117, 0.12678373238416354, 0.04415516906768099, 0.09399407695424913, -0.02318617892343178, 0.2091278007858062, 0.16207730860285324, 0.07745919400115893, 0.15580313760636147, 0.12970591108819043, -0.08324604655412755, -0.24716073434152463, 0.08979114427857578, 0.08538947621144594, 0.1859770085463313, -0.170847911385811, -0.1529997576849558, 0.09870829662231292, -0.01624133725816144, -0.3230415020425266, 0.06502588407218095, -0.3123564177835595, -0.17113659945536436, 0.2699860301650747, 0.31814492390711696, -0.21897439833300777, -0.06344311914338477, 0.01045133770204301, 0.3135047828481422, -0.08371992304122904, -0.08384844015131704, 0.2743428533727307, -0.05612871119701508, 0.1271111819603636, -0.2595847566235415, -0.03837159319049931, -0.2778525459720188, -0.18559029298925397, 0.14616514440937242, -0.008310076367186982, -0.07352894310135244, -0.13512587228586886, -0.036387699123773015, 0.049507806796148794, 0.16488323926853846, -0.4543628609703114, -0.14421919726057444, 0.02625296589337766, -0.019750822915606172, 0.06656182219248098, 0.047560561659441725, -0.05468382959101617, -0.08475495627669175, -0.03980693035187017, 0.19889134590666718, -0.1214468239492662, -0.0023306881408373223, 0.028974653654673985, 0.2667527897482085, -0.036575588002748696, 0.16277724530556972, 0.19766030548872546, -0.011136309088104535, -0.03700564206299148, -0.04506943095043587, -0.04833358960584318, 0.15682353229073112, 0.0418475318887085, 0.036841497850884544, -0.17868928213759533, -0.16363990475867482, 0.36866227112890515, -0.03142530702345558, -0.1337247221533033, 0.24125863817575052, 0.05539686100551601, 0.09195613786790195, -0.027870892004031228, -0.06883207013743363, -0.03236289934411377], [-0.24124108859108304, -0.009317166980060082, 0.061636936130794406, 0.3140414688950331, 0.012728402064216139, -0.4059876233362635, -0.01353706002464282, 0.47147218692522924, 0.1562880770842924, -0.13394957983622285, 0.09899678903092374, -0.1363265093393539, -0.22988904225179094, -0.06599851647302633, 0.016541599169335664, -0.3332907985936251, -0.19795146093904506, -0.0009631004643110316, -0.06570734251771503, 0.06595869069077458, -0.21537716319961123, 0.1252798514180439, -0.20479759667845168, 0.27994051985305163, -0.3011974751703773, -0.18296032563903272, 0.06811855006014665, 0.2868225590363485, 0.06069510589123028, 0.1091037248647263, -0.006893396059819342, -0.17282024766065673, -0.07603137523786621, -0.1966855607106099, -0.2153104090991166, 0.06539670538023651, -0.16170706768138685, 0.05386173578287012, -0.21299144664889189, 0.05558691763857565, -0.07997514674615012, 0.24335260951016788, 0.05469152119868392, 0.21373917989402888, -0.12836734633008282, 0.005707456311175198, -0.17460978064000762, -0.07493280717230977, -0.044784467226511464, -0.120714980555255, -0.21243335008834185, -0.25032309272855635, -0.39403322277246616, -0.17261195698351084, 0.11292383315849307, -0.2737693834876442, -0.19987603265970172, 0.3122196396180944, -0.09957044799005939, 0.047758462339197234, 0.11491518766849863, 0.10625817993626102, -0.26097149836235517, -0.04522922197820531, -0.2632496213253027, 0.4258592480133759, -0.30299482899358376, -0.18199715464406918, -0.160754753234682, -0.23562748341124057, 0.23087867210329624, 0.4318351483456189, -0.08288225031066862, -0.22422019467272625, -0.3818815132408782, -0.03806806991043984, -0.058149722284444635, -0.11597682956425714, 0.037241431482978773, 0.09544830272746221, 0.06837094347229163, -0.044012526629599584, -0.19214313933040558, 0.11710239753459156, 0.002379255967439972, 0.14516738221950154, 0.12770075851472348, -0.23784646222818034, -0.25925368544498795, -0.13113180343335265, -0.18155702143585256, 0.12314497274692934, 0.047307876955496264, 0.1891557489418208, 0.05863110190702043, 0.0319022100272171, 0.19676125323935378, 0.0879704110986974, 0.0010149494733138278, 0.24093780766236925, 0.019511983162894656, -0.06504476586692232, -0.1461285659526557, 0.13097612441731785, 0.21342001394234683, -0.007525493919249615, 0.2365133196605578, -0.3369328539117309, -0.011209614128841227, -0.0011194645814770526, -0.11310946498765105, 0.40767197099918273, -0.0018994540212730934, -0.06026263534558825, 0.015656045540531772, -0.3377321117095596, -0.135221916585897, 0.1699055113005829, -0.10419831572911073, -0.15752690365331662, 0.23088652786722666, 0.2270580515955233, 0.08123888673342688, -0.07585482138387784, -0.03422877574347512, -0.13978904772453327, -0.17232359409778056, -0.18525558087042593], [-0.10374213730176886, -0.17416995052784776, -0.2652272963255697, 0.04385918646229775, 0.03909518263011797, 0.2837142916245102, -0.10909542025222764, 0.0503756982231209, 0.05687516171752712, -0.03951103839713442, 0.12981491077756868, 0.1186677153505782, 0.06436563979991586, -0.05753175301401902, -0.0704036267940795, -0.23257390993872235, -0.13877473733497042, -0.11587555242480632, -0.19532999500409956, 0.07196916433088135, 0.20396643070408044, -0.1522697810195202, 0.04844993388511748, -0.1776617626941692, -0.051867662672927466, -0.11124726195771414, 0.10588388904847612, -0.12389414676886422, 0.18357956743817389, -0.048301755727401176, -0.1102819262560482, -0.20999576766757008, 0.043285095871428106, 0.1489710942945258, 0.05246752060741068, 0.3827910487717486, 0.25054741699871735, -0.053689434963158825, -0.0493333437266403, 0.07451919395234276, -0.14551913968992025, 0.19665102945993118, 0.07162988601589378, 0.048722515596369344, 0.11454769201051683, 0.29090236169133127, 0.027602321526960776, -0.02371616139010359, 0.2574009568677523, 0.16711826192455148, -0.06281615802540653, -0.0024223593770919807, 0.025077529740188252, 0.07209653808086906, -0.23048276296809472, -0.2608053153954752, -0.15423238173285927, -0.1596346641898857, -0.1042386987074153, 0.10670690089706132, -0.02180922190093091, 0.02554500329849986, -0.20227828929923874, -0.08290611423017137, 0.1042115355962547, 0.1077953713694255, -0.14089284445043343, 0.03655412742839782, 0.3778528968930385, -0.007911812049948288, -0.12899137726533944, 0.0009074830598498789, 0.020593669549972504, -0.038443918616806586, -0.0032902920947399123, -0.24269995963108953, -0.16509031178733685, -0.03666912302512306, -0.033608679718586484, -0.09406325928595494, -0.024820985352784063, 0.020520797579776984, 0.1533847488385176, -0.018265966503278264, 0.06580271689604889, -0.09369197581674749, 0.09165244829251921, 0.06554190481251854, 0.14917128724879464, 0.12049033764263051, 0.10441416131040333, -0.02340018543552268, 0.04078200964355004, 0.17999035753244916, -0.10686522362202902, -0.10463435162441438, 0.020299935681199775, 0.06840040743544268, -0.14355654734578846, -0.017269606853817537, -0.01569188546038554, -0.3872937333781873, -0.03379799098923853, -0.018546328604972396, -0.02539810838811891, 0.2451106947408462, -0.19617704110029585, -0.1369941053033388, -0.45126797394262985, -0.08340832554515867, -0.06653132282673485, -0.08752426109277125, 0.1970788444428651, 0.1361456484036402, 0.02297159683222476, -0.0651674406029043, 0.17302933613131874, -0.0003116697375969526, -0.14333730715571014, -0.29391816813402094, -0.07070843793580461, 0.12659389640334162, 0.39020854846033903, 0.015248043781707544, -0.12534401078737983, -0.21155346526972843, 0.08050874349801868, -0.3041449928259255], [0.0929511476170281, 0.13341355067606206, 0.07439939581094193, -0.03171595475519683, 0.09222940633939401, 0.022530542179317433, -0.13556114698768054, 0.3147201890431701, -0.06335143538332096, 0.1364404451564156, -0.4166191183357954, 0.2096536464899159, 0.26464259863642814, 0.0005430303859600356, 0.09154922660052302, 0.09292377816554404, -0.11708921799117375, 0.08693391126803694, -0.1439011060004968, -0.1032237891024989, 0.19090311642628927, 0.16673003262093264, -0.12145968457409456, -0.11923808617124897, -0.11005563031378837, 0.12704127731716275, -0.17664068904585578, 0.06569090726452301, 0.13600448381020905, -0.011102250884670166, 0.16239625643885616, -0.05583972357442543, -0.038163930770659014, -0.16508239307344239, 0.17328570184790956, -0.13542262677535485, 0.08392734738108408, -0.013773255380920077, -0.17160814172918193, -0.08943017595415385, 0.2352539603258997, 0.041860983727334204, -0.1731443392515627, 0.055160571486461536, -0.019751522993051645, 0.5847672336503545, 0.04817662790263302, -0.06687584869590942, 0.242464357679992, -0.30758263458797075, 0.014550851477238629, 0.3388834206044346, -0.023629783001178656, -0.3000082829672653, -0.05398168304402342, 0.25250511477417764, 0.07055212376959505, -0.14787357697195214, -0.11030735790455569, -0.09964179272531211, 0.06498977059662542, 0.22402807234895858, 0.18750722332363562, 0.07225369748984006, -0.2346821850936772, -0.2242727380675331, 0.07999399182650495, -0.23016608342747905, -0.032548919460421176, 0.052936089565104705, -0.21115144513375514, -0.1648214223150199, -0.019782270932071095, 0.08233602493661038, 0.19181726473010896, 0.10634893202721064, 0.01263535751847262, -0.13963949756792968, -0.18266236902865898, -0.08141104363840325, 0.06649391466033494, 0.059305930590542316, -0.3554112651622683, -0.12971407193570986, 0.19934370926099365, 0.0077374725957383445, -0.24586818188528076, 0.4075520696725159, -0.014140068269156307, 0.05473709720031109, 0.06733683463386904, -0.06460312066967484, -0.13164571444791265, 0.36225189760299775, 0.1733316882967947, 0.13495345248848226, 0.09926423019987594, -0.1654433532305808, 0.21982064743913524, -0.15310908857788277, 0.04557378281548353, -0.27996192049770047, -0.34604694690875987, 0.062450924370745876, -0.13722656063139582, -0.3323404880340817, 0.09716797377764512, 0.35992357884121773, 0.23714619847356805, -0.043734435283759504, 0.005628850827974326, 0.15066783492683103, 0.19561475161679392, -0.06187085656945673, 0.02639662250794351, 0.044830912631874484, 0.09607165189105833, -0.021957971779306456, -0.021333858208686374, 0.23471344863182603, 0.21323565363681501, 0.07828268016836094, 0.29056001044777374, -0.061845356312719105, 0.28002340769295375, 0.08257658626723965, 0.5555980205366575, -0.1993356227788548], [-0.12077234589750356, 0.06203941114706231, 0.0666415941466229, 0.34275581284008083, -0.1254799895480102, 0.14832709517251397, 0.19429315343817258, 0.12689275089368232, -0.16267125141111127, 0.2428403545252969, 0.21154293485575495, 0.08917488656472644, 0.04110596245893368, 0.02589466607124537, -0.011642923600452836, 0.10736140849469604, 0.0015154684097631393, -0.1348612299489223, -0.16993282538771867, -0.12369349472578937, 0.04202810742547823, -0.007571601774997767, 0.039927362380778715, 0.09053633233042795, -0.11326005548381918, 0.24974810022296823, -0.04763193171851126, -0.0747057004589983, 0.09272725689679723, -0.3309949315520439, -0.14815256722388212, 0.16203368210201718, -0.2985539532317856, 0.19196316806510105, 0.24892690541822865, -0.06725161988340428, 0.0565323212035346, 0.18916848913087025, -0.07304151334182643, 0.15960438451621303, -0.11953609530504604, -0.08388264458161981, -0.13945808308960797, 0.06249233853517645, 0.20452924169541237, -0.041538831623798414, -0.21468923625695827, -0.181731190810214, 0.06572536556574406, 0.3172792677609532, 0.06362881351999719, -0.06851433071235723, 0.12642104059784914, -0.031364998375858565, -0.049525945009984584, -0.15708432849473103, 0.23750301903160112, -0.4383066798678792, 0.13956184639955505, -0.0961373989376997, -0.06187318063797183, 0.2734250179916333, -0.1164952823557809, -0.11703619382116254, -0.01081017115882279, 0.06865312084848298, -0.09090579374358529, -0.26982876910484443, -0.1438137886252505, 0.22994230705800606, 0.001075193970062287, 0.0823610199827867, -0.0564025736081856, -0.11292711609501438, 0.2887945355001927, -0.03404610453249224, -0.07742066341016533, 0.19606940447786433, -0.12323155717546164, -0.0916645491730347, -0.0053151307175432995, 0.0009363669417260603, 0.043393011949139935, 0.3581330312862315, 0.05197465173266085, -0.403376198098979, 0.052099833967582304, 0.010318535822245753, 0.010077747897159095, 0.0352615375640285, -0.005757864203422616, -0.016951883944632717, 0.10153093115160754, -0.09412561999275763, -0.16436771613976786, 0.5254201122859529, -0.1365197607938385, 0.024710638680772452, -0.26196264143819903, 0.007715229193306159, -0.14251277111725993, -0.09968281502799745, 0.18333505141046375, 0.08832026669325996, 0.10014555766902007, -0.2994491772302703, 0.3171879463455308, -0.211626163930244, 0.25719564616895274, 0.16770314397102773, 0.10754385623544083, -0.14817461123345915, 0.030143345334906767, -0.07952708015806358, 0.002307397770940498, -0.042895175165987925, -0.35387861301833623, 0.20133544139875897, -0.01104215962044262, -0.08740323302927959, -0.0917532338691203, 0.06295197158967877, -0.1623265690909818, -0.38580440731869053, 0.07407049853654682, 0.07961715730577028, -0.039951241406803964, -0.1918399823776858], [0.011825476749981675, -0.2573825533911968, -0.18306258546688364, -0.11685184200114515, 0.13133883181818237, -0.0701445212204535, -0.07943518109353064, 0.3234073655745293, 0.06466570227089136, 0.07411797754943757, -0.06416092707369513, -0.11908924078911412, -0.36771797821804536, 0.16033661066106442, 0.05438632797199912, -0.03802810121892949, -0.023981290737584267, 0.12469792140178455, -0.2753091747511367, -0.09348773416834195, -0.18412948142146185, 0.30047174594573994, 0.1524451236494939, -0.38142194357233894, -0.25912026396539445, -0.014742637102891877, -0.08024971794198935, -0.22982788574291957, 0.33999219752328547, 0.049314591414270144, 0.07740683924265436, -0.11587024483353182, 0.1253195378893951, -0.06093152862637227, -0.03954893858052539, 0.10557085255218437, -0.2570163788283073, 0.2729273454182796, 0.03650381231336807, 0.22258504815387287, -0.18274167249702442, -0.15301461362293903, -0.20256062671576602, 0.039696202972043675, 0.015332823704851456, -0.08381687441082623, -0.167929044007337, -0.22457494527544844, -0.004589145231547759, -0.07485061544196663, -0.11537128852192183, 0.26020910175865003, -0.015617654903443462, 0.219585246525485, -0.08422530775630553, 0.044100908523527216, -0.008245993781857364, -0.3048185476834764, 0.25801644449203426, -0.02609670370470182, 0.1463836971514868, -0.13240196484894848, -0.027700359533911634, -0.15229435118738102, 0.21568426547970107, 0.03862742934876136, 0.04977145242670903, 0.22854746359841938, 0.20768187166687077, 0.1284535783399391, -0.254594500873915, -0.10565970553204056, -0.15403091094835913, 0.12318971237104015, 0.03329241992649057, -0.24130779761680246, -0.03128295774684007, -0.2651894553755679, -0.005745381820789709, -0.27725493964568665, 0.09188843265689794, 0.07054544955658092, 0.3229446092022013, 0.1445258800368876, -0.06883142460221703, 0.13462145365717929, -0.2411655039983392, -0.16259409811711711, 0.0432952311242763, -0.37347488905052434, -0.008120080563437363, -0.1822143365226625, 0.016937760683437303, -0.19229647641943073, 0.07706310658114326, 0.0015495726540522884, 0.23325600613553005, 0.008494918378665074, -0.13226530024905692, -0.04963380486147485, -0.24487998651765644, 0.06973894679909846, 0.10107409090306668, 0.4315436045382649, -0.11450307970237902, -0.044279225332542124, -0.08805207145733925, 0.037523217687542756, 0.06483801746983046, -0.0009614784588467898, 0.1895549383403209, -0.09766181428085431, 0.17598171821421263, 0.09589477136154789, 0.008676472833132526, -0.06321123964961622, 0.4254020388593017, -0.13539761355982652, 0.058480231201819353, -0.1364558335527526, 0.31325413360579224, 0.14859805882422153, -0.12101707205058575, 0.08848063978115109, 0.05359683407541638, -0.08855818145241737, 0.1260797970569576, 0.06606817529545311], [0.038632599474969505, -0.022346253165030607, 0.0745642963615172, 0.04166761548771156, 0.01320045970895319, -0.11529065163803427, 0.2882386126333337, -0.16203799341699296, 0.07225989893562301, -0.0483880753973724, 0.30790452357955506, -0.16467347422413353, -0.12066851630071147, -0.1825902223427704, 0.05256443633829867, -0.23431497196754258, -0.0872398273323098, -0.36511353675636227, 0.04141672295281748, -0.08602377462458846, -0.2579600448554398, 0.18813387377862614, -0.22543753924728746, 0.13503696195530313, -0.1182387772615372, 0.27650354700783625, 0.13346516393690885, -0.17927879839303823, -0.15030469453148218, 0.11496895236700128, -0.0686512742787195, -0.028594530261108232, 0.22682526907955786, -0.12196718303412774, 0.016885335155337994, 0.15181528010875664, 0.14065403687351385, -0.02977008184118507, -0.04263942598961893, -0.3030204380678294, -0.18143592313265494, 0.05436689714712792, -0.028406159950286093, 0.012821352234305323, 0.18428611344773094, -0.21779412837290166, -0.0410610356272044, 0.03028909829883094, -0.12358542536178561, 0.24652022422783393, 0.15207941857942506, 0.04778365494817353, 0.2995753383963836, -0.2532193125350557, 0.010831639274185104, 0.07118297888544695, -0.1566402829740253, 0.050794153239651293, -0.19555510582234611, 0.11472769905648025, 0.1929204062448962, 0.032866453069812056, -0.3097765657476825, -0.1709185421828968, 0.10622208632241517, 0.0021587505720953686, -0.46641177917457993, 0.2097493022911607, 0.03407996101676976, -0.13643113118331068, 0.16787958822211788, -0.09977416893579273, -0.12977730068710583, 0.06052954840536945, 0.30992149797905877, 0.279605273836509, 0.06856103625977479, 0.07445005423985115, 0.13378516483620478, -0.2004744111514061, 0.11319926546258409, -0.12864925914908681, 0.05127333551195438, -0.04255825552968088, 0.08376589975262975, 0.025391698470693523, -0.5223130383673913, 0.03057136690245755, 0.1236504964180595, 0.08198306305716807, -0.018759795856562705, 0.27974858252472945, 0.053598766796783825, 0.07163966224623611, 0.17896680312396984, 0.07459284783961588, -0.14122661006318946, -0.4126473510011651, -0.08924034320288549, 0.1173755854313766, -0.06031756094804249, 0.13414512995769443, 0.031619983665454425, 0.2359768683046697, -0.049330291492254916, 0.08069741128654076, 0.08449961830249919, 0.2651094537070201, -0.2969929358312214, -0.10056027085159322, 0.1538411924795909, 0.2655555727263611, 0.049264373037974325, -0.043266045827918626, 0.12733730242634814, 0.1469936457879696, -0.06889699041463589, 0.064629281494129, 0.19756863879120679, 0.3196339995928042, 0.13235384794764005, -0.0014617154208649572, -0.011148968558910231, 0.09635029079637185, -0.006242501251409719, 0.022677338558821404, -0.18352626387160922, 0.22199357765184166], [-0.19369117523652382, -0.05483947872553618, 0.01628535286773293, 0.3402452775487337, -0.06499817093058342, -0.11705221574002996, -0.09629222186835143, 0.28760857242591265, -0.5101468290033393, -0.17572069444282784, 0.46344349448581534, 0.09603277955784979, -0.1857441282567679, -0.01835779786580732, 0.020595083563950466, 0.14198714296179044, 0.31000547872195333, 0.06980712675672644, 